0.0020550834015011787 -0.006523531395941973 0.010720442049205303 -0.005631384439766407 0.01838463358581066 0.003095755586400628 -0.0032588427420705557 0.03607237711548805 -0.0008601095760241151 -0.010381453670561314 0.008033247664570808 -0.014509527012705803 0.0 -0.01709004119038582 0.0033861654810607433 0.02515633963048458 0.024543780833482742 0.0 -0.0012457582633942366 0.0068685999140143394 0.0043153343722224236 0.0025482543278485537 -0.0020795443560928106 0.0073554860427975655 0.0 0.0005036691436544061 0.0033121290616691113 0.008263475261628628 -0.007988584227859974 0.01078309677541256 -0.0029847288969904184 -0.003119777189567685 -0.020320575684309006 -0.013973642140626907 0.0 -0.00034635281190276146 -0.0059601482935249805 -0.0015979899326339364 0.00795418955385685 0.011675289832055569 -0.0007129990844987333 -2.542967558838427e-05 0.008993455208837986 -0.0009476697887293994 0.0 0.004649078939110041 0.0 -0.013046667911112309 0.005797332618385553 0.0 0.00490660360082984 0.009388265199959278 -0.028500700369477272 0.002036459743976593 0.013816154561936855 0.005412671715021133 0.00962510984390974 0.005473238416016102 0.01311268750578165 -0.00010484955419087783 -0.006256203632801771 -0.0033559079747647047 0.009209459647536278 0.0019553632009774446