0.26673445105552673 0.2573399245738983 0.02629082463681698 -0.16289103031158447 -0.28314855694770813 -0.01367724034935236 0.08859632909297943 0.07488856464624405 0.07222332060337067 -0.15368349850177765 0.033540792763233185 -0.16406361758708954 -0.062209464609622955 -0.22979669272899628 -0.06650779396295547 0.12112836539745331 0.2512405812740326 0.000379469565814361 0.015399692580103874 0.01470595970749855 0.030479256063699722 -0.09892253577709198 0.10222533345222473 0.0044907680712640285 -0.08838903903961182 0.07528848201036453 -0.11156436800956726 -0.07408647984266281 -0.0028361326549202204 -0.14310891926288605 0.01279492024332285 0.07789107412099838 -0.052773695439100266 0.05280795693397522 0.2632981240749359 -0.11602816730737686 0.22615791857242584 0.11752014607191086 -0.014371339231729507 0.21948663890361786 0.06680537015199661 -0.14541776478290558 0.17014823853969574 0.018071886152029037 -0.18585744500160217 0.04730674996972084 0.03582850098609924 -0.1341676265001297 -0.00948640238493681 0.08810655772686005 0.23546703159809113 -0.03240932524204254 -0.18400846421718597 -0.25258365273475647 -0.27213191986083984 -0.0045800283551216125 0.2112393081188202 0.5207401514053345 0.04862063378095627 -0.09425970911979675 0.009473325684666634 0.11063431948423386 0.14257533848285675 -0.03829316794872284 -0.18055742979049683 0.008709784597158432 -0.04936322942376137 -0.03938458859920502 -0.3055351972579956 -0.06116765737533569 0.04167873039841652 0.307877779006958 0.20576418936252594 0.23171059787273407 0.21808698773384094 0.1800355762243271 0.029827725142240524 -0.0007119518704712391 0.02020997367799282 -0.08462262153625488 0.0015684525715187192 0.03728073462843895 0.04968452826142311 -0.1565113365650177 0.3753635585308075 0.2534191310405731 0.04816795140504837 0.4856334328651428 -0.3968795835971832 0.3590441346168518 0.117389976978302 -0.07122157514095306 0.02869868278503418 0.1591932475566864 -0.005915942136198282 -0.08390608429908752 -0.13088944554328918 -0.20364739000797272 0.0356677882373333 -0.1048227921128273 0.14119702577590942 -0.01686065085232258 0.22170113027095795 -0.03127541020512581 0.2152453064918518 0.24484644830226898 0.18761777877807617 -0.10310781747102737 -0.05953484773635864 -0.21774105727672577 -0.21507349610328674 -0.14281536638736725 0.062540702521801 -0.17530566453933716 0.06674309074878693 0.014417016878724098 0.023685406893491745 -0.3814454972743988 -0.21972323954105377 0.04180041328072548 0.11780215054750443 -0.25625935196876526 -0.063043013215065 -0.1434759497642517 0.08667214959859848 0.24335284531116486 0.005879553500562906 0.1190076693892479 -0.029837533831596375 0.1703660786151886 0.0013099194038659334 0.1595902442932129 -0.055008094757795334 -0.14859922230243683 0.48047637939453125 -0.1851527839899063 0.0003031145315617323 0.17902220785617828 -0.12348196655511856 0.0177888385951519 -0.19992008805274963 0.01458501722663641 0.05533501133322716 0.14671073853969574 0.11027108132839203 0.29045212268829346 -0.20134542882442474 -0.1776130646467209 0.004984558094292879 0.4085666835308075 -0.1347365379333496 0.0026195694226771593 0.11990248411893845 0.10764095187187195 -0.26018133759498596 -0.22293172776699066 -0.026677416637539864 0.12131979316473007 -0.042582347989082336 0.38874170184135437 0.25023502111434937 0.2724643051624298 0.4094058871269226 -0.15699468553066254 0.04719439148902893 -0.11516501009464264 0.2256724238395691 0.2733348608016968 0.01601172611117363 -0.11645689606666565 0.1797701120376587 -0.006751274224370718 0.17681854963302612 -0.20602759718894958 0.2091713696718216 -0.00742372777312994 -0.1388569474220276 -0.04455600306391716 0.07366663217544556 -0.21144452691078186 -0.05919274687767029 0.11362550407648087 0.2766437828540802 -0.0698622390627861 0.3505708575248718 0.00916096568107605 -0.020173242315649986 0.0931655764579773 -0.22853533923625946 0.1542561799287796 -0.2245611995458603 0.03642652928829193 0.10785719752311707 -0.12660999596118927 0.1811419427394867 -0.20468007028102875 0.06049439683556557 0.06226475536823273 0.23377680778503418 -0.2615348994731903 0.14272533357143402 0.15111571550369263 0.07505430281162262 0.15999938547611237 -0.10803619772195816 0.16080516576766968 -0.3427520990371704 0.2575197219848633 -0.17254625260829926 -0.030081072822213173 0.1762751042842865 -0.5301758050918579 0.07969808578491211 0.13869497179985046 0.09440896660089493 0.033975936472415924 -0.1029922366142273 -0.020384546369314194 -0.04929347708821297 0.3707738518714905 0.2814430594444275 -0.4478992819786072 -0.014598374255001545 0.21932381391525269 -0.02448265068233013 -0.2121141105890274 -0.07813193649053574 0.0472063310444355 0.22407516837120056 -0.06738079339265823 -0.11959142982959747 0.09016963094472885 -0.12827904522418976 0.3492414951324463 -0.10238256305456161 -0.25135350227355957 -0.16363780200481415 -0.04632887244224548 0.12813811004161835 -0.2726333737373352 -0.2915897071361542 0.24935194849967957 0.06361307948827744 0.026613937690854073 -0.11189837753772736 -0.07733789831399918 0.23779457807540894 -0.07298249751329422 0.4110405445098877 0.13930244743824005 0.08548010140657425 0.1799463927745819 -0.002801229478791356 -0.07058269530534744 0.16201695799827576 -0.11021028459072113 -0.2152532935142517 0.038957566022872925 0.002272882731631398 -0.07694146782159805 -0.25629279017448425 0.26937544345855713 -0.36253413558006287 -0.18524731695652008 0.1016833633184433 -0.22752788662910461 0.09946783632040024 0.11131459474563599 0.16951273381710052 0.14367005228996277 -0.058630164712667465 -0.3192329406738281 0.08280080556869507 0.13125011324882507 -0.09485974162817001 0.06459717452526093 -0.10140637308359146 -0.07084963470697403 0.24184876680374146 -0.04581287130713463 0.24482479691505432 0.09247203171253204 -0.14869217574596405 0.1896829754114151 -0.07029416412115097 -0.0708426982164383 -0.009970208629965782 -0.1347845494747162 -0.09306861460208893 -0.021159568801522255 0.13532796502113342 0.15338514745235443 -0.09651699662208557 0.051774509251117706 -0.17568817734718323 0.051840197294950485 0.11992701888084412 0.18573731184005737 -0.0427306592464447 -0.15764088928699493 0.013728217221796513 -0.11103497445583344 0.15795885026454926 -0.18561826646327972 0.22356925904750824 -0.006892380770295858 0.2296251356601715 -0.39925867319107056 0.15393362939357758 -0.06451626121997833 -0.02557417005300522 0.1592061072587967 0.3116249740123749 -0.0318877212703228 0.04689731076359749 0.3917611837387085 0.2702045738697052 0.20716789364814758 0.3638158142566681 -0.15276095271110535 -0.24790765345096588 0.1698940396308899 -0.024474605917930603 0.14831990003585815 0.058663781732320786 -0.07772281765937805 -0.06208302080631256 -0.12973512709140778 0.0683927983045578 0.19437550008296967 0.04936464503407478 -0.18323799967765808 -0.17531509697437286 0.005115259438753128 0.19327522814273834 0.05023716017603874 -0.03859053552150726 -0.14992797374725342 -0.062496308237314224 0.1651524156332016 -0.14430589973926544 0.35058265924453735 0.27730506658554077 -0.2554253935813904 0.23531879484653473 -0.12005896121263504 0.007170096039772034 0.1158435121178627 -0.06527837365865707 -0.2421289086341858 0.10958198457956314 -0.03416562080383301 -0.07600367814302444 0.33734890818595886 0.19604536890983582 -0.2652038037776947 0.33361315727233887 0.28993475437164307 -0.1087455153465271 -0.21196328103542328 -0.08354295790195465 -0.11000169813632965 -0.0064319041557610035 -0.05591448023915291 -0.2971591353416443 0.07001010328531265 0.16811391711235046 -0.018415024504065514 -0.38489508628845215 -0.09840120375156403 0.07248850166797638 0.4002075791358948 0.12080342322587967 0.33728501200675964 0.10051744431257248 0.059710998088121414 0.14792011678218842 -0.0035567935556173325 -0.0171512383967638 -0.03306417912244797 0.13925188779830933 0.011068678461015224 -0.19976192712783813 -0.046489134430885315 0.10836860537528992 0.18925553560256958 0.06294410675764084 -0.31289470195770264 -0.050274934619665146 -0.14446821808815002 0.01497709285467863 -0.06861834973096848 -8.741181227378547e-05 -0.05481093376874924 -0.2211410105228424 0.023447822779417038 0.0037971988786011934 0.19769814610481262 -0.007877894677221775 -0.032873284071683884 0.1138131320476532 -0.1692306101322174 0.01179500576108694 0.15596981346607208 0.17798961699008942 0.027740539982914925 -0.011277015320956707 -0.07871057838201523 -0.27607396245002747 -0.32988616824150085 0.06644115597009659 -0.026143154129385948 0.043167173862457275 0.06233462691307068 -0.17595908045768738 0.30061590671539307 0.2517907917499542 0.18590718507766724 0.05240350589156151 -0.137790709733963 0.44524431228637695 -0.08901916444301605 -0.16754302382469177 0.025002513080835342 0.01727837137877941 -0.0737912654876709 -0.42341187596321106 0.3860175609588623 0.248748317360878 0.040539879351854324 -0.2625741958618164 -0.07427480816841125 0.36158978939056396 0.1705457717180252 -0.03413368761539459 -0.1135675385594368 0.11142829060554504 -0.07658524066209793 -0.17479799687862396 0.03025670349597931 0.330390065908432 -0.06648571789264679 0.04072261601686478 0.11687368154525757 0.2300281822681427 -0.1083105280995369 -0.0025521479547023773 0.024987995624542236 0.3205704092979431 0.24771106243133545 0.06603767722845078 -0.004214027430862188 0.04993266612291336 0.021501246839761734 -0.0013209268217906356 -0.15775911509990692 -0.052739404141902924 -0.16308481991291046 -0.047283172607421875 0.3748343288898468 0.02117420732975006 0.3640196621417999 -0.2458912879228592 0.2316422015428543 0.1582421064376831 0.4664241075515747 -0.31975287199020386 -0.2890237867832184 -0.023064566776156425 0.001406791270710528 0.04575623944401741 0.016978466883301735 -0.09345449507236481 0.0757928341627121 0.037493858486413956 -0.21061496436595917 -0.1867719292640686 -0.28477582335472107 -0.28912124037742615 0.009263865649700165 0.17843881249427795 -0.0018075950210914016 -0.08373037725687027 -0.17806844413280487 0.14545327425003052 -0.10707785934209824 -0.14939257502555847 0.16768722236156464 -0.10348929464817047 -0.43279924988746643 -0.246022030711174 -0.35122132301330566 -0.08343803137540817 0.10472244024276733 -0.05818914994597435 -0.18458916246891022 -0.1333511769771576 0.07837455719709396 -0.17939139902591705 0.1797700822353363 0.05300338566303253 -0.23730026185512543 0.08177421241998672 -0.1935936063528061 -0.47572261095046997 0.041117120534181595 0.1642788201570511 -0.08638009428977966 0.05037425458431244 -0.31261882185935974 -0.14836211502552032 0.1512996256351471 0.13373945653438568 -0.13678385317325592 0.11923526227474213 -0.2059217095375061 -0.020335061475634575 0.2504071891307831 0.22862449288368225 0.13989634811878204 -0.08585380017757416 -0.1945229470729828 0.06792734563350677 0.1537778377532959 -0.044421128928661346 0.1659911572933197 0.3318016827106476 -0.13807255029678345 0.06343945860862732 0.043711043894290924 -0.15783247351646423 0.02274029701948166 0.05341160669922829 -0.2829360067844391 0.014709265902638435 0.03132713958621025 -0.020464958623051643 -0.00469720596447587 0.10196740925312042 -0.06746122986078262 0.17360246181488037 -0.0594274066388607 0.06239348277449608 0.033287160098552704 -0.012965735979378223 -0.09334312379360199 -0.04716793820261955 0.1423484981060028 0.006298868916928768 0.05604282766580582 0.12418081611394882 -0.1784408539533615 0.4384932219982147 -0.24021655321121216 0.12007099390029907 0.1782902330160141 -0.17924202978610992 -0.16506531834602356 -0.23282453417778015 0.031358007341623306 -0.03663993254303932 0.025928521528840065 0.15101955831050873 -0.05753631517291069 0.18608351051807404 -0.11030462384223938 -0.10785654932260513 0.19028012454509735 0.1969834864139557 0.18481506407260895 0.13531556725502014 -0.2425697147846222 -0.20511898398399353 0.09998185187578201 0.005068387370556593 0.15235260128974915 -0.4013051390647888 -0.03467386215925217 0.05466662719845772 -0.0068553658202290535 -0.26365748047828674 0.02010718546807766 -0.02266567200422287 -0.2666943073272705 0.09962242841720581 -0.1596110463142395 -0.17519009113311768 0.16973713040351868 -0.14073054492473602 -0.05355910211801529 -0.13747325539588928 0.22722621262073517 -0.07619748264551163 -0.19745683670043945 -0.025326518341898918 0.1850062608718872 -0.02695067599415779 -0.14974340796470642 -0.005904807709157467 -0.1070106029510498 -0.10036620497703552 -0.2266400307416916 0.21441462635993958 0.12401334941387177 -0.28456905484199524 0.19612441956996918 -0.35074302554130554 0.21043623983860016 0.06069762632250786 0.07473853975534439 -0.11183235049247742 0.03102707304060459 -0.16160400211811066 -0.2791525721549988 0.13102926313877106 0.334905207157135 -0.08496401458978653 -0.0842924490571022 0.12297307699918747 0.20104534924030304 0.2183143049478531 0.02146337367594242 -0.08041685819625854 -0.022608179599046707 0.04547259211540222 0.26686689257621765 -0.3055914044380188 -0.1388978213071823 0.017212336882948875 0.13795167207717896 0.009498588740825653 0.11063969135284424 -0.15238814055919647 -0.18142138421535492 -0.17436613142490387 -0.0875716432929039 -0.13326069712638855 -0.03890836983919144 0.060385748744010925 0.22073373198509216