0.028792453929781914 0.0029705020133405924 0.11273138970136642 -0.1350281983613968 -0.36591431498527527 -0.03534584864974022 0.48535120487213135 0.23598289489746094 -0.3297000229358673 0.11668634414672852 0.36708682775497437 -0.043310802429914474 -0.13015784323215485 -0.26452401280403137 0.24008579552173615 -0.44486215710639954 -0.24629244208335876 -0.41734492778778076 0.4696550667285919 -0.15924930572509766 -0.44505199790000916 -0.1247522383928299 -0.2586829960346222 0.3966869115829468 0.32154345512390137 -0.35407543182373047 -0.4723309576511383 0.29623937606811523 -0.4515218734741211 -0.08688831329345703 0.45704385638237 0.0071685113944113255 0.33160629868507385 -0.015819381922483444 0.22471730411052704 0.41319072246551514 -0.39838430285453796 -0.47405022382736206 -0.03726206347346306 0.20091211795806885 -0.5262342095375061 0.3727005124092102 0.36763718724250793 0.07318663597106934 0.19430917501449585 0.246595099568367 -0.39165523648262024 0.02572500705718994 0.20471996068954468 0.24889850616455078 -0.388308048248291 -0.14823350310325623 0.2480209916830063 0.5520781874656677 0.27289360761642456 -0.31433382630348206 0.4258789122104645 0.2766456604003906 -0.3133324384689331 -0.15843132138252258 -0.007314312271773815 -0.3527925908565521 -0.4994780421257019 0.34156814217567444 -0.23684944212436676 0.000713779532816261 0.35315850377082825 0.17523086071014404 -0.022022666409611702 -0.1056082546710968 -0.5044467449188232 -0.1600998491048813 0.25283491611480713 0.3877614736557007 0.08005955070257187 -0.16213451325893402 -0.5097917318344116 0.33633357286453247 -0.1441630870103836 0.15915870666503906 0.4541275203227997 -0.11124079674482346 -0.507716715335846 -0.07223715633153915 0.12708008289337158 -0.07314182817935944 0.11318767815828323 -0.04334491491317749 0.298764705657959 0.3210524916648865 -0.2520812749862671 0.20260268449783325 0.34247076511383057 -0.3992837369441986 0.3532339036464691 -0.49464336037635803 -0.3448755741119385 0.4967172145843506 -0.07667864859104156 0.1032223105430603