0.011200991459190845 -0.014156214892864227 -0.04035146161913872 0.031518105417490005 -0.02715717814862728 0.009760049171745777 -0.003515341319143772 0.006556141655892134 -0.02148514613509178 0.022350996732711792 -0.02452012337744236 0.042019132524728775 -0.02363751269876957 -0.01699298433959484 0.03248449042439461 -0.041937608271837234 -0.013938133604824543 -0.03680168092250824 0.002334240125492215 -0.011796684935688972 0.012024207040667534 -0.01657993160188198 0.019663706421852112 -0.0007066652760840952 0.01613616943359375 -0.0021503388416022062 0.05551968142390251 0.027699027210474014 0.01214208360761404 0.01697603054344654 -0.011518971063196659 -0.05501488223671913 -0.030173560604453087 0.021723052486777306 -0.02674250863492489 0.019962146878242493 0.015811121091246605 -0.03456976264715195 -0.01199569646269083 0.0036161181051284075 -0.01892758160829544 0.02620909921824932 -0.020978661254048347 -0.024760428816080093 -0.05977552384138107 -0.027705760672688484 -0.02665899321436882 -0.010454140603542328 -0.0471317358314991 0.0017104888102039695 -0.010842756368219852 0.01730019971728325 0.03437560051679611 -0.03085029497742653 0.01895347237586975 -0.0064796144142746925 0.006751139648258686 0.0038884636014699936 -0.04249229282140732 0.012068952433764935 -0.017099745571613312 -0.008772785775363445 -0.013896225020289421 -0.03894270956516266 -0.0065396809950470924 0.004415489733219147 0.012299718335270882 -0.011048128828406334 -0.0081521300598979 -0.008670414797961712 0.033195436000823975 -0.0062520792707800865 0.021825719624757767 0.002480287803336978 0.011086898855865002 -0.0010285094613209367 -0.017103755846619606 0.019596971571445465 0.01026691123843193 0.0015560960164293647 0.053094830363988876 0.0005120093701407313 0.008946772664785385 -0.002707677660509944 -0.0440950021147728 0.02167687751352787 -0.0017883352702483535 0.0030598188750445843 0.024088863283395767 0.05156200751662254 -0.019054416567087173 0.03548385202884674 0.02350638061761856 0.010014278814196587 -0.03986930847167969 -0.007535449229180813 0.004863779526203871 -0.008847927674651146 -0.019070608541369438 0.0046131727285683155 0.016990920528769493 -0.01335951965302229 0.014816219918429852 0.01483042910695076 0.019219478592276573 0.02399938553571701 -0.026245594024658203 0.003939209505915642 -0.027584057301282883 -0.0022138592321425676 0.00021279026987031102 0.016871698200702667 -0.03673151135444641 -0.042485546320676804 -0.04434410110116005 -0.03696749731898308 -0.024111250415444374 -0.007336043287068605 -0.028817936778068542 -0.008422335609793663 0.008270802907645702 0.033394936472177505 0.026541367173194885 -0.015442192554473877 -0.013822208158671856 0.0341859795153141 0.05961843952536583 0.03928866982460022 -0.005433093290776014 0.015159052796661854 0.004015889950096607 -0.02479766495525837 0.012185100466012955 -0.012246270664036274 0.011865280568599701 -0.03716084733605385 -0.02134968340396881 0.04533543810248375 0.006796363275498152 0.042030271142721176 -0.0002842348476406187 0.06179281324148178 0.026547014713287354 -0.0809248760342598 0.0007656342932023108 0.027509186416864395 0.0027100613806396723 0.043670035898685455 0.043291930109262466 0.04748326539993286 -0.02433161623775959 0.0026981602422893047 0.00521561736240983 0.015774738043546677 -0.034822672605514526 -0.008308126591145992 0.0033622020855545998 0.0005006093415431678 0.05417386069893837 0.04632086306810379 0.009944275952875614 -0.039105888456106186 0.057723626494407654 -0.01368863694369793 -0.0008106809691525996 0.03514408692717552 -0.0008366997353732586 -0.03293101489543915 0.02969694510102272 -0.016644423827528954 0.0017504194984212518 -0.010244105942547321 -0.025545574724674225 -0.027674708515405655 -0.01801244355738163 -0.00010816816211445257 -0.00874721072614193 -0.0025891808327287436 0.016267523169517517 -0.02119806595146656 0.03654557093977928 -0.005360989831387997 0.024276893585920334 0.004260155837982893 0.0017947466112673283 -0.0023257199209183455 -0.008594122715294361 0.014445389620959759 0.04600314795970917 -0.0023623250890523195 0.03354700654745102 0.009297247044742107 -0.01078660786151886 0.055563248693943024 0.04221097752451897 -0.027724003419280052 0.00905182957649231 -0.023962344974279404 0.008187094703316689 -0.0335698239505291 -0.02537962608039379 -0.0017624866450205445 -0.036192670464515686 0.016610953956842422 0.05823131278157234 -0.06939026713371277 0.001978115877136588 -0.02370505779981613 -0.004821825306862593 0.02682104893028736 -0.0002256611769553274 0.012906119227409363 -0.029079481959342957 0.020344218239188194 -0.022726310417056084 0.01812329888343811 0.03383590653538704 0.013799738138914108 -0.016130248084664345 -0.02373325079679489 -9.429593046661466e-05 0.008264457806944847 -0.042575959116220474 -0.014165660366415977 0.02976011484861374 0.009091229178011417 -0.0405278243124485 0.002808911260217428 0.033770766109228134 -0.026686733588576317 -0.0007087074918672442 -0.0038111761678010225 -0.03249145671725273 -0.017595075070858 0.05597938969731331 -0.037372272461652756 -0.05423964560031891 0.05704093724489212 0.00011004236876033247 0.02781485766172409 -0.018210532143712044 0.016363099217414856 -0.039012420922517776 0.03943800553679466 -0.0284622423350811 -0.011919134296476841 0.015104101970791817 0.023521779105067253 0.01711433380842209 0.002132402267307043 0.001689738011918962 0.03022514469921589 0.019466085359454155 0.00353196426294744 -0.022377686575055122 0.0034331094939261675 -0.009387834928929806 0.01824503019452095 -0.010284646414220333 -0.001970271347090602 -0.019814200699329376 -0.0022898525930941105 0.0006412043003365397 0.039664991199970245 0.02062588557600975 0.0354839563369751 0.021472366526722908 -0.004519531037658453 0.0027734963223338127 0.04216327145695686 0.014002113603055477 -0.04166930913925171 -0.01980854757130146 -0.011521211825311184 0.05549580976366997 -0.0299286637455225 0.005609935149550438 0.025476746261119843 -0.03895135223865509 0.029720723628997803 0.03966382518410683 0.005317073781043291 -0.03724262863397598 0.010761283338069916 -0.011519019491970539 -0.013245881535112858 0.0025501723866909742 -0.014741328544914722 0.004793648608028889 0.031313635408878326 0.01920331083238125 -0.024461768567562103 0.022437790408730507 -0.029667938128113747 -0.03663811460137367 0.003018878633156419 -0.023811010643839836 -0.003767469897866249 -0.003474316792562604 -0.011328065767884254 -0.04081769660115242 0.03432048484683037 -0.0500553622841835 -0.017481617629528046 -0.012912897393107414 0.055627062916755676 -0.042071644216775894 0.03328144922852516 0.023548515513539314 -0.0015653817681595683 -0.01675942912697792 -0.028010305017232895 0.012540558353066444 0.017505358904600143 -0.01760687120258808 0.02885757014155388 -0.021314434707164764 0.006541963666677475 -0.02771560475230217 0.018709393218159676 -0.000257160107139498 0.05470368638634682 0.0015044526662677526 0.0108160600066185 -0.0285085029900074 0.023620890453457832 -0.036689240485429764 0.009863760322332382 0.004933835007250309 0.01327642984688282 0.062005218118429184 0.013087498024106026 -0.01790834404528141 -0.013800474815070629 0.0469936840236187 -0.0023418706841766834 -0.010205059312283993 0.023302698507905006 -0.018767258152365685 -0.009376772679388523 0.010228791274130344 0.05395279824733734 -0.023210031911730766 0.008131283335387707 0.00028953017317689955 -0.008792477659881115 -0.06277121603488922 -0.017369257286190987 0.0010540083749219775 0.033269066363573074 0.021429073065519333 0.026965266093611717 -0.004694291856139898 -0.00036766158882528543 0.0004735026741400361 -0.004484905395656824 -0.03475283086299896 -0.04346884414553642 -0.02345006726682186 -0.02362910658121109 -0.04066170006990433 -0.005200667772442102 0.005686294287443161 0.01381121575832367 -0.009039804339408875 -0.04038971662521362 -0.03156696632504463 -0.003556454787030816 -0.019217943772673607 -0.01535250898450613 0.009115783497691154 -0.0004337433783803135 -0.01766517385840416 0.029849190264940262 0.0005184061592444777 -0.007781375665217638 -0.022846167907118797 -0.024400241672992706 -0.016195744276046753 -0.03700638562440872 0.0022457430604845285 0.025233803316950798 -0.015572980977594852 -0.01704990305006504 -0.012694813311100006 0.01055244542658329 -0.015840867534279823 -0.026164766401052475 -0.007620014250278473 0.0040856716223061085 0.03154750168323517 -0.06530603021383286 -0.03737236186861992 0.0232375655323267 0.01549628283828497 0.007755365688353777 -0.01840054988861084 -0.03921176493167877 -0.009865542873740196 0.0041650948114693165 -0.0390169695019722 0.0077756913378834724 0.0009541613981127739 0.00776258111000061 -0.03183866664767265 0.03649057820439339 -0.05189930647611618 0.006753230933099985 -0.00555455731227994 0.017624298110604286 0.018266579136252403 -0.04111267998814583 0.029327217489480972 0.03906528651714325 -0.0045689125545322895 -0.023117180913686752 -0.039184484630823135 0.022140225395560265 0.022218573838472366 0.007302531506866217 0.027247300371527672 -0.0012779715470969677 0.02848237194120884 -0.0391734279692173 0.03445596992969513 -0.03658789396286011 -0.03349781781435013 0.0062596770003438 -0.02797551639378071 -0.030480405315756798 0.003781786421313882 -0.015490391291677952 0.009995188564062119 0.003387745004147291 0.006683141924440861 -0.013643354177474976 -0.02074761688709259 -0.008060788735747337 -0.027489446103572845 0.02165323682129383 -0.026136497035622597 -0.021156268194317818 0.0016828750958666205 0.016841933131217957 -0.01119227334856987 0.03034382313489914 0.021987413987517357 0.005113034043461084 -0.03488445654511452 -0.01821769028902054 0.017584657296538353 0.06347890198230743 0.015912994742393494 0.017367111518979073 -0.024405157193541527 0.03074689209461212 -0.015357223339378834 -0.05651302635669708 -0.019262902438640594 -0.009326011873781681 0.019011233001947403 -0.00823337770998478 0.03813667595386505 -0.052106376737356186 0.0012732782633975148 -0.017506103962659836 -0.05892854183912277 0.035742033272981644 -0.0003789008769672364 0.017001338303089142 -0.014156902208924294 0.03375420719385147 0.042030055075883865 -0.00044697822886519134 0.055524375289678574 0.0019222345435991883 0.00921051949262619 -0.015538892708718777 0.04934163764119148 0.03218105435371399 0.01641046442091465 -0.00780083891004324 0.02181701362133026 0.013565488159656525 0.002659059828147292 -0.005201869178563356 0.079005666077137 0.04477493837475777 0.004684234503656626 0.056343257427215576 0.027406305074691772 0.006609212141484022 -0.00079055578680709 0.007259237114340067 -0.01041022315621376 -0.018728692084550858 0.017600970342755318 0.026834728196263313 0.013876165263354778 -0.03629831597208977 -0.03994215279817581 -0.009042616002261639 -0.02568708546459675 0.020218826830387115 0.02568325586616993 -0.04197526350617409 -0.007305318955332041 0.013013448566198349 -0.039504602551460266 -0.03328758850693703 -0.003287805011495948 -0.013310088776051998 0.00963571947067976 0.012291998602449894 0.017197782173752785 0.002291063778102398 0.03469853103160858 0.022258995100855827 0.03043285943567753 0.023355334997177124 -0.022239649668335915 0.008553353138267994 -0.0060030207969248295 -0.061731625348329544 0.014878244139254093 0.028466422110795975 0.009107251651585102 0.028362255543470383 0.052563853561878204 0.005316810682415962 0.025254588574171066 -0.0386178120970726 -0.010750804096460342 0.02079039439558983 -0.05560598894953728 0.008529926650226116 0.0437348447740078 0.02462644875049591 -0.011135615408420563 0.0016887255478650331 -0.02694360539317131 -0.012242729775607586 -0.029203126206994057 0.010591515339910984 -0.023706326261162758 -0.002475182991474867 0.038874734193086624 -0.047315143048763275 0.03605038672685623 0.021133610978722572 0.004727805964648724 -0.017306771129369736 -0.01767001487314701 0.003122787456959486 0.000946126994676888 0.014116598293185234 -0.01012312900274992 -0.022285116836428642 -0.0022685802541673183 0.004717412404716015 -0.029581347480416298 0.03903123363852501 0.01700938679277897 -0.05898158624768257 -0.0059409732930362225 -0.0008756764582358301 -0.043188270181417465 -0.006254058796912432 0.006495949812233448 -0.013251976110041142 0.005681568756699562 -0.008260644041001797 0.028537455946207047 0.015049454756081104 0.019091656431555748 0.019891291856765747 -0.02245408482849598 -0.009903693571686745 -0.003059492679312825 -0.012291733175516129 0.017886251211166382 -0.001688654301688075 -0.012533703818917274 0.011744636110961437 0.01590127684175968 -0.025449171662330627 0.029505357146263123 0.01734405942261219 -0.01126759685575962 -0.004625055938959122 -0.020852243527770042 -0.05152832344174385 0.0301005020737648 -0.00759739987552166 0.05489766225218773 -0.008270361460745335 0.01844904199242592 0.05837737023830414 0.007515907287597656 -0.007923102006316185 0.03953191637992859 -0.04024181887507439 -0.02372460812330246 -0.0279181320220232 -0.0032583242282271385 -0.016657821834087372 -0.012851572595536709 0.004514295142143965 -0.011396036483347416 0.02544272691011429 -0.0379088819026947 0.02926493063569069 -0.011509030126035213 0.01134057343006134 0.03867940604686737 -0.02121620438992977 -0.003688907017931342 -0.006596132181584835 -0.021603811532258987 0.04460902512073517 -0.01631675288081169 0.004611331038177013 0.013163909316062927 -0.014551736414432526 -0.00977090559899807 0.005386241711676121 0.029882164672017097 0.01848967932164669 0.01006340142339468 0.004514860920608044 -0.0022909860126674175 0.011126243509352207 -0.01726333424448967 -0.014093131758272648 -0.023983802646398544 0.041619930416345596 0.023799844086170197 -0.023193225264549255 0.011328752152621746 -0.0025907696690410376 -0.011837505735456944 -0.0186146330088377 -0.022937074303627014 -0.024537842720746994 -0.008584439754486084 -0.0015649382257834077 -0.007097465451806784 0.03733837231993675 -0.024404659867286682 0.056177183985710144 -0.002344672102481127 -0.04510276019573212 0.008164172992110252 -0.011603644117712975 -0.009440623223781586 0.04266014322638512 -0.0359906330704689 -0.023654254153370857 -0.00945743452757597 0.0034451750107109547 -0.009867469780147076 -0.03770298510789871 -0.033407408744096756 0.001972714439034462 -0.045944105833768845 0.021437663584947586 -0.05890524759888649 0.016395514830946922 0.01083434373140335 0.024551309645175934 -0.011282430030405521 -0.016209358349442482 -0.02658400870859623 -0.004888754338026047 -0.027990171685814857 -0.04567471891641617 0.03690457344055176 0.022898584604263306 -0.011394078843295574 -0.02507590502500534 0.03384644538164139 0.014652888290584087 0.04577120766043663 0.01352963037788868 -0.024000566452741623 0.04159335047006607 -0.02406338043510914 -0.002057232428342104 0.0021335373166948557 -0.00600260216742754 0.008866682648658752 -0.00891393143683672 0.016016395762562752 0.008905495516955853 0.048538681119680405 -0.014258110895752907 0.010852018371224403 0.03059806302189827 0.026569630950689316 0.01860334724187851 0.010102985426783562 0.0043148500844836235 -0.014574216678738594 -0.04510168731212616 -0.043138667941093445 0.018757663667201996 -0.045286618173122406 -0.047465648502111435 -0.005870007444173098 0.025204196572303772 -0.005736507475376129 -0.007619901560246944 -0.013171091675758362 0.004143338184803724 0.005802868865430355 0.016159722581505775 0.02514326199889183 -0.04356678947806358 -0.03486967086791992 0.00692660640925169 -0.02378254197537899 0.03299413248896599 0.006186792626976967 -0.012357913888990879 0.03772658854722977 0.045764435082674026 0.011465094983577728 0.010462663136422634 -0.010046479292213917 -0.05591200292110443 -0.03458477929234505 0.0012157687451690435 0.021517399698495865 -0.005876407027244568 -0.029832402244210243 0.003934393171221018 -0.02510114572942257 -0.0014726337976753712 0.026838010177016258 0.006545518524944782 -0.05289782956242561 -0.02312765270471573 0.02919488586485386 -0.03005746379494667 -0.03606191277503967 0.011913352645933628 -0.005497178994119167 0.02103014849126339 -0.02587808482348919 0.011898559518158436 0.005812983959913254 0.00746226916089654 -0.01234921533614397 0.008546060882508755 0.02505546621978283 0.025375815108418465 -0.01740182563662529 -0.016079271212220192 0.030855027958750725 -0.0005676739965565503 0.010320717468857765 0.01665484718978405 -0.02028338797390461 0.026819605380296707 -0.004045629408210516 -0.04486710950732231 -0.017005743458867073 -0.02378680929541588 -0.03966420143842697 -0.027214884757995605 0.035866472870111465 -0.022975724190473557 0.010424843057990074 -0.04658902436494827 0.030108967795968056 0.01123586855828762 0.004353061318397522 -0.03592345863580704 0.028398973867297173 -0.01381265465170145 -0.039823636412620544 -0.009404949843883514 -0.010099486447870731 0.010382740758359432 0.008692186325788498 0.022370267659425735 -0.00968171562999487 0.009719369001686573 -0.010536439716815948 0.011563502252101898 -0.016807710751891136 0.010468457825481892 -0.02511240541934967 -0.0010629234602674842 0.007215844001621008 0.02109912596642971 -0.007289078552275896 0.005355415400117636 0.00514563824981451 0.04911806061863899 0.02000890113413334 0.023239044472575188 0.030746974050998688 -0.014821191318333149 0.00014032683975528926 0.02227257564663887 -0.03371617943048477 0.00044608244206756353 -0.031918998807668686 0.023244256153702736 -0.010026294738054276 -0.02488303743302822 -0.01991729438304901 0.008695396594703197 -0.005450854543596506 0.0006717265350744128 0.01482554990798235 -0.014762717299163342 0.0499221570789814 -0.04045923799276352 -0.058512862771749496 0.006492109037935734 -0.02351314388215542 -0.016236145049333572 0.024754833430051804 -0.011963923461735249 -0.026869066059589386 -0.002953354502096772 0.00580220390111208 -0.026567790657281876 -0.03059883788228035 0.052397359162569046 -0.004805482923984528 -0.012269326485693455 0.007045177277177572 -0.01819555088877678 -0.023321544751524925 -0.034284986555576324 -0.030349459499120712 -0.04390246793627739 -0.012882756069302559 -0.04233430325984955 0.013511632569134235 0.029337884858250618 0.013553080148994923 -0.009860677644610405 0.01105926837772131 0.01740380935370922 0.022346917539834976 -0.04142754152417183 -0.021088076755404472 0.028167501091957092 0.03819974139332771 -0.00973956473171711 0.010547369718551636 -0.0019688510801643133 -0.021692588925361633 0.021686645224690437 0.007201434578746557 0.009421798400580883 0.03203529864549637 0.01094507984817028 0.024985382333397865 0.016116565093398094 0.02058921754360199 -0.015673503279685974 -0.05448433756828308 0.08081474900245667 0.005436400882899761 0.02595270425081253 -0.027918759733438492 -0.01155786868184805 0.0018071954837068915 -0.01693049445748329 -0.021152175962924957 0.008815620094537735 -0.04751518741250038 -0.005716554820537567 -0.002223819959908724 0.0007964980904944241 0.037665244191884995 -0.018893375992774963 -0.02326536737382412 0.0162950549274683 -0.010903269983828068 0.008631308563053608 0.02061598375439644 0.061043448746204376 0.0043434142135083675 -0.010084555484354496 0.03584619611501694 -0.005675296764820814 -0.033681470900774 0.015616659075021744 0.01597108133137226 0.016726328060030937 -0.027872275561094284 -0.007775402627885342 0.019391030073165894 0.03812234476208687 0.03993453457951546 0.03588467463850975 0.020479470491409302 -0.042816948145627975 0.011788815259933472 -0.022919876500964165 -0.034600961953401566 0.0017529944889247417 -0.04762253165245056 -0.010562073439359665 0.03609863668680191 -0.0008607360068708658 0.008040990680456161 0.041306983679533005 0.006271766033023596 0.026751484721899033 -0.03138399496674538 -0.034861970692873 0.00010129889415111393 -0.016025619581341743 0.009526762180030346 0.01086873933672905 0.01404089666903019 -0.006198112387210131 0.00751227093860507 0.018304014578461647 0.008330636657774448 -0.03022121638059616 -0.016251951456069946 -0.04379947856068611 -0.038819555193185806 0.00821008626371622 -0.007570748683065176 -0.011850904673337936 -0.024091219529509544 0.007582802325487137 0.006462795194238424 -0.017235921695828438 -0.007283126004040241 -0.02389408089220524 0.00640842504799366 -0.021548712626099586 -0.04982622712850571 0.012308106757700443 0.04314517602324486 -0.016159787774086 -0.008815504610538483 -0.008296497166156769 -0.005368150305002928 0.006689733359962702 0.006275807041674852 0.006813916377723217 0.014188730157911777 -0.013379848562180996 0.00913683045655489 0.03999814763665199 0.0024871353525668383 -0.050113122910261154 0.017485912889242172 -0.006076375022530556 0.031464383006095886 0.005664699710905552 0.0045860218815505505 -0.03254447504878044 -0.04876092076301575 0.005435745231807232 -0.048217445611953735 0.011950141750276089 -0.03172529488801956 -0.08100934326648712 0.023107225075364113 -0.008661750704050064 -0.03612417355179787 -0.027252715080976486 0.01826620288193226 0.06675087660551071 -0.051768142729997635 -0.02184200845658779 0.009219764731824398 0.0132097527384758 -0.016963589936494827 -0.013760866597294807 -0.055069949477910995 -0.010236108675599098 0.023231536149978638 -0.026272783055901527 0.02080884575843811 0.01652199774980545 -0.0020947917364537716 0.01728084497153759 0.010183402337133884 0.02079712599515915 -0.025031808763742447 -0.005684172734618187 0.02224929817020893 -0.02049255557358265 0.0007905752863734961 -0.01655500754714012 0.026010189205408096 0.021876633167266846 -0.01276722364127636 0.00809954572468996 -0.025006690993905067 0.024072298780083656 0.0385441817343235 -0.005445106420665979 0.013044708408415318 -0.007787254173308611 -0.021119894459843636 -0.048036716878414154 0.03678218647837639 -0.015164985321462154 0.03477620705962181 0.005526843015104532 0.021158358082175255 -0.02083384059369564 -0.008063946850597858 0.026527300477027893 -0.0034469710662961006 -0.036357857286930084 0.022630754858255386 -0.0024170458782464266 -0.011859683319926262 -0.005028098821640015 0.006489637307822704 -0.0029181428253650665 0.00593738304451108 0.017032161355018616 0.015298638492822647 -0.01605248637497425 -0.015588242560625076 0.03678920492529869 -0.060592666268348694 -0.012176528573036194 -0.05409276857972145 0.0045307655818760395 0.03272025287151337 0.023594174534082413 0.0005543076549656689 0.005588149186223745 0.014248122461140156 -0.0028216089121997356 0.01088273711502552 -0.03947184607386589 0.0388667993247509 0.0399656668305397 0.010253462940454483 -0.021980376914143562 -0.00041918581700883806 -0.003808642504736781 0.019936393946409225 0.019015664234757423 -0.010722476057708263 -0.007392679341137409 -0.06261741369962692 -0.0474063865840435 -0.008935402147471905 -0.02314271219074726 0.05195134878158569 0.013977541588246822 -0.02278832346200943 -0.023262372240424156 0.0414595864713192 0.03233218938112259 -0.0065873851999640465 -0.003155810758471489 0.026330238208174706 0.017881833016872406 0.021011414006352425 -0.02279430441558361 0.016322389245033264 -0.02803107537329197 0.0007359859300777316 0.0068388995714485645 0.05341801419854164 -0.007257006596773863 0.02555955946445465 0.002286939648911357 0.0011674129636958241 0.003681933507323265 -0.019816741347312927 -0.004716519732028246 -0.02423352748155594 -0.01354183815419674 -0.01609766110777855 0.0023891418240964413 -0.022411253303289413 -0.00591652188450098 0.045739419758319855 -0.018697239458560944 -0.010946447029709816 -0.03175071254372597 0.005059792194515467 -0.0309798214584589 -0.06113148853182793 0.008738713338971138 -0.0038684504106640816 -0.02361389808356762 -0.052570343017578125 -0.008752869442105293 0.01299908384680748 -0.023660365492105484 -0.012244087643921375 -0.008763072080910206 0.00689482968300581 -0.012369859963655472 0.037384483963251114 -0.022647207602858543 -0.02662086859345436 -0.004459154326468706 -0.04905398562550545 -0.010301201604306698 -0.015346135944128036 0.03352968022227287 -0.03319559246301651 -0.019193274900317192 0.0007202920969575644 0.052379313856363297 0.012761654332280159 0.0028726861346513033 0.0008675162098370492 -0.0034475468564778566 -0.009078810922801495 0.0036081215366721153 -0.0006224655662663281 0.018614662811160088 0.014398640021681786 0.028461171314120293 0.017653224989771843 -0.03426274284720421 -0.0002833119942806661 0.009755291976034641 0.020266424864530563 -0.01614431105554104 0.03080272674560547 0.033193815499544144 0.016705580055713654 -0.004821259994059801 0.027159487828612328 0.0019534544553607702 -0.025296509265899658 -0.010382464155554771 -0.03847706690430641 -0.02529846504330635 -0.005302969366312027 0.006450309418141842 -0.03128159046173096 0.009931230917572975 -0.0474405512213707 0.007498241029679775 0.047014106065034866 0.023976273834705353 -0.0029506017453968525 -0.002196461195126176 -0.0018551881657913327 0.013119309209287167 0.0344579741358757 0.007487710099667311 -0.02422350086271763 -0.01819428615272045 -0.02248886041343212 0.02198963612318039 0.04972807690501213 -0.008615446276962757 -0.013794644735753536 0.015687262639403343 0.005429977085441351 -0.014709957875311375 0.029988925904035568 -0.02468119189143181 0.023067425936460495 0.0011552050709724426 -0.05021803453564644 -0.033251143991947174 0.020893121138215065 0.019543029367923737 -0.03660951927304268 -0.011895904317498207 0.015535500831902027 0.013233591802418232 0.01127548050135374 0.002227223478257656 -0.020794155076146126 -0.0013187483418732882 -0.0021375264041125774 -0.009635250084102154 -0.005582805257290602 -0.04362528398633003 0.008276470005512238 -0.018693985417485237 -0.018247824162244797 0.00946913380175829 0.0011865183478221297 0.010062148794531822 0.002747410209849477 -0.01466755848377943 0.0018422368448227644 -0.05136662349104881 0.01276129949837923 0.006048132199794054 -0.005643262527883053 -0.032331936061382294 -0.0334550105035305 0.019573381170630455 0.0020385386887937784 -0.030381999909877777 0.013010990805923939 -0.028293684124946594 0.029511213302612305 0.030780067667365074 0.022858159616589546 0.011293290182948112 0.0410894975066185 0.013683333061635494 -0.0034195322077721357 0.02598021924495697 -0.007741570007055998 0.012968875467777252 0.015856970101594925 0.015858234837651253 0.0005074383225291967 -0.03132762387394905 0.022680552676320076 0.022112952545285225 -0.07271545380353928 0.033266860991716385 -0.014661627821624279 -0.01587076485157013 -0.03172622248530388 0.0013120999792590737 -0.023890933021903038 -0.023789405822753906 -0.01832514815032482 0.03230084851384163 -0.008685369975864887 0.014414112083613873 0.0159483440220356 0.0012085159542039037 0.0020541816484183073 0.024628568440675735 -0.012182607315480709 0.015547105111181736 -0.0152205815538764 -0.0005206365021876991 0.06520453095436096 -0.027734998613595963 -0.03244367614388466 -0.024229969829320908 -0.021510189399123192 -0.019598359242081642 0.035541027784347534 0.03668082505464554 0.011285201646387577 -0.021487539634108543 0.03394696116447449 -0.035831619054079056 -0.01873716525733471 -0.02955545112490654 0.020716167986392975 -0.0026961045805364847 -0.01183274481445551 -0.027057353407144547 0.019839761778712273 0.01494213379919529 0.00532823009416461 -0.011961298063397408 0.040970657020807266 -0.050992853939533234 -0.01983117125928402 -0.010078320279717445 -0.018040256574749947 0.012154764495790005 0.04369404539465904 0.019640401005744934 -0.011066535487771034 0.0032338150776922703 -0.03386622667312622 0.036262400448322296 0.009400232695043087 -0.016874736174941063 0.03148271143436432 0.002536616986617446 0.026569798588752747 0.0003805416636168957 0.009915447793900967 0.0105521772056818 0.03993743285536766 0.024316418915987015 0.019821489229798317 -0.023778293281793594 -0.002423906698822975 -0.002758553484454751 -0.0021210021805018187 0.03419490531086922 -0.013266763649880886 -0.009507781825959682 -0.02654143050312996 -0.016602257266640663 -0.004060348030179739 -0.02106187865138054 -0.012064973823726177 -0.02487109787762165 -0.039737600833177567 0.005749605130404234 -0.023438287898898125 -0.03424986079335213 -0.021294735372066498 0.004429004620760679 0.007085048593580723 -0.036932408809661865 0.03138696774840355 0.011858626268804073 -0.007281020749360323 -0.06362884491682053 -0.0005803374806419015 -0.015614227391779423 0.03907525911927223 0.013818764127790928 0.01569037139415741 0.027982834726572037 -0.002403091173619032 -0.00665226811543107 0.032795246690511703 0.0021210007835179567 -0.009768551215529442 0.006948444060981274 -0.01894596964120865 -0.003446008078753948 0.05827938765287399 0.0008009017328731716 0.04876625910401344 -0.042754240334033966 0.019803764298558235 -0.014037012122571468 0.01554050762206316 0.00633269501850009 0.006336093880236149 -0.07533346116542816 0.02061556465923786 -0.006023790221661329 -0.03654811158776283 0.022596661001443863 -0.01565888337790966 0.005980282090604305 -0.027494151145219803 -0.04229763150215149 -0.03854415565729141 -0.013250237330794334 0.00915960781276226 -0.040749575942754745 -0.028541285544633865 -0.0020011700689792633 0.041660040616989136 -0.0034045125357806683 0.0001535660121589899 0.0458931028842926 0.007697566412389278 0.008300300687551498 0.03620688244700432 0.013174277730286121 -0.01414468139410019 -0.016610650345683098 0.019198961555957794 -0.041197579354047775 0.03486105054616928 0.031027700752019882 -0.011970331892371178 0.01945977844297886 -0.03611691668629646 0.02355208806693554 -0.047972001135349274 0.008885741233825684 0.0130073893815279 0.031116873025894165 -0.03283991292119026 -0.016571663320064545 0.01456637866795063 0.000622863823082298 -0.012680639512836933 -0.006461200769990683 -0.014802484773099422 0.03097100369632244 0.011885994113981724 0.011134251020848751 0.0003123901260551065 -0.0034873937256634235 0.042577650398015976 0.060889869928359985 0.025886982679367065 0.0064382473938167095 0.021047160029411316 -0.039143867790699005 -0.035950127989053726 0.06338682025671005 0.0007525607943534851 0.004478465765714645 0.030345970764756203 -0.009290726855397224 0.014992260374128819 0.009053535759449005 -0.0522550605237484 -0.03795453533530235 0.014371477998793125 -0.027212711051106453 -0.013268650509417057 -0.007420420181006193 0.010268917307257652 -0.003684031078591943 -0.012543714605271816 0.0333503782749176 -0.017573894932866096 0.006460715550929308 -0.024418216198682785 0.0035353153944015503 0.014566106721758842 -0.03536295145750046 -0.012249664403498173 0.004849736113101244 0.01714836247265339 0.015164105221629143 0.006516945082694292 0.04224785044789314 0.001993605401366949 -0.05233335867524147 0.02561337500810623 -0.026779286563396454 -0.056155283004045486 0.016633762046694756 0.04558803513646126 -0.016812223941087723 0.010509454645216465 -0.013455221429467201 -0.013372009620070457 0.034361373633146286 0.003299643285572529 -0.03930417075753212 0.05020331218838692 -0.008892331272363663 0.027225324884057045 0.00273746601305902 -0.002176283858716488 -0.023667974397540092 -0.0173138789832592 0.014386993832886219 0.041323471814394 0.017221294343471527 0.015858201310038567 -0.023627493530511856 -0.02080966718494892 0.02495162934064865 0.009278368204832077 -0.015589247457683086 0.0002832291356753558 0.015766296535730362 0.02142648585140705 0.019522612914443016 -0.01994563639163971 0.026991968974471092 0.03269342705607414 -0.03105962835252285 0.0033764252439141273 -0.04394296929240227 0.02346809022128582 -0.02070026472210884 0.0017536650411784649 0.06787323206663132 0.02425926923751831 0.007388922851532698 0.0027649691328406334 0.038767363876104355 -0.029061265289783478 -0.018252093344926834 -0.027133405208587646 0.025819556787610054 -0.014291067607700825 0.016562575474381447 -0.006285712122917175 -0.017337597906589508 0.044742513447999954 -0.008810549974441528 -0.021268708631396294 -0.0208886805921793 -0.030047127977013588 -0.013507349416613579 0.010459009557962418 -0.01425306685268879 0.05364327132701874 0.05984078720211983 -0.0689253881573677 0.006753215566277504 0.014245591126382351 -0.03422066941857338 0.034088555723428726 0.00016732608492020518 0.04739875718951225 -0.03983045741915703 0.03008969873189926 0.044280342757701874 -0.0042964075691998005 -0.03612665459513664 0.003536105388775468 0.0031738774850964546 0.006706902291625738 -0.007395308930426836 -0.03870067000389099 0.010140705853700638 0.001790229114703834 0.0668531060218811 3.172262665884773e-07 0.014845512807369232 0.014654350467026234 0.025443676859140396 -0.012057190760970116 0.03192540258169174 -0.002662570448592305 0.015465028584003448 -0.07379548251628876 0.042665623128414154 0.018949754536151886 0.02588801458477974 -0.04743461310863495 -0.026610206812620163 -0.012229835614562035 -0.005737062077969313 -0.024849241599440575 -0.055065952241420746 0.0037649646401405334 -0.003909456543624401 -0.025121353566646576 -0.011020134203135967 -0.023223554715514183 0.02126883901655674 0.02134796604514122 -0.005662817042320967 0.010410045273602009 0.017999712377786636 0.03213325887918472 0.016324514523148537 -0.011273391544818878 -0.009021536447107792 0.05177203565835953 0.012188524939119816 -0.017568198963999748 0.023302020505070686 0.007958403788506985 0.016895566135644913 -0.0005419182125478983 0.02018681913614273 0.03941824659705162 -0.020112425088882446 -0.008661014027893543 0.007925490848720074 -0.026205193251371384 0.05025121197104454 0.06027943268418312 0.013105328194797039 0.0033161828760057688 0.024078471586108208 -0.025995807722210884 0.022453870624303818 -0.021658888086676598 -0.0061775511130690575 -0.016852160915732384 0.014794738963246346 0.020833143964409828 -0.03370930999517441 -0.03579435870051384 -0.0056078494526445866 -0.0007272112416103482 0.014849785715341568 -0.010987816378474236 0.06764306873083115 0.06215556338429451 -0.03592386096715927 0.006947374902665615 0.016457585617899895 -0.002080947160720825 0.0034861559979617596 -0.0015659671043977141 -0.06251446157693863 -0.00026829258422367275 0.00845741480588913 0.020424390211701393 -0.007000128738582134 0.03348328173160553 0.01698214001953602 -0.0024532622192054987 0.004988482687622309 0.0033367741852998734 -0.005172552075237036 -0.05406421422958374 -0.0314093641936779 -0.0051580071449279785 -0.028748247772455215 0.040382303297519684 -0.005069924984127283 -0.0359201654791832 0.0073218196630477905 -0.024269333109259605 -0.03699503093957901 -0.009678741917014122 -0.011579242534935474 0.011856944300234318 -0.0005565242609009147 0.012510258704423904 -0.06160706281661987 -0.00496617192402482 -0.02585378848016262 -0.027121221646666527 -0.035043615847826004 0.015315777622163296 -0.017620248720049858 0.01363421231508255 0.025281282141804695 0.034814368933439255 -0.011073327623307705 -0.014362556859850883 0.0055085294879972935 0.010471105575561523 0.015548753552138805 0.023060088977217674 0.014420517720282078 0.007478291634470224 0.025130867958068848 0.0014464821433648467 -0.012259051203727722 0.049550075083971024 -0.02542399987578392 0.04564467445015907 0.018355539068579674 -0.0026653220411390066 0.0032776209991425276 -0.0009194471058435738 0.010728748515248299 0.03889832645654678 -0.03665857017040253 -0.0032836738973855972 -0.004645905923098326 -0.025477362796664238 -0.009998085908591747 -0.024870876222848892 -0.015233860351145267 0.009204515255987644 0.013966026715934277 0.009786875918507576 -0.01692628115415573 -0.03288058936595917 0.03369187191128731 0.002738496521487832 -0.06947282701730728 0.01656303182244301 -0.040973465889692307 -0.00877727847546339 0.004822558257728815 -0.009520575404167175 -0.014987979084253311 0.035571929067373276 0.056773461401462555 0.00926718395203352 0.012515048496425152 0.019345827400684357 0.010825427249073982 0.011818986386060715 0.015510247088968754 0.0015976111171767116 -0.026912042871117592 -0.017346862703561783 -0.03408236429095268 -0.03497591242194176 0.02662145160138607 0.0010069349082186818 -0.012859594076871872 0.002780164824798703 0.018515795469284058 0.006282244808971882 0.031424060463905334 0.006274343468248844 0.02116960473358631 0.02752341516315937 0.011938958428800106 -0.009922843426465988 -0.0019357828423380852 -0.032375697046518326 0.0036901168059557676 -0.004764598328620195 0.026362473145127296 0.015197915956377983 -0.011197471059858799 0.020879870280623436 -0.0406029112637043 0.022033752873539925 -0.010291870683431625 -0.004710187204182148 0.031780753284692764 0.031492508947849274 -0.008784588426351547 -0.0010652667842805386 -0.0699869841337204 -0.013883840292692184 0.014696894213557243 -0.0033984945621341467 -0.005002529826015234 0.019218387082219124 0.011796982027590275 -0.016033310443162918 -0.015104727819561958 -0.021525176241993904 -0.014987308531999588 -0.021797383204102516 -0.003676855470985174 0.0374087318778038 0.05972070246934891 -0.028117710724473 0.012065814808011055 0.0416456013917923 -0.0227965097874403 -0.02122289501130581 -0.0037883594632148743 0.021286727860569954 -0.0016828568186610937 0.014703650958836079 0.017441514879465103 0.024334684014320374 0.025950096547603607 -0.0022839081939309835 -0.01356823556125164 -0.009960833005607128 -0.03885442391037941 -0.025980744510889053 -0.0065265740267932415 -0.003968558274209499 -0.01506635919213295 0.05242307856678963 0.03973592072725296 -0.006930615287274122 0.0048281168565154076 0.0019807869102805853 -0.02349884994328022 0.05316174775362015 0.044726062566041946 -0.014664238318800926 -0.015011263079941273 0.013630748726427555 0.011343732476234436 -0.006381202023476362 0.03544557839632034 0.027203744277358055 0.0016714464873075485 -0.025507694110274315 0.04126667231321335 -0.00013747990306001157 -0.025918832048773766 -0.03523450717329979 0.019931435585021973 -0.01230001449584961 -0.034766025841236115 -0.03206900507211685 0.007806586567312479 0.034831151366233826 -0.013025596737861633 0.0031886014621704817 -0.008721044287085533 0.04721206799149513 -0.025668838992714882 0.004579994361847639 0.01608823426067829 0.004033873323351145 -0.0023548153694719076 0.009803717024624348 0.010339103639125824 0.0159761905670166 -0.03628325089812279 -0.0041898274794220924 -0.019264429807662964 -0.016200853511691093 -0.03411468490958214 -0.03268079832196236 -0.030213918536901474 -0.008691169321537018 -0.010099858045578003 0.032863419502973557 0.014761760830879211 -0.00181893992703408 -0.0689849704504013 -0.012010270729660988 -0.02416447550058365 -0.05796520784497261 0.010747282765805721 0.04600565880537033 0.014026524499058723 -0.028986314311623573 0.03457677364349365 0.005727708805352449 0.0052324035204946995 -0.036089226603507996 0.0037356573157012463 0.00852170865982771 -0.0192782711237669 0.03965522348880768 0.03036373108625412 -0.0374922975897789 -0.009789585135877132 -0.02357948012650013 -0.01679222099483013 -0.02773457020521164 -0.03321513906121254 -0.05934581905603409 0.03599090129137039 0.010193531401455402 -0.029905034229159355 -0.04324224963784218 -0.01709992252290249 0.02105623669922352 -0.023418880999088287 -0.030762923881411552 -0.029425526037812233 0.003079884685575962 -0.007982165552675724 -0.05703343451023102 -0.021893860772252083 -0.03962627425789833 -0.01801806315779686 0.017414040863513947 -0.007166398223489523 0.039793241769075394 -0.02521943487226963 -0.03461326286196709 -0.02080860361456871 0.008899149484932423 -0.009721425361931324 0.0033213661517947912 0.0686069056391716 -0.003801279468461871 0.017844833433628082 -0.0248947162181139 0.00803234614431858 -0.014130043797194958 -0.003180632833391428 5.244778731139377e-05 0.03155197203159332 -0.008526317775249481 0.014670548029243946 0.03598331660032272 0.037748899310827255 0.003554703202098608 0.02371021918952465 0.024218348786234856 0.01713220216333866 -0.034207455813884735 -0.01920328661799431 0.033240292221307755 0.011410965584218502 -0.015072699636220932 -0.002187359379604459 0.01853334717452526 0.01817014254629612 -0.02066612057387829 -0.0389263741672039 -0.00842476449906826 -0.052297547459602356 0.012819411233067513 0.015087082050740719 0.04061342775821686 0.006867309100925922 0.004450032953172922 -0.02801070362329483 0.04424018785357475 0.018201494589447975 0.06745118647813797 -0.011805732734501362 0.004746748134493828 -0.005412743892520666 -0.007264206185936928 -0.009222368709743023 0.004101927392184734 0.04315927252173424 0.03189321979880333 0.01820787601172924 -0.009021913632750511 0.021383704617619514 0.05933699011802673 0.05270193889737129 -0.013364438898861408 -0.02549252100288868 0.017793651670217514 -0.025397196412086487 -0.004463616758584976 -0.02159273810684681 -0.012394096702337265 -0.03177523612976074 -0.007692911196500063 -0.006195061840116978 -0.02071230299770832 0.03103584237396717 0.013489958830177784 0.00816920306533575 -0.007537110708653927 0.06802935153245926 0.007553488947451115 -0.00026725951465778053 -0.05843989551067352 -0.018216267228126526 -0.002834337530657649 -0.03713195025920868 -0.003936979919672012 0.004989449866116047 0.012155383825302124 -0.005504769738763571 -0.006069003138691187 0.039448052644729614 -0.006398533470928669 0.004770998377352953 -0.007879570126533508 -0.03667035698890686 0.031886640936136246 0.03467077016830444 -0.03451757878065109 0.02997232973575592 0.012233365327119827 0.03905205428600311 -0.03822298347949982 -0.0037518246099352837 -0.010406026616692543 0.020007867366075516 0.017318226397037506 0.025788044556975365 -0.0001790715759852901 0.012098491191864014 0.03313756361603737 -0.03616619110107422 -0.0023215010296553373 -0.008171610534191132 0.04402618482708931 -0.008265585638582706 0.0003854663227684796 -0.03310178965330124 -0.049334242939949036 -0.037401918321847916 0.02329917810857296 0.010275861248373985 -0.014041859656572342 0.008792316541075706 -0.032026056200265884 0.0038811503909528255 0.012475362978875637 0.03617875277996063 -0.010216768831014633 -0.023644810542464256 0.032794516533613205 -0.018843133002519608 -0.001837044721469283 -0.0011403661919757724 0.026212090626358986 0.0011943348217755556 -0.008241171948611736 -0.03701341897249222 -0.011336850002408028 -0.021079614758491516 -0.001745734945870936 -0.033493511378765106 -0.006505901459604502 -0.007033309433609247 0.05210191383957863 -0.005607991013675928 -0.02449181117117405 0.050498005002737045 -0.0002716788148973137 0.03209648281335831 -0.05368306487798691 0.0037492525298148394 -0.024036571383476257 0.02200641855597496 -0.012470782734453678 -0.03009256161749363 0.005531830247491598 -0.0027545089833438396 0.011415651999413967 0.04323735460639 -0.04023026302456856 -0.010403826832771301 0.009520258754491806 0.01699787564575672 -0.03543838858604431 -0.010345611721277237 -0.04182447865605354 -0.010348089970648289 0.021823478862643242 -0.012591508217155933 -0.01671578176319599 0.012937179766595364 -0.04288794472813606 -0.020679153501987457 0.03196720406413078 -0.02418174408376217 0.036526408046483994 -0.03321945294737816 0.024357622489333153 0.007641898933798075 -0.006740148179233074 0.021220140159130096 -0.06718672811985016 0.025824591517448425 -0.042503535747528076 -0.0009763444541022182 -0.055602140724658966 -0.005651963409036398 0.005819549318403006 0.02316341921687126 -0.008838364854454994 0.01331586018204689 0.020625416189432144 0.026847336441278458 -0.009599873796105385 0.018307631835341454 0.01745513081550598 0.02087792381644249 0.0035469739232212305 -0.05496224761009216 0.014874743297696114 -0.01879253424704075 -0.009340435266494751 0.034422367811203 -0.006104255560785532 0.019782457500696182 0.02400180697441101 -0.021513428539037704 -0.026819678023457527 -0.024670414626598358 -0.022256499156355858 -0.009412643499672413 0.020312322303652763 0.040107112377882004 -0.01282166875898838 0.026688141748309135 0.03599155694246292 -0.010014311410486698 0.0142708420753479 -0.009253723546862602 -0.0028334339149296284 -0.0029785167425870895 -0.004316647071391344 -0.0017924440326169133 -0.012658173218369484 -0.04331883415579796 -0.018385378643870354 -0.02530551888048649 0.0011178598506376147 -0.022624772042036057 -0.03534310683608055 -0.013058286160230637 -0.03150799125432968 0.03598392382264137 -0.001510705566033721 0.017731117084622383 0.043949760496616364 -0.033402685075998306 -0.019820624962449074 0.011835925281047821 0.03854105621576309 0.004425479099154472 0.025785813108086586 -0.01485315803438425 -0.02887492999434471 -0.011485977098345757 0.0065843043848872185 -0.004411621019244194 0.015377124771475792 -0.01552615873515606 -0.048717185854911804 -0.04518056660890579 0.007841108366847038 -0.00404922803863883 0.015270167030394077 -0.012041130103170872 0.036610085517168045 0.015860090032219887 -0.0021073869429528713 -0.01447675097733736 -0.011151667684316635 -0.042936280369758606 0.06317183375358582 -0.025081265717744827 0.02382977120578289 -0.012970956042408943 0.004644130822271109 0.003464815905317664 0.007639458402991295 0.011101370677351952 0.0394323505461216 0.03273342177271843 0.015885761007666588 -0.013852100819349289 0.005108542274683714 -0.013230480253696442 -0.01161873061209917 0.021338002756237984 -0.05314807593822479 0.010150663554668427 -0.003435625694692135 -0.0007957004709169269 0.019695395603775978 0.003040347481146455 -0.030872242525219917 0.024326259270310402 -0.01041706744581461 0.040303297340869904 -0.026981685310602188 -0.019495315849781036 -0.012490421533584595 -0.02352963760495186 -0.027706509456038475 0.010044687427580357 0.058605775237083435 0.02869873307645321 -0.014839401468634605 0.0006830469355918467 0.01436168234795332 0.018587252125144005 -0.019764527678489685 -0.031066490337252617 0.025703400373458862 0.022929945960640907 0.036966048181056976 -0.0022156029008328915 0.010617554187774658 -0.018875936046242714 -0.052294738590717316 0.002099424134939909 0.0051565817557275295 0.0011585177853703499 0.006124603562057018 -0.026205584406852722 0.01871384307742119 0.026843562722206116 -0.01654950901865959 -0.0028368476778268814 0.016089223325252533 0.01280211377888918 -0.040803566575050354 0.014090104028582573 0.00019853863341268152 0.008804017677903175 -0.004324913956224918 0.025937290862202644 -0.0035097687505185604 -0.014973524957895279 0.04107571393251419 -0.030859218910336494 0.005796473007649183 -0.043725427240133286 0.013412785716354847 0.004877649713307619 -0.020017817616462708 0.0381782203912735 0.07555180042982101 -0.016115639358758926 -0.0066510094329714775 -0.01934201829135418 0.030919557437300682 -0.02620857022702694 -0.0042950911447405815 0.01237136498093605 -0.03336626663804054 0.012119623832404613 0.007214560639113188 0.015135384164750576 0.02425326779484749 -0.010001396760344505 -0.015596386045217514 -0.01634272001683712 -0.02841705083847046 0.012266590259969234 -0.015681877732276917 0.045578595250844955 0.026981530711054802 0.021566729992628098 -0.010429780930280685 0.007473457604646683 0.013409052044153214 0.04538332670927048 0.000870329444296658 -0.008576768450438976 0.04539436101913452 -0.0310533307492733 0.014705996960401535 0.04938899725675583 -0.010333174839615822 0.00386633537709713 -0.00949337612837553 0.0074742441065609455 -0.0039917780086398125 -0.003230008762329817 0.014028802514076233 -0.03389713540673256 -0.007273020222783089 0.005215136334300041 -0.002202826552093029 0.00869155116379261 0.030956896021962166 0.027432125061750412 0.02876950427889824 -0.02653556317090988 0.02031565085053444 0.025527214631438255 0.025355327874422073 0.028262414038181305 -0.012562149204313755 -0.0484388992190361 0.006505994126200676 0.006526648066937923 -0.0024114020634442568 0.016420014202594757 0.010241126641631126 0.01583228074014187 0.01036078017205 0.01905188523232937 -0.01373774092644453 -0.0007658639806322753 -0.00410974957048893 0.02135145664215088 0.015496405772864819 0.018986007198691368 -0.023798910900950432 -0.034554462879896164 0.00821733195334673 -0.00737346988171339 -0.005515433847904205 -0.018619820475578308 0.04355991259217262 0.024111740291118622 0.026971925050020218 -0.01833084225654602 -0.007537072990089655 -0.04797752946615219 -0.030756138265132904 0.017453633248806 -0.013255762867629528 0.01577651873230934 -0.025280319154262543 -0.007158559747040272 0.02788684517145157 0.008543123491108418 -0.02248775027692318 -0.05594941973686218 0.040035974234342575 -0.01644466072320938 0.007340278010815382 -0.0008527727331966162 0.037743259221315384 -0.05086387321352959 0.019788511097431183 -0.018470341339707375 -0.004534902051091194 -0.012761672958731651 0.0034034913405776024 -0.011997290886938572 0.00455921795219183 0.04991460219025612 0.059983037412166595 -0.04528157785534859 -0.007836166769266129 -0.002219961956143379 0.04832464084029198 0.017516573891043663 0.030071265995502472 0.003633680520579219 -0.0025258532259613276 0.008252305909991264 -0.012281530536711216 -0.0036001079715788364 -0.013066575862467289 -0.00710265152156353 0.02110449969768524 -0.029749726876616478 -0.03265319764614105 0.050547558814287186 -0.016060812398791313 -0.0273450817912817 -0.04436485469341278 -0.004986089188605547 0.03891845420002937 -0.007172946352511644 0.04757901653647423 -0.006941458210349083 0.0435066856443882 0.03410981222987175 0.046775709837675095 0.0011317672906443477 -0.038764502853155136 -0.06146255508065224 0.02078973688185215 0.01750003919005394 -0.014430469833314419 -0.01237377431243658 -0.03484303504228592 0.012756607495248318 0.005910949315875769 0.01298383716493845 -0.023361368104815483 0.010293804109096527 -0.04039311408996582 -0.023735513910651207 0.003476553363725543 -0.013988490216434002 0.02592002972960472 0.01654651202261448 -0.001429316820576787 -0.010289544239640236 0.01976999267935753 -0.004133736714720726 0.022302711382508278 0.009550286456942558 0.012466151267290115 0.023777367547154427 0.01966169849038124 -0.0493854321539402 -0.007716843858361244 0.016606127843260765 -0.01085495762526989 -0.008692339062690735 0.019486261531710625 0.005694347433745861 -0.032159894704818726 -0.002287709852680564 -0.03187144175171852 0.006438857410103083 -0.020207546651363373 0.013851127587258816 -0.00578939588740468 -0.03140195086598396 -0.02316047064960003 -0.02434043399989605 0.03601590543985367 -0.03203761950135231 -0.001956556923687458 -0.06735032796859741 0.04394974187016487 -0.027216676622629166 0.02056814171373844 -0.0022000970784574747 -0.013716422021389008 -0.0007640693802386522 0.01521024014800787 -0.004210341721773148 0.02116434834897518 0.023904267698526382 0.003224005224183202 -0.019329896196722984 0.03616535663604736 -0.001787374378181994 -0.00778318103402853 0.04737081378698349 -0.01944759488105774 -0.03171391785144806 0.036387573927640915 -0.02300824224948883 -0.03363026678562164 -0.026173347607254982 0.005640385206788778 0.04826456308364868 -0.023543044924736023 -0.08677679300308228 -0.005933764856308699 -0.030202168971300125 0.018927564844489098 0.004844227340072393 0.01008003018796444 0.020517757162451744 0.03981581702828407 -0.03754657134413719 -0.0006620034109801054 0.0026805854868143797 0.00023617113765794784 0.00545289134606719 -0.013774693943560123 0.006992747541517019 0.006173077039420605 -0.009681640192866325 0.036309901624917984 0.017698202282190323 -0.008517897687852383 0.022922376170754433 0.003859704826027155 0.017552297562360764 0.032856013625860214 0.006438783835619688 0.028791461139917374 -0.003300510812550783 0.036267559975385666 -0.011776171624660492 -0.0001990524906432256 -0.02538023330271244 -0.015491642989218235 0.032553780823946 0.005213909782469273 0.007276322692632675 0.008059275336563587 -0.04216507449746132 -0.012111457996070385 -0.03918374702334404 0.03781941160559654 -0.034506455063819885 0.015612225979566574 0.03159578889608383 -0.02246922254562378 -0.014650977216660976 -0.004925924818962812 -0.06662669032812119 0.04042041301727295 -0.019301392138004303 0.0029266150668263435 0.011312652379274368 0.034081775695085526 -0.046548135578632355 0.01463793870061636 -0.022910168394446373 0.04511569067835808 -0.0050053964368999004 -0.03208962827920914 0.0021227209363132715 0.0043625799007713795 0.0099400095641613 0.019888386130332947 -0.028298912569880486 -0.028038209304213524 -0.00627152668312192 0.011791973374783993 0.016300857067108154 0.03126418963074684 -0.02067476138472557 0.050092149525880814 0.0446736216545105 -0.019383318722248077 0.003447189461439848 -0.0216201338917017 0.02203657664358616 -0.014840525574982166 -0.04310198128223419 -0.014547491446137428 0.008671886287629604 -0.015679458156228065 -0.033396318554878235 0.0007915410678833723 -0.01847972348332405 0.05207110568881035 0.0470719113945961 0.01991274766623974 -0.009102697484195232 0.008650118485093117 0.021308137103915215 0.008842588402330875 -0.04061119258403778 0.003160695778205991 -0.023942980915308 0.020674370229244232 0.0018155918223783374 -0.057981181889772415 -0.02599668689072132 -0.017136311158537865 -0.03970298543572426 -0.03477751091122627 -0.0208908524364233 -0.003586181905120611 -0.019169777631759644 -0.008853559382259846 0.014626567251980305 -0.045957986265420914 -0.011828495189547539 -0.0022642917465418577 0.03314259648323059 -0.007897952571511269 -0.016465988010168076 0.004027190152555704 -0.03292844817042351 0.041785068809986115 -0.0004054074815940112 0.03708646446466446 -0.04305332154035568 0.03420969471335411 0.0013892855495214462 -0.01296985149383545 -0.00777460215613246 -0.0036821637768298388 0.025461219251155853 -0.005159613210707903 0.04677296057343483 0.0008438607328571379 0.007124714553356171 0.006408818997442722 0.022454429417848587 0.048674099147319794 -0.02136639505624771 -0.010836430825293064 -0.007067622616887093 -0.005298605188727379 -0.002684638136997819 0.02229725383222103 0.015320838429033756 -0.037285178899765015 0.07054679095745087 0.009515739977359772 0.0025531393475830555 0.009397519752383232 0.0146379629150033 0.031755510717630386 -0.041482340544462204 -0.019652938470244408 0.016491057351231575 0.019125277176499367 0.03255340829491615 -0.020265601575374603 -0.031171923503279686 -0.018957801163196564 0.013369131833314896 0.016426462680101395 0.004392946604639292 0.001279537915252149 0.004055288154631853 0.04897158220410347 -0.00766691705211997 0.010117216035723686 0.056624945253133774 -0.025182506069540977 0.021266143769025803 -0.02511381357908249 -0.030517451465129852 -0.03217374160885811 0.026334889233112335 0.018752122297883034 0.01013626717031002 0.019766278564929962 -0.025759048759937286 -0.02269694022834301 -0.030248165130615234 0.0666247010231018 0.02774258516728878 -0.003003902966156602 -0.012614385224878788 0.01891797035932541 0.010281936265528202 0.014306116849184036 -0.031559936702251434 0.02089676633477211 -0.014720235019922256 -0.018182991072535515 0.03390103578567505 0.0016774610849097371 0.022018903866410255 0.004351119976490736 -0.00736871687695384 0.0017804186791181564 -0.01600220426917076 0.0401332788169384 -0.00045397685607895255 -0.005636181216686964 -0.05850959196686745 -0.017906032502651215 0.027516143396496773 -0.021276302635669708 -0.08111985772848129 0.030353909358382225 -0.019985545426607132 0.0344957634806633 0.003742388915270567 0.008522909134626389 0.031001323834061623 0.008223711512982845 -0.0043882941827178 0.042749013751745224 0.0024414879735559225 0.01872733049094677 0.0017447465797886252 -0.014447503723204136 -0.0020063009578734636 -0.01212112233042717 0.0318317785859108 -0.03061092458665371 0.010366364382207394 -0.029294872656464577 0.00836907234042883 -0.028763769194483757 0.0072314077988266945 -0.029164232313632965 0.031265027821063995 0.021076060831546783 0.011419631540775299 0.0054995096288621426 0.00983429979532957 0.0029257109854370356 -0.003101917915046215 -0.04085075855255127 -0.0019888391252607107 0.004428899381309748 -0.029186712577939034 -0.02630304917693138 -0.003991902805864811 0.015473573468625546 -0.045347508043050766 -0.024147408083081245 0.027810312807559967 0.01244028378278017 0.0026186767499893904 -0.025757910683751106 -0.005286721512675285 0.012478702701628208 -0.01615351438522339 0.004042035434395075 -0.01674986071884632 0.009307779371738434 -0.0395260713994503 -0.002431126544252038 -0.037981290370225906 0.009242917411029339 -0.006368623115122318 0.03324809670448303 0.0332818441092968 0.006172060500830412 0.015848159790039062 -0.004761465359479189 -0.0006392320501618087 0.0005533109651878476 -0.05104392394423485 -0.022356661036610603 0.05119845271110535 0.0015776681248098612 -0.012677802704274654 -0.000592470751143992 0.01574731431901455 0.013252485543489456 0.030391132459044456 -0.03937508910894394 0.007301666773855686 -0.017998866736888885 0.00109061726834625 -0.019010571762919426 -0.04473016411066055 -0.020887363702058792 -0.00015690148575231433 -0.013118977658450603 0.04755743592977524 0.005016187205910683 0.010429732501506805 -0.017285052686929703 0.027278900146484375 -0.028680142015218735 -0.019882986322045326 -0.006761716213077307 -0.0034198688808828592 0.008686683140695095 0.050568025559186935 0.0004558479704428464 0.04173406586050987 -0.010272405110299587 0.024179931730031967 0.020878301933407784 -0.026643093675374985 0.037969160825014114 -0.029279600828886032 -0.010287882760167122 0.025943705812096596 -0.028206322342157364 -0.032865311950445175 0.02508002333343029 0.00680798664689064 -0.005472268909215927 0.002336714416742325 0.02427235059440136 0.039915312081575394 0.01217633206397295 0.03135007992386818 0.005490266717970371 -0.013206184841692448 0.04446455463767052 0.0363055057823658 -0.04260021820664406 -0.034726858139038086 0.026982640847563744 -0.013543527573347092 -0.010403759777545929 0.002600564621388912 -0.02634882926940918 0.03447432070970535 0.04046683758497238 0.007151090539991856 -0.00507221557199955 0.0163811594247818 0.011249233037233353 -0.033464111387729645 -0.02891414798796177 0.034399956464767456 0.03361691161990166 0.04266924783587456 -0.03123428300023079 0.046604420989751816 -0.0016983282985165715 0.030131062492728233 -0.009985232725739479 -0.019591927528381348 -0.01716238260269165 -0.021973753347992897 0.03068002685904503 0.0045602526515722275 -0.04578011855483055 -0.022415295243263245 0.005831187125295401 0.01921992376446724 0.0036030670162290335 -0.013086565770208836 -0.005360618699342012 -0.02213132381439209 0.0013326843036338687 -0.024218155071139336 0.02283886820077896 -0.008281596004962921 -0.03504602611064911 -0.0010458040051162243 -0.013592096976935863 -0.013995424844324589 0.030444152653217316 0.006828104145824909 0.04091417044401169 0.021884752437472343 -0.015413171611726284 0.0028088553808629513 0.0014745431253686547 -0.02227076329290867 -0.004844981245696545 -0.007667755242437124 -0.0318039245903492 0.021584169939160347 0.0033629490062594414 0.023987306281924248 -0.005491762887686491 0.04217315837740898 0.02209339290857315 0.009017964825034142 0.014960388652980328 0.02070891484618187 0.027699371799826622 -0.03471900895237923 0.001108466531150043 0.016886617988348007 0.014759545214474201 0.03726653754711151 -0.0230958703905344 0.01812366396188736 0.007223532535135746 -0.018586307764053345 -0.03658543899655342 -0.019182544201612473 0.014687120914459229 0.002868808340281248 0.003417284693568945 0.012656623497605324 0.014492399990558624 0.009931196458637714 0.022532543167471886 0.05722295865416527 -0.017164241522550583 0.05212361738085747 0.001802291488274932 -0.031150363385677338 0.01737886294722557 0.0054524787701666355 -0.02132822573184967 -0.035274043679237366 -0.0017440851079300046 0.009162185713648796 -0.01961684785783291 0.044824495911598206 -0.024510782212018967 -0.029214974492788315 0.005398544017225504 0.024369649589061737 -0.03561634197831154 -0.03224090114235878 0.017902763560414314 0.004598013125360012 0.008395250886678696 -0.002848672680556774 -0.016292627900838852 -0.01836436055600643 -0.012687845155596733 -0.00201199809089303 -0.002153291366994381 -0.0017888284055516124 0.04049639031291008 -0.013937301002442837 0.0013157149078324437 -0.00638806726783514 0.023747343569993973 -0.023721789941191673 0.010667089372873306 0.016438841819763184 0.023152805864810944 -0.0046197776682674885 -0.0002646064676810056 0.006211527623236179 0.008487937040627003 -0.009842677973210812 0.0257582850754261 -0.020399121567606926 -0.018165767192840576 0.07375404983758926 -0.00430293707177043 0.03649769723415375 -0.0045402697287499905 -0.03162802755832672 -0.025359952822327614 0.02248680591583252 0.006643291562795639 -0.02118762582540512 -0.06918063014745712 0.006614950485527515 0.03332056850194931 -0.003748482558876276 0.008841383270919323 -0.015501013025641441 -0.013965964317321777 0.03127811476588249 -0.02043759822845459 -0.005674376618117094 -0.030989591032266617 0.012431031093001366 -0.014519741758704185 0.044570937752723694 -0.02572597935795784 0.021838996559381485 -0.01649915613234043 -0.0025458333548158407 -0.045305732637643814 0.0047466931864619255 0.040785908699035645 0.011781257577240467 -0.02493249624967575 0.022468211129307747 0.03246651217341423 0.01911970227956772 0.0028043375350534916 0.00492473691701889 -0.013486729003489017 -0.014605537056922913 -0.037919532507658005 -0.01702694222331047 -0.01837814226746559 0.017965493723750114 -0.005606262944638729 0.027112575247883797 0.009741992689669132 0.016075560823082924 -0.012963652610778809 0.038049593567848206 -0.01803797110915184 -0.03345027565956116 0.02034343034029007 0.004649987909942865 -0.017410535365343094 -0.01742737926542759 -0.0017254168633371592 0.041849758476018906 -0.0061193001456558704 -0.022322867065668106 -0.014944805763661861 -0.04833519458770752 -0.00641967449337244 0.023998165503144264 0.0529126301407814 0.05008857324719429 0.005094815511256456 0.012900121510028839 -0.012820734642446041 0.041168250143527985 0.00714260246604681 0.022735388949513435 -0.006366417743265629 -0.0253534484654665 0.006355157122015953 0.0009582231286913157 0.04492231458425522 -0.020912250503897667 -0.041658155620098114 0.0012330670142546296 -0.03332705423235893 0.0068857790902256966 0.0019580931402742863 0.015267481096088886 0.0008603413589298725 0.02278253063559532 0.0024367249570786953 0.00028103511431254447 -0.043888453394174576 -0.006379219703376293 -0.0388493537902832 0.014519497752189636 -0.010618711821734905 -0.04327280819416046 -0.005267688538879156 -0.0173588078469038 0.004396441858261824 0.04213440790772438 -0.02054384909570217 0.01274715457111597 -0.026314029470086098 0.016115115955471992 -0.006854076404124498 0.03772743046283722 -0.04867452010512352 0.018385570496320724 0.017911693081259727 -0.026368780061602592 0.04104018583893776 -0.005498084705322981 0.018970848992466927 0.006935209035873413 -0.01878208853304386 0.025817735120654106 0.014172078110277653 -0.03994906693696976 -0.000340054597472772 -0.029709694907069206 -0.01457528118044138 0.03440827131271362 -0.033793602138757706 -0.0043999855406582355 -0.021327368915081024 0.018416941165924072 -0.020951682701706886 -0.011436192318797112 0.017304621636867523 -0.0027180875185877085 -0.006735013332217932 -0.03338786959648132 0.01328334491699934 0.01999061368405819 -0.028491655364632607 0.01224474236369133 0.013132262974977493 -0.0015976622235029936 -0.02137903869152069 0.02162880077958107 0.00040355752571485937 -0.015845375135540962 0.019258826971054077 0.0027138458099216223 0.04381540045142174 0.0186618659645319 -0.025509444996714592 -0.035065069794654846 -0.06368701905012131 0.013624433428049088 0.019586173817515373 0.04737463220953941 0.003923065960407257 0.028669055551290512 -0.02713579498231411 -0.05337752774357796 -0.018151700496673584 -0.012566383928060532 -0.014868589118123055 -0.00025119795463979244 0.06496363133192062 0.012526532635092735 -0.04638948664069176 -0.008481724187731743 -0.00014553472283296287 0.06229988485574722 -0.012332689017057419 -0.02186703309416771 -0.042324576526880264 -0.008314084261655807 0.044557832181453705 0.008251171559095383 -0.011301183141767979 0.0004237429238855839 0.02083076350390911 -0.0318184457719326 0.019908573478460312 0.015574769116938114 -0.005450442899018526 -0.014691098593175411 0.01012812927365303 0.04778916388750076 -0.014513920061290264 0.01058567687869072 -0.02491755224764347 -0.014290918596088886 0.0607781708240509 0.017183378338813782 0.055354006588459015 -0.018073726445436478 0.005773043725639582 0.0026047872379422188 -0.006239297799766064 0.02562100812792778 -0.06869623064994812 -0.02851892076432705 0.002718317089602351 0.018422482535243034 -0.008600331842899323 0.0340079702436924 0.018730390816926956 0.005968689452856779 -0.007095424458384514 0.02547205053269863 -0.03883916139602661 -0.017380915582180023 -0.003159462008625269 0.0034546430688351393 0.00853224378079176 -0.02785358764231205 -0.013011062517762184 -0.006285679526627064 0.041524019092321396 -0.008824174292385578 0.034311141818761826 -0.01789681240916252 -0.008825527504086494 -0.0041491021402180195 -0.00414618756622076 0.014043032191693783 0.02758266218006611 0.0203870739787817 -0.07330124080181122 -0.013920404016971588 -0.00944704469293356 0.027001075446605682 -0.05623263120651245 -0.006700362544506788 0.0027039095293730497 0.04259878769516945 0.007261499762535095 -0.030469626188278198 0.030109385028481483 -0.022122060880064964 0.014777482487261295 -0.010347148403525352 -0.03151895850896835 -0.02135942131280899 -0.015590498223900795 -0.009972435422241688 0.005165920127183199 -0.013501133769750595 -0.0006539096939377487 -0.00435818312689662 0.009374890476465225 0.021382220089435577 0.019398361444473267 -0.00547937722876668 0.03214772790670395 0.021739065647125244 0.001019696588627994 -0.019252613186836243 0.016164202243089676 -0.03166160732507706 0.015507267788052559 -0.04237528517842293 0.060391075909137726 -0.03939367085695267 -0.014586955308914185 -0.001045588287524879 -0.04349945858120918 0.003666526637971401 -0.033437758684158325 0.007858870550990105 -0.07394050061702728 -0.01768350601196289 -0.0015605150256305933 0.00824381597340107 0.0007946862024255097 0.016438903287053108 -0.01936115324497223 -0.0040504843927919865 0.0015605405205860734 0.037235863506793976 0.012154549360275269 0.01013688463717699 0.006251049228012562 -0.05663633346557617 0.028352022171020508 0.032605234533548355 -0.011926988139748573 -0.029730884358286858 0.006439702119678259 -0.008104976266622543 0.013386765494942665 0.036575499922037125 0.02073865942656994 -0.012674541212618351 0.04335624352097511 -0.012016627937555313 -0.0018310282612219453 0.026384428143501282 0.018369723111391068 -0.024456392973661423 0.0034353763330727816 -0.04151434451341629 0.010473065078258514 -0.015683619305491447 -0.0013016024604439735 -0.005709417164325714 0.02797074057161808 0.014875913970172405 0.06067739427089691 0.013765357434749603 0.028519801795482635 0.052902236580848694 0.021801242604851723 -0.003424561582505703 -0.030430477112531662 -0.03817914053797722 -0.009337286464869976 0.009392197243869305 0.03226887434720993 0.0016492123249918222 -0.008191501721739769 -0.022494029253721237 -0.012515273876488209 -0.04111664742231369 0.025454813614487648 0.01190097350627184 -0.021689003333449364 0.016228467226028442 0.02440207451581955 0.029238127171993256 0.028688108548521996 0.02205258049070835 0.02526841126382351 0.012584935873746872 0.02515326254069805 0.024044331163167953 0.02624923549592495 -0.05062998831272125 -0.0032179877161979675 0.0004140916862525046 0.012630726210772991 0.040473610162734985 0.025375518947839737 -0.0328483022749424 -0.03568234294652939 -0.00022552417067345232 0.01779749244451523 -0.013597996905446053 -0.017725368961691856 -0.011012044735252857 0.03132696449756622 -0.013045767322182655 -0.01298962440341711 0.018758345395326614 0.02459499053657055 -0.043061524629592896 -0.04949447885155678 -0.018758166581392288 -0.0018921465380117297 0.015471517108380795 -0.036075565963983536 -0.030128328129649162 0.01976783387362957 0.01715322583913803 0.01483247708529234 0.017157111316919327 -0.04147043079137802 -0.0350017249584198 0.00018985543283633888 -0.020323053002357483 -0.022973978891968727 -0.002689626533538103 -0.03131946921348572 0.0020697801373898983 -0.0021351883187890053 -0.020756639540195465 -0.03744460269808769 0.0006689209840260446 -0.015721315518021584 -0.013704659417271614 -0.022547397762537003 -0.0010788349900394678 -0.011733158491551876 0.010638035833835602 -0.01001165434718132 0.014209233224391937 -0.010190176777541637 -0.039797551929950714 -0.039789147675037384 0.01959192007780075 -0.0378711000084877 0.0194279495626688 0.00576827535405755 -0.001180295250378549 0.014452149160206318 0.01799698732793331 0.022513896226882935 0.013636422343552113 -0.009959481656551361 0.02674882300198078 -0.01685992255806923 -0.0034196157939732075 0.0036249924451112747 -0.010675537399947643 -0.015881327912211418 0.0025708936154842377 0.01324634999036789 -0.00473305769264698 0.0254424549639225 -0.011223407462239265 0.027537569403648376 0.025013064965605736 -0.03519437089562416 -0.06447833776473999 0.0072419000789523125 -0.040498487651348114 0.032980795949697495 -0.009214749559760094 0.030566152185201645 -0.046791646629571915 -0.002967263339087367 -0.0018640035996213555 -0.0016175812343135476 -0.0020159867126494646 0.010186887346208096 0.002450336469337344 0.010231243446469307 0.011302505619823933 -0.06159351393580437 0.03899300470948219 0.002572857541963458 0.030811147764325142 0.011871307156980038 -0.05677415803074837 -0.03326210007071495 0.024576809257268906 0.011360693722963333 -0.03087528422474861 0.03122137114405632 0.017733415588736534 0.012811682187020779 -0.020192855969071388 0.012556332163512707 -0.03445495292544365 -0.051201920956373215 -0.012565977871418 -0.004223784431815147 0.04193298891186714 -0.05627869814634323 0.03285518288612366 0.027467554435133934 -0.000272549397777766 0.002938295714557171 -0.009412202052772045 -0.012740900740027428 -0.028648503124713898 -0.026119673624634743 -0.003751172451302409 0.030247459188103676 -0.019348671659827232 0.016019413247704506 -0.017918439581990242 0.00930149294435978 -0.00565050495788455 -0.020550621673464775 0.03566879406571388 0.03592933714389801 -0.016101308166980743 0.05421913415193558 0.030781082808971405 0.025481460615992546 0.008708260953426361 -0.04545850306749344 -0.003850992303341627 0.0567389577627182 0.0035603512078523636 -0.002361003076657653 -0.0017523112474009395 -0.02845488116145134 0.00036094532697461545 0.009558256715536118 0.006323080509901047 0.016605176031589508 0.03682702034711838 0.00848003663122654 0.04233454540371895 -0.017716551199555397 0.005199786275625229 -0.059002891182899475 0.001569839078001678 -0.03426462411880493 -0.016907475888729095 0.019074009731411934 0.013203058391809464 -0.03482472524046898 0.013103628531098366 0.02909471094608307 0.016246939077973366 0.008155863732099533 -0.02542867697775364 0.02152182348072529 0.0005526605527848005 -0.014943878166377544 0.010842295363545418 0.017544273287057877 0.007716930005699396 0.02039327658712864 -0.029709069058299065 -0.0017158068949356675 -0.034376129508018494 0.006569178309291601 0.0024484419263899326 0.001742388354614377 -0.013091611675918102 -0.020542649552226067 0.001789332483895123 0.006875632796436548 -0.03600173816084862 0.017636273056268692 -0.0280663650482893 -0.024088241159915924 -0.0006337970844469965 -0.05168405920267105 -0.06419815868139267 0.005973379593342543 0.021121053025126457 -0.007597692776471376 0.004860992077738047 -0.012825984507799149 0.0025676449295133352 0.02079179137945175 -0.018199102953076363 0.010198047384619713 0.03547186776995659 0.04006214812397957 0.059564247727394104 0.050423480570316315 0.008035464212298393 -0.05484361574053764 0.031805455684661865 0.008838493376970291 -0.014495285227894783 -0.030596164986491203 -0.0287299957126379 -0.018612360581755638 -0.017581548541784286 -0.03437010571360588 -0.03616078570485115 -0.009836852550506592 -0.04166775569319725 -0.04133019223809242 -0.0004760418669320643 -0.00583061296492815 -0.022851642221212387 -0.012970554642379284 0.029139336198568344 0.001750611118040979 0.0007845130166970193 -0.009137374348938465 -0.05815677344799042 0.04998333379626274 0.004537190310657024 0.00022951535356696695 0.01275307685136795 0.019215276464819908 -0.04386810213327408 0.006797929760068655 -0.0005303640500642359 -0.03365028649568558 -0.023554202169179916 0.010897072963416576 0.042856622487306595 -0.004092668183147907 0.03390232473611832 0.011481419205665588 -0.0008770860731601715 0.03707491606473923 -0.02259748987853527 -0.012082342989742756 0.023856271058321 0.0008495883084833622 0.015042481943964958 0.0025485611986368895 0.005664084106683731 -0.00841532927006483 0.03852119296789169 -0.022342149168252945 -0.014913228340446949 -0.07525519281625748 0.03469638153910637 0.012061703018844128 -0.004380458500236273 0.05241112411022186 0.031220553442835808 -0.019849853590130806 -0.027257416397333145 0.02455815300345421 0.004466294310986996 0.021575666964054108 0.03004690818488598 0.03198577091097832 -0.054189812391996384 -0.01601635478436947 -0.020112277939915657 0.01854095421731472 0.006029828917235136 -5.2242030506022274e-05 0.022623321041464806 0.0018486053450033069 -0.01673317514359951 -0.003427834715694189 0.029070120304822922 0.011497506871819496 -0.06862381845712662 -0.003585127415135503 -0.024230919778347015 0.027728049084544182 -0.019039282575249672 0.005675117019563913 0.009366273880004883 -0.01007048599421978 -0.010118856094777584 0.03088141605257988 -0.05012638494372368 -0.018670188263058662 -0.011669415049254894 -0.02805662713944912 0.024837542325258255 -0.04385752230882645 -0.0032367161475121975 -0.03327483683824539 0.01916365511715412 0.0012376517988741398 0.016828196123242378 0.010294967330992222 -0.039678145200014114 0.001321202958934009 0.009155101142823696 0.034657351672649384 -0.02961202710866928 -0.004198347218334675 -0.013840078376233578 0.015264558605849743 -0.022998495027422905 0.014447224326431751 0.0020737498998641968 -0.01409321092069149 -0.014670610427856445 -0.030749425292015076 -0.012290021404623985 0.002865417394787073 -0.01202938612550497 0.002682773396372795 0.018075386062264442 0.016891032457351685 0.015897836536169052 -0.007627793587744236 -0.003056775778532028 0.00924430787563324 -0.019873907789587975 -0.013685892336070538 0.03577028214931488 -0.0069187106564641 0.03763602301478386 -0.05072547495365143 0.01784297078847885 -0.0033762569073587656 -0.030440296977758408 0.008088327012956142 -0.004983467981219292 0.015934409573674202 -0.006247622426599264 -0.007164077367633581 0.0502479262650013 0.0025454589631408453 -0.004484699107706547 0.04062236472964287 -0.002142496407032013 0.0032821011263877153 -0.015928123146295547 0.012630501762032509 -0.021361051127314568 0.037688955664634705 0.007138997316360474 -0.013179494068026543 0.0022465393412858248 0.002052917378023267 0.022454725578427315 -0.018424304202198982 0.02748565934598446 0.03026222623884678 0.02008005417883396 -0.010344385169446468 -0.017929397523403168 -0.006445111706852913 0.0015570152318105102 -0.04150855541229248 -0.007832414470613003 0.02539132907986641 0.017027737572789192 0.01096233632415533 0.003934657201170921 0.01937539130449295 0.01696578972041607 -0.009482189081609249 0.05679837614297867 -0.01026166696101427 0.01686578243970871 -0.0119406683370471 0.008280877023935318 0.001374988816678524 0.018241947516798973 -0.014517812058329582 -0.011579894460737705 0.03223073482513428 -0.03405515104532242 -0.013158917427062988 0.0054243020713329315 -0.04360722750425339 0.0032169846817851067 0.01731167361140251 -0.029419755563139915 -0.012026523239910603 -0.007834196090698242 0.01718733087182045 -0.037156376987695694 -0.03354988992214203 0.012318357825279236 -0.031947292387485504 -0.01697934791445732 0.019106153398752213 -0.00868512224406004 0.017771804705262184 -0.033515967428684235 0.0403602309525013 -0.005996126681566238 0.02211311273276806 0.01900227554142475 -0.0020814542658627033 -0.012419705279171467 -0.01788804680109024 0.000823365815449506 -0.020350147038698196 0.022462284192442894 -0.008873133920133114 0.008591612800955772 -0.013867239467799664 -0.02237945795059204 0.012273669242858887 -0.02051852084696293 -0.014252199791371822 -0.018057892099022865 -0.0376344732940197 -0.006258741486817598 -0.003625432262197137 0.007119887974113226 -0.004563982132822275 0.023934902623295784 -0.014229578897356987 0.017648059874773026 0.04488424211740494 0.006967852357774973 0.012181571684777737 0.00562663096934557 -0.04398540407419205 -0.020676597952842712 0.01785982958972454 -0.003968149423599243 0.011318478733301163 0.0006282100803218782 0.020756054669618607 -0.00730250496417284 -0.013917908072471619 0.00472475728020072 0.00025586740230210125 -0.04655219241976738 0.019846521317958832 -0.021540628746151924 -0.017628999426960945 0.036874350160360336 0.04768151789903641 0.00862161535769701 0.046036697924137115 0.010855123400688171 -0.043694134801626205 -0.03169731795787811 0.018749067559838295 0.046988457441329956 0.009657034650444984 0.030525686219334602 -0.023086586967110634 -0.041074663400650024 -0.0070678978227078915 -0.015086784027516842 0.07089962810277939 -0.03448820486664772 -0.010709550231695175 0.01289445161819458 -0.015978433191776276 -0.021508673205971718 -0.024447686970233917 0.01920424960553646 -0.015284137800335884 -0.012222415767610073 -0.0056969355791807175 -0.006830479018390179 0.037314046174287796 -0.010849443264305592 0.0327063612639904 -0.004962805658578873 0.012433705851435661 0.02757789008319378 0.006980805192142725 -0.05879101902246475 0.0030558714643120766 -0.009846565313637257 0.0042983549647033215 -0.056338727474212646 0.013540558516979218 0.02939443662762642 0.03614288568496704 0.024686500430107117 0.010881821624934673 -0.016205977648496628 -0.010687082074582577 -0.007655607536435127 -0.056347183883190155 -0.005691017489880323 0.005899420008063316 0.011109714396297932 -0.023482851684093475 -0.02091706357896328 -0.0484255775809288 -0.04791512340307236 0.007430157624185085 0.0071111805737018585 0.04089052602648735 -0.026152750477194786 0.004723533987998962 0.03562218323349953 0.045527517795562744 0.02143765613436699 -0.001883164281025529 -0.02662821300327778 0.020428035408258438 -0.0018127777148038149 0.00041335978312417865 -0.02834489941596985 0.009965901263058186 0.026328368112444878 -0.03495151177048683 0.017097875475883484 0.03214504197239876 -0.051373496651649475 0.031628742814064026 -0.0050888219848275185 0.006799698807299137 -0.04819328710436821 0.0010200166143476963 -0.04618680104613304 -0.024870775640010834 0.01541778165847063 0.008456870913505554 0.01429643202573061 0.03864363580942154 0.03837788105010986 -0.007954582571983337 0.01810467056930065 -0.02118823118507862 -0.018575595691800117 0.0261610746383667 0.0006130952970124781 -0.02207903377711773 -0.022365840151906013 -0.020291846245527267 -0.014063327573239803 0.020245881751179695 0.044972192496061325 0.0009694743785075843 -0.01923559233546257 -0.009930158965289593 -0.04311630502343178 0.007284918334335089 -0.026424314826726913 0.027819907292723656 0.004552639089524746 -0.04224497079849243 -0.04787393659353256 -0.021617991849780083 -0.019422071054577827 0.02628074586391449 0.018495967611670494 -0.024321628734469414 -0.027050068601965904 -0.035710111260414124 -0.06643082946538925 0.009439612738788128 0.03430311381816864 0.008340706117451191 -0.021593019366264343 0.02748280018568039 0.02105952985584736 0.017856551334261894 0.03112986497581005 0.01636470854282379 0.009819979779422283 -0.0426730141043663 0.014767155982553959 -0.018613839522004128 0.006181984208524227 -0.012888742610812187 -0.022281546145677567 -0.017694968730211258 0.02124009281396866 0.026503456756472588 0.027751216664910316 0.028574978932738304 0.0024315551854670048 -0.016833234578371048 -0.010884838178753853 -0.01377842016518116 -0.025200454518198967 -0.014123616740107536 0.02267221361398697 0.01912258006632328 -0.0187627375125885 -0.00808765646070242 0.011163881979882717 0.0073746382258832455 0.04650420695543289 -0.03800751268863678 0.029023991897702217 -0.008758541196584702 0.012916055507957935 0.015534752979874611 0.02598293498158455 0.03466705605387688 0.014762182720005512 0.02351522445678711 0.009850707836449146 -0.02193276770412922 0.008973699063062668 -0.004670665133744478 -0.009192543104290962 -0.024419864639639854 0.02913191355764866 -0.03786519914865494 0.003935926593840122 -0.025214415043592453 0.0026775600854307413 0.03231362998485565 -0.009307660162448883 0.011062662117183208 0.031052028760313988 0.042110368609428406 -0.01478839572519064 -0.022351467981934547 0.06094927340745926 0.01415504701435566 -0.005774027202278376 -0.0204663947224617 0.006038568448275328 -0.04555768519639969 -0.011648667976260185 0.008143270388245583 0.01823248155415058 -0.00430990569293499 -0.007256413344293833 -0.01350276730954647 -0.02670789323747158 0.05889453366398811 -0.026981031522154808 0.02579927258193493 0.005017272662371397 -0.02824612334370613 -0.009642898105084896 -0.012930244207382202 0.0011347322724759579 0.021010247990489006 -0.03319316729903221 0.020467888563871384 -0.0020239735022187233 0.006740459706634283 -0.0022818141151219606 -0.0031430963426828384 0.015066097490489483 0.019094455987215042 -0.038495540618896484 0.0046536242589354515 0.017299722880125046 -0.014234705828130245 0.0048589808866381645 0.02109972946345806 0.011127423495054245 -0.0022755456157028675 -0.018756510689854622 0.032300855964422226 -0.025005841627717018 0.0581342950463295 -0.01608111336827278 -0.02209928259253502 0.007077135611325502 0.0020066890865564346 -0.010692444629967213 -0.008666149340569973 -0.011281345039606094 0.029025787487626076 -0.029499687254428864 0.040639352053403854 0.004183415789157152 -0.04355313256382942 0.017924942076206207 0.010788483545184135 -0.005077281501144171 -0.018681691959500313 0.0012267472920939326 -0.011665474623441696 0.02351442351937294 0.006728564389050007 0.01780690625309944 0.019467635080218315 0.013408089056611061 0.010813918896019459 -0.010886928997933865 -0.007444515824317932 -0.03125515207648277 0.0022475768346339464 0.003738130908459425 -0.06446997821331024 0.010353988036513329 -0.0013988628052175045 0.03656942769885063 -0.005152082536369562 -0.020403750240802765 -0.0199885331094265 -0.0017158009577542543 -0.03849480301141739 -0.03354589268565178 0.04295001178979874 -0.013103713281452656 -0.04722420871257782 -0.040635645389556885 0.01032993383705616 -0.010866849683225155 -0.0015312038594856858 -0.005812269169837236 0.03339805081486702 -0.010208074003458023 -0.011996923014521599 0.03750429302453995 0.001378942048177123 -0.025864139199256897 -0.05182931199669838 -0.009567318484187126 0.002281500957906246 -7.300620927708223e-05 0.004473337437957525 -0.004258717875927687 0.021175313740968704 -0.03524887189269066 -0.05713772773742676 0.02873535268008709 0.037583548575639725 0.007971570827066898 -0.005847264546900988 -0.024783926084637642 -0.0038257064297795296 -0.010371742770075798 0.02079072780907154 0.017937535420060158 0.04276924580335617 -0.008787919767200947 -0.028856398537755013 -0.0013967282138764858 -0.020437419414520264 0.04400564730167389 0.013751068152487278 0.007627088576555252 -0.00790224876254797 -0.01572323963046074 0.0483129657804966 0.00922453124076128 -0.003449238371104002 0.014095846563577652 -0.008747954852879047 0.023585570976138115 0.04712807387113571 0.021173015236854553 0.009751703590154648 0.00559241371229291 0.018016749992966652 0.0009979396127164364 -0.014581289142370224 -0.01602805405855179 0.02342141792178154 0.03902583569288254 -0.0069946907460689545 -0.00030480697751045227 0.018859630450606346 -0.01576359197497368 -0.017836136743426323 -0.012149578891694546 -0.006441229954361916 -0.03646760806441307 -0.021035946905612946 -0.010378713719546795 0.0316411592066288 -0.008874094113707542 -0.018748752772808075 -0.03334229812026024 -0.03829284384846687 0.010774687863886356 0.032573260366916656 -0.009390762075781822 0.022574948146939278 0.031363874673843384 0.03551824763417244 0.03936134651303291 -0.009548493660986423 -0.058565765619277954 0.026251697912812233 -0.0139312744140625 -0.03340370953083038 0.02611612342298031 0.04930520057678223 -0.0001441209315089509 0.0037142145447432995 -0.010214043781161308 -0.007920272648334503 0.03384969383478165 0.018926847726106644 0.011656648479402065 0.028047733008861542 -0.009752663783729076 -0.030924487859010696 0.006419746205210686 -0.006068802438676357 0.012075287289917469 -0.003106001764535904 -0.010525770485401154 0.030958538874983788 -0.057225026190280914 -0.015593364834785461 0.013451497070491314 0.0020941810216754675 -0.025859655812382698 -0.012116310186684132 -0.021913206204771996 -0.007022826932370663 0.030319618061184883 -0.0026402126532047987 0.007955800741910934 0.03502623364329338 0.0014841280644759536 0.01689915545284748 0.004662990104407072 0.023412445560097694 -0.03817763179540634 0.01223791018128395 0.0025337368715554476 0.010233638808131218 -0.010931172408163548 0.019534122198820114 0.004767345730215311 -0.020160354673862457 -0.03751608356833458 0.0044774264097213745 0.003785793436691165 -0.001906270976178348 0.0077417707070708275 -0.03129379823803902 0.04647901654243469 0.0028855903074145317 -0.0028108444530516863 0.0497635193169117 0.010029644705355167 0.01639915630221367 -0.012543736957013607 -0.005164028145372868 -0.023555248975753784 -0.00538197485730052 -0.015494751743972301 -0.0012662954395636916 0.020302042365074158 0.03110624849796295 -0.0005856711650267243 0.053819965571165085 -0.003719107713550329 0.056587208062410355 0.02159762755036354 -0.047196004539728165 0.008001899346709251 -0.03644809499382973 0.013941855169832706 0.041961830109357834 0.008259234018623829 0.005733601748943329 -0.02297307550907135 0.02877681888639927 0.012357911095023155 -0.007681708782911301 -0.0017127033788710833 -0.04474789276719093 0.04608003422617912 -0.002435198752209544 -0.007352430373430252 0.04439898580312729 0.02325192093849182 0.010152230970561504 -0.025346575304865837 0.017798401415348053 0.021677542477846146 -0.015372221358120441 -0.016325024887919426 0.05663992092013359 -0.01822562702000141 -0.012973062694072723 -0.043914541602134705 -0.010991990566253662 -0.029716866090893745 -0.0015116934664547443 -0.004172278568148613 0.002274711150676012 0.00025095095043070614 0.0013247090391814709 0.009505506604909897 0.03299654647707939 0.07415879517793655 -0.03559805080294609 0.002117894357070327 0.002793126041069627 -0.005579020362347364 -0.02796652913093567 -0.0323440283536911 -0.005341041833162308 0.007493418641388416 -0.011230814270675182 -0.016209758818149567 0.01938440464437008 0.009447786025702953 -0.034680649638175964 -0.018326666206121445 -0.061783384531736374 0.03286260738968849 0.021517645567655563 0.047327399253845215 0.01358087919652462 0.024231404066085815 -0.004551780875772238 0.03560974821448326 0.019882820546627045 -0.0005427422001957893 0.02181362174451351 0.05879552289843559 -0.04170168191194534 -0.028017491102218628 0.012884680181741714 0.012166873551905155 -0.007873852737247944 0.03986256942152977 -0.022680118680000305 0.01741357147693634 -0.0012653439771384 0.03337658941745758 -0.03287633880972862 0.028516750782728195 0.03517206758260727 -0.0035192857030779123 0.015909897163510323 0.06382334232330322 0.03622594475746155 -0.011112729087471962 -0.0016321243019774556 0.04680006206035614 0.053220223635435104 -0.004728963132947683 -0.004843666218221188 -0.003968897741287947 0.026265306398272514 0.017647847533226013 -0.005932432133704424 -0.013171030208468437 0.0050185066647827625 -0.019550226628780365 0.009259773418307304 0.007983926683664322 0.02573474310338497 0.02111297845840454 -0.010111377574503422 -0.008960687555372715 0.01953466795384884 0.05996328592300415 0.030375393107533455 -0.020993562415242195 0.001496496726758778 -0.006807214580476284 -0.029057392850518227 0.037844788283109665 0.0442923977971077 -0.01652475632727146 -0.019239304587244987 -0.009741764515638351 0.017079200595617294 -0.0021614304278045893 0.013018175028264523 0.025465523824095726 0.0011174929095432162 -0.005149234551936388 -0.050770584493875504 -0.020070023834705353 0.028622450307011604 0.011580158956348896 -0.005645240657031536 0.01675545796751976 -0.03573872148990631 0.006208895705640316 -0.028086619451642036 -0.031280722469091415 0.03668125718832016 0.010537635535001755 -0.009460686706006527 0.010292334482073784 -0.00449063815176487 0.009948136284947395 -0.025865336880087852 0.0007771066157147288 -0.047190502285957336 -0.051179394125938416 -0.008117824792861938 0.0034654829651117325 -0.02358764223754406 0.041789788752794266 0.03388579934835434 0.047192469239234924 -0.031752943992614746 -0.04285749793052673 0.03054235689342022 0.019352920353412628 0.03395910933613777 0.02297971397638321 -0.005834312178194523 -0.012659109197556973 -0.013473933562636375 0.017320217564702034 0.021350830793380737 -0.03509458899497986 -0.015482841990888119 0.019855687394738197 0.004620616789907217 -0.004885569214820862 0.028108496218919754 0.013592138886451721 0.03229483962059021 0.016130153089761734 -0.052150651812553406 -0.011758293956518173 0.011693684384226799 -0.005732277408242226 -0.05582921579480171 0.0011226034257560968 -0.006593476049602032 -0.019315270707011223 -0.008418652229011059 -0.029975851997733116 -0.0067400396801531315 -0.007889743894338608 0.022446604445576668 -0.016523724421858788 0.009624757803976536 -0.03861313313245773 -0.008418351411819458 -0.0013049396220594645 0.014440550468862057 0.012211776338517666 0.000463557691546157 0.033858396112918854 0.00528838811442256 0.005106024444103241 0.021999144926667213 -0.013481947593390942 0.007879406213760376 0.01894504204392433 0.018097275868058205 0.022100843489170074 -0.015418346971273422 -0.02087562158703804 -0.001108683180063963 -0.002270057797431946 0.0039685252122581005 0.005122411530464888 0.022384854033589363 -0.013257339596748352 0.028267132118344307 0.001765418448485434 -0.02437584288418293 -0.009855068288743496 0.003647599369287491 0.009316415525972843 -0.03654949367046356 0.04461679980158806 -0.014227361418306828 -0.026003103703260422 0.014795331284403801 0.00506115285679698 -0.03354306519031525 -0.021483445540070534 -0.018572183325886726 0.021425612270832062 -0.02361925318837166 -0.010979236103594303 -0.0020465196575969458 0.019218089058995247 -0.056247398257255554 0.013604695908725262 -0.03189576044678688 0.03333236649632454 0.00834279041737318 0.05752936378121376 -0.004252229817211628 -0.012444751337170601 -0.013967174105346203 -0.0233619324862957 0.006893818266689777 0.01356238592416048 0.018337581306695938 -0.020179277285933495 0.0007215884979814291 -0.0327644906938076 0.05015049874782562 0.020264390856027603 0.046037811785936356 -0.0035249595530331135 0.007893186062574387 0.0068349093198776245 0.03547172248363495 0.0028771490324288607 0.027804462239146233 0.01567157916724682 0.03880755230784416 -0.006563752889633179 0.03144853934645653 -0.009086777456104755 0.0117604099214077 0.004642255138605833 0.024120226502418518 -0.009070352651178837 0.004323570989072323 -0.009276487864553928 0.03785570710897446 -0.04565969109535217 0.02405858226120472 -0.0185727309435606 -0.006046458147466183 -0.014868375845253468 -0.04791956767439842 -0.013157930225133896 -0.023209329694509506 0.006856017746031284 0.005107981152832508 -0.011163441464304924 0.011202147230505943 -0.002895224839448929 0.0009800414554774761 0.029802873730659485 0.02395477704703808 0.02831335738301277 0.06900735944509506 0.02578594721853733 -0.007005817256867886 -0.006320572458207607 0.06291135400533676 -0.0261366069316864 0.0259536225348711 0.015070595778524876 -0.0059618474915623665 -0.03708357736468315 0.025584621354937553 -0.024677107110619545 0.010661576874554157 0.00730455806478858 0.0065238699316978455 0.021056806668639183 -0.013809341937303543 -0.00959605909883976 0.012515723705291748 -0.030739568173885345 -0.004066582769155502 -0.03355121612548828 -0.018338531255722046 -0.020160077139735222 0.043691687285900116 -0.012389124371111393 -0.05159241706132889 -0.028899231925606728 0.024241315200924873 -0.04375293105840683 -0.018880607560276985 -0.009544191882014275 -0.04952169954776764 -0.0034492737613618374 0.004378256853669882 0.03860611468553543 -0.02010846510529518 -0.007648823782801628 0.013215235434472561 0.025915291160345078 -0.05541399493813515 0.07400453835725784 -0.00582605367526412 -0.010571635328233242 0.0346796028316021 -0.016097918152809143 -0.015386274084448814 0.00021604141511488706 0.012450303882360458 0.01589774899184704 0.012551253661513329 0.01003503892570734 -0.002689792076125741 -0.002994342939928174 -0.02774939499795437 0.0028400837909430265 0.011806217022240162 0.007638595066964626 0.03022817149758339 0.022633187472820282 0.028640542179346085 0.02510756440460682 -0.045792240649461746 0.022120293229818344 0.014278456568717957 -0.0011768217664211988 -0.03558286279439926 -0.01495128683745861 -0.0065743690356612206 0.004800568334758282 0.0252611692994833 0.015394004993140697 -0.03073112666606903 -0.0027433631476014853 -0.006163226906210184 0.0018336438806727529 0.017312973737716675 0.012378241866827011 -0.021357586607336998 0.029359828680753708 -0.031673695892095566 -0.032722100615501404 -0.046208322048187256 -0.018754201009869576 -0.009508251212537289 0.004507389385253191 0.009168023243546486 0.03140696510672569 0.04305234178900719 0.024383705109357834 -0.025871457532048225 -0.03320220485329628 0.018765481188893318 0.05722591280937195 0.04007602483034134 -0.015555016696453094 -0.00014352252765093 -0.007718770764768124 0.0019001865293830633 -0.006025447975844145 0.00558170722797513 -0.02974262833595276 0.014160909689962864 0.009783975780010223 -0.007911658845841885 0.00967624131590128 0.006316504441201687 0.01479321252554655 0.00860179029405117 -0.02717071957886219 -0.04299106448888779 0.031056629493832588 0.05434451624751091 -0.003563202451914549 -0.026413260027766228 0.0022305708844214678 0.034261610358953476 0.016207091510295868 -0.0206635482609272 -0.05162093788385391 -0.00968413520604372 0.028005674481391907 0.05824410170316696 -0.0105914156883955 0.03545987978577614 -0.0005603341851383448 0.027111941948533058 -0.00011284361244179308 -0.021427331492304802 0.002348162466660142 -0.01933875121176243 -0.027581755071878433 -0.005006883759051561 -0.04886442795395851 0.008809397928416729 0.03640802949666977 -0.03148595988750458 -0.04413744807243347 0.047404538840055466 -0.03434514254331589 0.013107344508171082 0.023591237142682076 0.03347659111022949 0.039931491017341614 0.03762022405862808 0.03776741027832031 -0.029656702652573586 -0.01700507290661335 0.017660582438111305 -0.010668187402188778 0.0028883875347673893 -0.006316894665360451 0.037144508212804794 -0.06276541203260422 -0.011278980411589146 0.01212611049413681 0.020518114790320396 0.005928057245910168 -0.008499795570969582 0.01090556662529707 0.009288977831602097 0.058804258704185486 0.013630451634526253 -0.0026009916327893734 0.033609967678785324 0.004425053019076586 0.020226940512657166 0.008131155744194984 -0.004716336727142334 0.03912799432873726 0.00139008613768965 -0.027357324957847595 -0.03073814883828163 0.012124930508434772 -0.030676739290356636 -0.020588241517543793 0.003352619241923094 0.02875613607466221 0.05241401866078377 -0.0221603661775589 -0.03032752312719822 0.010438255034387112 -0.017766816541552544 0.0058700889348983765 -0.0002449222083669156 -0.0319383405148983 -0.036138277500867844 0.029337316751480103 0.009604516439139843 0.0013317548437044024 0.008727443404495716 -0.055445682257413864 -0.009954001754522324 0.012504730373620987 -0.036068450659513474 -0.04217331111431122 0.014393309131264687 0.004873653408139944 -0.030662311241030693 -0.013813423924148083 -0.05420485511422157 -0.0023531930055469275 -0.023018160834908485 -0.023227455094456673 0.005720634013414383 -0.012409424409270287 0.008784757927060127 -0.013324739411473274 0.006195772904902697 -0.026150014251470566 -0.0003743323031812906 -0.016386983916163445 0.029052453115582466 -0.02348184585571289 -0.0033974722027778625 -0.02965492568910122 0.004742825403809547 0.02209555171430111 0.012252169661223888 -0.00024593630223535 -0.055406637489795685 0.015873748809099197 -0.02999943122267723 0.058396369218826294 0.009353251196444035 0.028763949871063232 0.01894679106771946 0.025824377313256264 -0.012867114506661892 0.04327259957790375 -0.02818796969950199 -0.0009537807200103998 -0.02987283654510975 0.019407223910093307 -0.04539766535162926 0.01619686931371689 -0.023294838145375252 -0.0026874106843024492 0.008378509432077408 0.00043294596252962947 0.01713164523243904 -0.0028672448825091124 0.03402597829699516 -0.006876814644783735 0.03199439123272896 -0.004473297856748104 -0.004016484133899212 0.06737346202135086 -0.04982122406363487 -0.02327621914446354 -0.024795381352305412 -0.015315947122871876 0.006392271723598242 -0.006883546710014343 -0.0006062457105144858 0.01339644379913807 0.015156316570937634 0.021100010722875595 0.0022971341386437416 0.012226137332618237 -0.02016015537083149 0.007346658501774073 -0.015747705474495888 0.019592931494116783 0.005264002829790115 0.04559747874736786 0.00073484075255692 -0.000996061135083437 0.01594947837293148 0.009067212231457233 0.008827857673168182 0.020387733355164528 0.0006558313616551459 -0.003122821217402816 0.015183941461145878 0.051411278545856476 0.001666256575845182 0.00399944419041276 0.011557457037270069 0.009087835438549519 0.035823602229356766 -0.018049100413918495 0.01609622687101364 -0.010096228681504726 -0.005679180379956961 -0.03765099495649338 0.03915059193968773 0.018664970993995667 0.015076431445777416 -0.0037177433259785175 0.030605630949139595 -0.007092867977917194 0.037213992327451706 0.0389748252928257 0.03527676314115524 0.011142521165311337 -0.01696670986711979 0.015453586354851723 0.03207710012793541 0.03112906776368618 0.009030441753566265 -0.02066974900662899 0.014581231400370598 -0.039571963250637054 -0.010126461274921894 -0.02362428978085518 -0.06250399351119995 0.01443418487906456 -0.039259135723114014 -0.01241927221417427 -0.002413445385172963 -0.0026836167089641094 -0.009235295467078686 0.02234852872788906 -0.0018144650384783745 -0.038094788789749146 -0.012849424965679646 0.018608592450618744 -0.005111465696245432 0.006967298686504364 0.03188389167189598 -0.01514674723148346 0.008641206659376621 0.001896251691505313 -0.0002764332457445562 0.003658620873466134 0.013827154412865639 -0.03373369947075844 -0.008394409902393818 0.00903479102998972 -0.002064509317278862 -0.03562542051076889 -0.054864246398210526 0.02136855386197567 -0.010271266102790833 -0.01356196217238903 -0.010562525130808353 -0.00799201987683773 0.006058222148567438 -0.01113821379840374 0.02455179952085018 0.0005200081504881382 0.013421017676591873 -0.03452013060450554 0.0009935889393091202 -0.01650608517229557 -0.030112676322460175 -0.014980698935687542 -0.04268379509449005 0.01030457578599453 0.0018057596171274781 0.0014025267446413636 -0.044307079166173935 0.0039169820956885815 -0.022071901708841324 0.016300074756145477 0.02240985631942749 -0.010266517288982868 0.035775572061538696 -0.013602472841739655 -0.012723949737846851 -0.006598471663892269 0.027216440066695213 0.02791152335703373 -0.0044335913844406605 0.021984826773405075 -0.02632334642112255 0.01953163370490074 0.005537277087569237 0.059384915977716446 0.004367666319012642 -0.03993522748351097 -0.05437333509325981 0.02207687310874462 0.004384354688227177 -0.00848805159330368 -0.018918106332421303 0.027334965765476227 0.05184776708483696 -0.0014545342419296503 -0.027397455647587776 0.0018013931112363935 -0.0579337440431118 0.012623932212591171 0.02777310088276863 0.047483209520578384 -0.01263134554028511 -0.051698341965675354 0.026502059772610664 0.006059811916202307 0.02901473082602024 0.043126221746206284 -0.03348502889275551 -0.03682705760002136 0.023524686694145203 0.026370851323008537 0.008604212664067745 -0.010786255821585655 -0.03008849173784256 0.018178200349211693 0.014926783740520477 0.015590978786349297 -0.041933223605155945 0.02796562761068344 -0.04911200329661369 -0.029226137325167656 0.05889611691236496 -0.027022607624530792 -0.010401628911495209 -0.01872873865067959 0.008676410652697086 -0.0010187550215050578 0.004804245661944151 0.047039177268743515 0.01820460334420204 -0.02532440610229969 -0.03306151181459427 0.03168546408414841 0.046983495354652405 0.008054977282881737 0.017114656046032906 -0.0036585466004908085 -0.03566097840666771 -0.02197066694498062 0.014671995304524899 0.0038054019678384066 -0.006322550121694803 -0.005517197772860527 -0.03577800840139389 -0.0015634638257324696 0.033007364720106125 0.03007192350924015 0.0010008335812017322 0.043269701302051544 0.0025668328162282705 -0.009947522543370724 -0.018105441704392433 0.00916384905576706 0.016682323068380356 -0.006802191957831383 0.012059621512889862 0.04140868037939072 0.021085523068904877 0.03637470304965973 -0.0054536014795303345 0.0047041489742696285 -0.00883652362972498 0.014887494035065174 