-0.006996119860559702 -0.004141073673963547 -0.022577831521630287 0.027913086116313934 -0.0012111621908843517 -0.010878227651119232 -0.014935876242816448 0.004738020710647106 -0.00016892889107111841 -0.01970844529569149 0.01648041047155857 0.013341939076781273 0.02335527166724205 0.016239088028669357 -0.016893228515982628 0.02402801439166069 -3.2938354706857353e-05 0.03304224833846092 -0.008982392027974129 -0.00334562873467803 -0.010708344168961048 -0.0033407150767743587 -0.002548710908740759 0.04350431263446808 -0.022817621007561684 0.008418417535722256 -0.009525730274617672 0.025400979444384575 -0.015810417011380196 -0.007179080042988062 -0.0017546515446156263 0.00685447221621871 -0.015349511988461018 -0.02354397065937519 0.025405295193195343 0.00421667518094182 -0.01902569830417633 -0.006079141516238451 0.007637397386133671 -0.018604155629873276 -0.003486248664557934 -0.03009735606610775 -0.03145132586359978 0.006519433110952377 -0.0019677551463246346 -0.008625357411801815 -0.005143618211150169 0.02815450169146061 0.006633242592215538 0.017012525349855423 0.0034525557421147823 0.011955689638853073 0.029538976028561592 0.005994272883981466 0.020241480320692062 0.009945848025381565 -0.004818685352802277 -0.0015239196363836527 -0.009134486317634583 0.007822014391422272 -0.016038576140999794 -0.0214766226708889 0.019801685586571693 0.015036961063742638 0.002289931522682309 0.008766409941017628 -0.030261028558015823 0.007140312809497118 -0.011508243158459663 0.0075946892611682415 0.011169754900038242 0.02828686125576496 -0.015909383073449135 -0.0007301925215870142 -0.018240194767713547 0.004107717424631119 -0.016569137573242188 0.01118377223610878 -0.004088647197932005 0.018665742129087448 -0.012805230915546417 -0.02228761464357376 0.020223086699843407 0.02111733704805374 -0.012687573209404945 -0.026971155777573586 -0.0034503124188631773 -0.006390957627445459 0.01926533132791519 -0.013060031458735466 0.028414132073521614 0.004761608317494392 0.023380005732178688 0.014103715308010578 -0.006485345307737589 -0.02679631859064102 0.010453238151967525 -0.007089242339134216 -0.01704554259777069 0.01177544891834259 -0.011510846205055714 0.037200652062892914 0.033941444009542465 0.024693980813026428 0.012660710141062737 -0.021732719615101814 -0.02175477147102356 -0.016640178859233856 -0.01550218090415001 0.004458206705749035 -0.03613889217376709 -0.02588975988328457 -0.01213874388486147 0.02680424600839615 0.0023255913984030485 0.00839223526418209 -0.016501644626259804 -0.007767220493406057 0.022197676822543144 -0.011077143251895905 -0.019337408244609833 0.02094820886850357 0.030577218160033226 0.03189358115196228 -0.026049496605992317 -0.01818978600203991 0.00541238859295845 0.005757520906627178 0.003111099125817418 -0.02513114921748638 0.019377119839191437 0.01703016832470894 -0.007919405587017536 0.00018166052177548409 -0.017296787351369858 -0.0035133727360516787 0.017449643462896347 0.005812609102576971 0.01568688452243805 -0.002225198782980442 -0.02714148536324501 -0.010980856604874134 -0.011965486221015453 0.015420959331095219 -0.012988694943487644 0.01962890848517418 -0.00995067972689867 -0.0019116753246635199 -0.009076206013560295 -0.008972936309874058 -0.0025074121076613665 0.00147762440610677 0.02727518603205681 -0.0014190803049132228 -0.007779944222420454 0.001698277541436255 0.0027658489998430014 0.027506547048687935 0.008809735998511314 -0.015734048560261726 0.005037670489400625 -0.017891600728034973 -0.00540654081851244 -0.018610214814543724 -0.006899118423461914 0.008163614198565483 -0.007476231548935175 0.013469886966049671 -0.007659758906811476 -0.007777145132422447 0.014721464365720749 -0.016047563403844833 0.016667837277054787 0.004999781027436256 -0.016346551477909088 0.012924120761454105 -0.011255286633968353 -0.015554147772490978 -0.008000881411135197 -0.019808974117040634 0.0025108621921390295 -0.02303059957921505 0.02249540202319622 0.0024774018675088882 0.005589737091213465 -0.020785169675946236 -0.003342172596603632 -0.008357160724699497 -0.015146822668612003 -0.008146257139742374 -0.0015836054226383567 0.012744461186230183 -0.012111082673072815 -0.005253548733890057 0.006525371689349413 0.027089640498161316 0.004965947475284338 -0.00849620345979929 0.02562570944428444 0.02622065506875515 0.03099817968904972 -0.00010606470459606498 -0.004980164580047131 -0.04974663630127907 0.008403608575463295 -0.00753049785271287 -0.0246758870780468 0.016872115433216095 0.0014084512367844582 0.003949800506234169 -0.024252472445368767 0.005191234406083822 0.0031476449221372604 0.01765834167599678 0.025959402322769165 -0.033833909779787064 -0.023104866966605186 0.047341760247945786 -0.006136689335107803 -0.005750000011175871 -0.032737284898757935 -0.013753855600953102 0.0134095698595047 0.010332632809877396 0.04678469896316528 -0.023235294967889786 -0.003735474543645978 -0.009004253894090652 -0.008467357605695724 -0.013999277725815773 -0.010847534984350204 0.0018710857257246971 0.01091847475618124 0.038387492299079895 0.011019174940884113 -0.00283034797757864 0.002751497086137533 -0.002289552241563797 -0.0127909230068326 0.04166208207607269 0.04045075923204422 0.006746295373886824 -0.002760678995400667 0.013559211045503616 -0.008951074443757534 0.021877020597457886 0.023414816707372665 0.012884593568742275 0.011919609270989895 -0.007431882433593273 0.0315466932952404 -0.004800751805305481 -0.0013986959820613265 0.012695454061031342 -0.011434102430939674 -0.013876361772418022 -0.003845463739708066 -0.008050103671848774 -0.011808033101260662 -0.009600753895938396 0.024527475237846375 0.01044175960123539 -0.02680593729019165 0.0141622144728899 -0.0030714948661625385 0.025063389912247658 -0.015854887664318085 0.011626861989498138 -0.011409774422645569 -0.00116446940228343 -0.038812343031167984 0.031002961099147797 -0.00910556223243475 -0.00999268889427185 0.00672419648617506 0.004523869603872299 0.009414608590304852 -0.03820212930440903 -0.028360839933156967 0.0016035764710977674 -0.018282147124409676 0.03026047721505165 -0.027467727661132812 0.022324446588754654 -0.012844767421483994 -0.004075443372130394 -0.021329855546355247 0.012801201082766056 0.006949917878955603 0.016543954610824585 0.0188163910061121 0.012143999338150024 0.02140033058822155 -0.022371556609869003 -0.020562363788485527 -0.03460327163338661 -0.03971750661730766 0.014371566474437714 0.0037187798880040646 0.024889027699828148 -0.002048651920631528 0.008174608461558819 -0.023111457005143166 -0.014491735026240349 -0.012330411933362484 -0.01931004412472248 0.0032527095172554255 -0.03593679144978523 -0.012571538798511028 -0.02003411017358303 0.012593787163496017 -0.006627622060477734 -0.005647888872772455 -0.010315051302313805 0.01655183918774128 -0.020104125142097473 -0.01597229205071926 -0.006658655125647783 0.0065989685244858265 -0.03795131668448448 0.04157556965947151 -0.032747261226177216 0.0017113533103838563 -0.007953042164444923 0.022419987246394157 0.0022755328100174665 -0.0013077628100290895 0.008682372979819775 0.02017238922417164 0.0013486285461112857 -0.028342831879854202 -0.010178713127970695 0.007295619696378708 -0.03340050205588341 0.0013385409256443381 0.007977806031703949 -0.026888860389590263 0.031345222145318985 -0.0008239459129981697 -0.01354285329580307 0.0009535840363241732 -0.007484614849090576 -0.02012704499065876 -0.016954662278294563 -0.019454918801784515 0.008840302005410194 -0.009522795677185059 0.008853193372488022 -0.018757928162813187 -0.0014420869993045926 -0.014628611505031586 -0.023694448173046112 -0.0006351960473693907 0.010284239426255226 -0.008572546765208244 0.018746456131339073 0.010227018035948277 -0.007913387380540371 -0.004420587792992592 -0.021803593263030052 0.016127295792102814 0.029905185103416443 -0.030341243371367455 -0.031901974231004715 0.017063412815332413 -0.027067270129919052 -0.006709431763738394 -0.026473071426153183 -0.05751143768429756 -0.0013979600043967366 0.010022178292274475 -0.02594834566116333 -0.013877375982701778 -0.014389215037226677 -0.008517757058143616 0.0016758806305006146 0.009961161762475967 0.011613525450229645 0.02055232971906662 -0.008921204134821892 -0.032498858869075775 0.006969638634473085 -0.03714914619922638 0.002045117551460862 -0.047505464404821396 0.024501994252204895 -0.0019743330776691437 -0.0012598664034157991 -0.031088359653949738 -0.002089726971462369 -0.022696800529956818 -0.0014264030614867806 0.0015182250645011663 -0.012009362690150738 0.033114850521087646 0.011665590107440948 -0.011835658922791481 -0.008445881307125092 0.023740049451589584 0.023399487137794495 0.025859910994768143 0.012191175483167171 0.001145098707638681 0.008576294407248497 -0.03079221397638321 -0.0006993907154537737 0.014357334934175014 0.02182689495384693 -0.006643529981374741 -0.019301218912005424 0.02978646010160446 -0.0017094188369810581 -0.02775328978896141 -0.05651087313890457 -0.03360351175069809 0.025279942899942398 0.025220634415745735 -0.012476546689867973 0.013977142050862312 0.03262836113572121 0.0030807943549007177 0.008033172227442265 -0.017845394089818 -0.009847523644566536 0.012576872482895851 0.033641934394836426 -0.019258787855505943 0.007827299647033215 -0.011670497246086597 0.025697238743305206 0.018202463164925575 0.015501199290156364 0.011303886771202087 0.012809495441615582 -0.01485162042081356 -0.009507106617093086 0.007284360937774181 -0.02170124650001526 0.007092676125466824 0.005745572037994862 0.011009613052010536 -0.006513648200780153 0.03954705223441124 -0.03343180567026138 -0.019667401909828186 -0.012566701509058475 0.008391973562538624 0.011889342218637466 0.021544096991419792 -0.010590561665594578 0.009771953336894512 0.004412014037370682 -0.03215107321739197 0.019955739378929138 0.023858847096562386 -0.001611982355825603 -0.013112054206430912 0.0074322409927845 0.00584266846999526 -0.02879084087908268 -0.008718020282685757 -0.038946423679590225 -0.008194741792976856 0.0029274786356836557 -0.007186511997133493 0.0028571905568242073 -0.010542690753936768 -0.026629995554685593 0.0009595807059668005 -0.028117870911955833 -0.01562418881803751 -0.006906641181558371 0.010532543063163757 -0.00614946661517024 0.018768079578876495 0.008628283627331257 -0.015756556764245033 -0.015902308747172356 0.015319383703172207 -0.00216507981531322 -0.0063080028630793095 -0.015835054218769073 0.011906757950782776 -0.009542763233184814 0.029342519119381905 -0.012893464416265488 -0.013574986718595028 0.015156963840126991 0.0298998411744833 -0.0064284056425094604 0.006067498121410608 -0.023252423852682114 -0.012913350947201252 0.018686853349208832 -0.016080331057310104 0.007110967300832272 0.04559362679719925 0.00992367509752512 0.028829889371991158 -0.022065645083785057 -0.0024550524540245533 -0.01304683554917574 0.009212727658450603 0.013878105208277702 0.0064826845191419125 -0.00548200448974967 -0.010983109474182129 0.02859564498066902 0.037979524582624435 0.001296922448091209 0.0029449521098285913 -0.0037936416920274496 -0.018587537109851837 -0.053433384746313095 -0.010814821347594261 0.016048600897192955 0.006497213616967201 -0.029042044654488564 -0.0316288024187088 0.006006384734064341 0.013724048621952534 0.02257607877254486 0.014872687868773937 -0.0010357690043747425 -0.04050011932849884 -0.01235193945467472 -0.026625094935297966 -0.047448113560676575 0.032588034868240356 0.015714114531874657 0.009973566979169846 -0.02402442693710327 -0.01902141235768795 0.017850609496235847 0.0029954437632113695 0.02273622155189514 0.0011655387934297323 0.013360468670725822 0.04832952469587326 0.020411215722560883 -0.008216187357902527 -0.032938554883003235 0.032112788408994675 -0.02326679229736328 0.01728304661810398 -0.02138218842446804 -0.017853569239377975 -0.0020864580292254686 0.034735776484012604 0.017851918935775757 -0.005917768459767103 -0.010557041503489017 0.003980695270001888 0.02479606866836548 0.0023402441293001175 -0.007306968793272972 0.021105239167809486 -0.0067400624975562096 -0.039222586899995804 -0.023054713383316994 0.008270020596683025 -0.000406372215365991 0.026587704196572304 -0.0011960689444094896 -0.032321296632289886 -0.010482052341103554 0.0005984447780065238 -0.009098573587834835 -0.036018770188093185 0.008920194581151009 -0.006884029600769281 -0.003225175430998206 0.030968835577368736 0.006748391781002283 -0.014766871929168701 0.014427101239562035 0.018703503534197807 0.009644117206335068 0.0064735193736851215 0.005460409447550774 0.001290399581193924 0.007526284549385309 0.015520825050771236 -0.003658297937363386 0.010752507485449314 0.000636532437056303 0.02422383613884449 -0.005376727320253849 -0.031088106334209442 -0.023650415241718292 0.0027566389180719852 -0.019726062193512917 -0.018233543261885643 0.0008215775596909225 0.0033687495160847902 0.01892607845366001 -0.020799506455659866 0.004247067961841822 0.007442857604473829 0.019761795178055763 -0.00223043211735785 0.004955637268722057 -0.026467764750123024 0.0356159470975399 -0.01275357324630022 -0.010079693049192429 -0.00401939544826746 -0.0009253193275071681 0.010331589728593826 -0.009628651663661003 -0.013563760556280613 -0.004180385731160641 -0.0026916346978396177 -0.022496871650218964 -0.028968537226319313 0.04305390641093254 -0.004289355594664812 0.003465828252956271 -0.011796814389526844 0.00940139964222908 -0.015840740874409676 -0.008668197318911552 0.012224090285599232 -0.0062402281910181046 0.05528062954545021 -0.02885257452726364 -0.03390197828412056 0.03629354014992714 -0.010497433133423328 0.018759069964289665 -0.007834379561245441 0.034857671707868576 -0.017299460247159004 0.02265322022140026 -0.024237649515271187 0.02730928547680378 -0.005531194154173136 0.010791050270199776 -0.00959248561412096 0.027812952175736427 0.006236962042748928 -0.031568046659231186 -0.008024833165109158 -0.01055116392672062 -0.012441756203770638 -0.03952724486589432 -0.02246379293501377 0.01630993001163006 0.0006889677024446428 0.0042244307696819305 -0.015101311728358269 0.011432791128754616 -0.02609201893210411 -0.012522726319730282 -0.0178225077688694 -0.018329555168747902 0.033176638185977936 -0.008366636000573635 -0.006672087125480175 -0.0092080133035779 0.03917323052883148 -0.01303980965167284 -0.022140853106975555 -0.010464261285960674 0.04555423557758331 -0.0029194860253483057 -0.01716715097427368 -0.006478828378021717 -0.0022106857504695654 0.029650798067450523 -0.01262845378369093 0.034339871257543564 0.007103131152689457 -0.04542827978730202 -0.02618175558745861 0.02108270674943924 -0.011437159031629562 -0.029769068583846092 -0.0019222787814214826 -0.010350118391215801 0.024320345371961594 -0.007345904130488634 -0.03106549009680748 0.0032789120450615883 -0.01682288758456707 -0.013849888928234577 0.013681015931069851 0.019067712128162384 0.014712422154843807 0.02365177683532238 0.0015162044437602162 0.003080640221014619 0.006998707074671984 0.03509245440363884 0.01862792856991291 0.001190653652884066 -0.012169867753982544 -0.01784600131213665 0.008326557464897633 0.0103150000795722 -0.011121978983283043 -0.006252678576856852 0.01927543617784977 -0.018119461834430695 -0.010750208050012589 0.010593319311738014 -0.006897244602441788 0.0010474238079041243 -0.007580067031085491 0.037804342806339264 -0.01265046838670969 0.012638038024306297 0.006109255366027355 -0.026846768334507942 0.033861998468637466 -0.0012744308914989233 0.0185006782412529 0.027545496821403503 0.013801207765936852 0.018636688590049744 -0.01882845349609852 0.008940024301409721 -0.006841093767434359 0.013850745745003223 -0.011837025173008442 -0.0032508987933397293 -0.024638108909130096 -0.005881274119019508 0.031422387808561325 -0.02222297526896 0.00023408453853335232 0.02422957867383957 0.0071844784542918205 0.016607683151960373 0.012129195034503937 -0.01365972962230444 -0.0038346746005117893 -0.029339542612433434 -0.005515494849532843 -0.037045668810606 -0.015170656144618988 -0.004807658027857542 0.002899381099268794 0.007113000378012657 -0.027864200994372368 -0.03352174535393715 -0.001961264293640852 -0.0007526958361268044 0.03151310980319977 -0.026609521359205246 0.007238336838781834 -0.004641366191208363 0.0033170778769999743 0.03459036350250244 0.012608520686626434 -0.011472315527498722 0.026175936684012413 -0.019993945956230164 0.0016091912984848022 0.024319568648934364 0.005892457440495491 0.02650623209774494 -0.015217089094221592 -0.008531851693987846 0.014372596517205238 0.04497380927205086 0.016809115186333656 -0.030369507148861885 -0.013813547790050507 -0.02216508984565735 -0.05184166133403778 -0.002468531485646963 -0.007230472285300493 -0.016014007851481438 6.627364200539887e-05 -0.0031167720444500446 -0.007098126225173473 0.024199672043323517 -0.011337284930050373 0.007776494603604078 -0.025732044130563736 -0.036811839789152145 0.02011372335255146 0.017781822010874748 0.008000317960977554 0.042366549372673035 -0.019540440291166306 0.02852185256779194 0.010629760101437569 -0.043296292424201965 -0.0038501573726534843 0.01718202233314514 -0.01759883388876915 0.008813221007585526 0.011094936169683933 0.002339097671210766 0.006375174503773451 0.010849817655980587 -0.021002544090151787 0.007095031905919313 0.009458847343921661 -0.01050222385674715 -0.014350542798638344 -0.024808699265122414 0.015598580241203308 0.016420433297753334 0.007508919574320316 0.00947890430688858 0.020255886018276215 0.03466646000742912 -0.0018784526037052274 0.014612101018428802 -0.0002174915571231395 -0.04114361107349396 0.005346036981791258 0.0016955672763288021 -0.018462806940078735 0.005143147427588701 -0.008122014813125134 -0.02759990654885769 -0.018488243222236633 -0.023049410432577133 -0.01419578492641449 -0.005868061445653439 -0.03912252560257912 -0.021809209138154984 -0.012579935602843761 0.005921962205320597 -0.0093282051384449 0.028339369222521782 0.013117905706167221 -0.0008239827584475279 0.01168008055537939 0.002790715778246522 0.006274128332734108 0.002994778100401163 -0.018002841621637344 -0.021579820662736893 0.013291977345943451 0.0043800147250294685 -0.026775944977998734 0.0038375805597752333 -0.0031578456982970238 0.018091274425387383 0.005127002019435167 -0.006067547015845776 -0.006334424950182438 0.052811961621046066 -0.061785053461790085 -0.030229683965444565 0.0027940701693296432 -0.005971437785774469 -0.019290728494524956 0.011949293315410614 0.023806286975741386 -0.004787329584360123 -0.007139056455343962 0.007013961207121611 -0.005566683132201433 -0.03986748680472374 0.01420933473855257 -0.010546288453042507 -0.0008997832192108035 0.021160505712032318 0.0030230076517909765 0.0002510694903321564 -0.007775559555739164 -0.003613936947658658 -0.02214745245873928 -0.0021921636071056128 -0.013707861304283142 -0.017554104328155518 0.004066287539899349 -0.006502121686935425 -0.033541880548000336 0.013997510075569153 -0.011078154668211937 -0.027456138283014297 -0.0016240976983681321 0.03737499564886093 -0.0022624884732067585 0.03489422798156738 0.004227304831147194 -0.005087751895189285 -0.00027431402122601867 -0.04430055245757103 -0.018099643290042877 0.009685260243713856 0.027650903910398483 0.015499145723879337 0.008424313738942146 -0.020392442122101784 -0.020285477861762047 0.02193622477352619 -0.012673990800976753 -0.031121330335736275 -0.007682763505727053 -0.005585050210356712 0.004348331596702337 -0.0556333065032959 -0.006568060256540775 0.012180320918560028 -0.019381269812583923 -0.00662552984431386 -0.008073022589087486 -0.018065279349684715 -0.012211867608129978 0.01730567216873169 0.0073168459348380566 -0.007850025780498981 0.004444612190127373 0.013834726996719837 -0.007579510565847158 0.03261502832174301 -0.014685350470244884 -0.013620062731206417 0.00909621361643076 -0.014231212437152863 -0.00507489824667573 -0.019243784248828888 -0.01740548014640808 0.006726008374243975 -0.021597083657979965 0.026200123131275177 0.00039496144745498896 0.010540333576500416 0.030078863725066185 0.03772309795022011 -0.002585602691397071 -0.004544593393802643 -0.0068111116997897625 0.0019669097382575274 -0.0016463116044178605 -0.006523695308715105 -0.007249167189002037 0.0161601435393095 -0.014338690787553787 0.002821994246914983 0.012151730246841908 -0.04917808622121811 -0.010733753442764282 -0.019088761880993843 0.007572426926344633 0.010217158123850822 -0.04451560601592064 -0.008421625010669231 0.008385838940739632 -0.007189387921243906 -0.06281629204750061 -0.0179416723549366 -0.005850343499332666 0.025158777832984924 0.026439476758241653 -0.0539320632815361 -0.021340982988476753 -0.010174698196351528 -0.009664559736847878 -0.014284325763583183 -0.021324045956134796 0.0062374877743422985 0.044617146253585815 -0.012876073829829693 -0.009951440617442131 -0.0046994988806545734 -0.019815295934677124 -0.016889682039618492 -0.007995602674782276 0.015130330808460712 -0.009506667964160442 -0.007385634817183018 -0.0037093386054039 0.004227967467159033 -0.010514331981539726 0.002649500034749508 -0.02109539695084095 -0.024898676201701164 -0.027545291930437088 -0.034403182566165924 -0.012566915713250637 -0.004488964099436998 -0.0065287076868116856 0.02032291702926159 -0.038638535887002945 0.003514343174174428 0.018684761598706245 0.006685345899313688 0.03578159213066101 0.0005644343327730894 0.00878236722201109 9.579890320310369e-05 -0.004405638203024864 -0.018320608884096146 0.02807619795203209 -0.024624578654766083 0.005183589179068804 0.014250301755964756 0.04923967272043228 0.0063944654539227486 -0.0010805462952703238 -0.00397564098238945 0.02822638303041458 0.0035897952038794756 -0.02386990562081337 0.05605737492442131 -0.01082954928278923 -0.01458393968641758 0.01668660342693329 -0.03636765852570534 0.015982581302523613 -0.02993025630712509 0.001886278041638434 0.02530173398554325 -0.010741299018263817 0.00911691877990961 -0.06429473310709 -0.0025426766369491816 -0.03879743441939354 0.006784169934689999 -0.0037451463285833597 -0.01185751985758543 0.05551593378186226 0.008865267038345337 0.012741933576762676 -0.005938967689871788 0.0481451191008091 0.02268500067293644 0.009984400123357773 -0.03627335652709007 -0.020435042679309845 0.019859204068779945 -0.03342422470450401 -0.01694178208708763 0.014495808631181717 -0.009557564742863178 -0.020836904644966125 0.002028076443821192 -0.014114649966359138 -0.00574803352355957 0.008062412962317467 -0.033389218151569366 -0.025659125298261642 -0.008351574651896954 0.028892505913972855 -0.009681987576186657 -0.0015883580781519413 -0.026708120480179787 -0.0021349946036934853 0.014714745804667473 0.006032273173332214 -0.013163512572646141 0.005579575430601835 -0.0372113361954689 0.025480644777417183 0.02711048163473606 0.021357620134949684 -0.034343160688877106 0.022481029853224754 -0.023651402443647385 0.004140300676226616 0.002992117078974843 0.004723392426967621 -0.03672210872173309 0.021796507760882378 0.018738003447651863 0.007682515773922205 -0.007591518107801676 -0.010199724696576595 0.01233116164803505 -0.007212071213871241 -0.022223323583602905 0.006687130779027939 -0.0052923583425581455 -0.03797556087374687 -0.004078083671629429 0.02140159159898758 -0.015036581084132195 -0.018684452399611473 -0.0016037380555644631 0.005160856526345015 0.0017334272852167487 0.007293326314538717 -0.02676289901137352 0.017388146370649338 -0.008402632549405098 0.01191646233201027 -0.010079829022288322 0.0023832665756344795 -0.043664492666721344 0.003919720184057951 -0.013680015690624714 0.003094607964158058 -0.02565738931298256 -0.02289741486310959 0.042338646948337555 -0.005064277909696102 -0.019608907401561737 0.018456973135471344 -0.00010148951696464792 0.01932871900498867 -7.181763794505969e-05 0.015866674482822418 0.0005273136193864048 -0.022480016574263573 -0.00311438855715096 -0.019313465803861618 0.024930598214268684 0.015211556106805801 -0.0018615431617945433 0.030728338286280632 -0.00593379745259881 -0.014982355758547783 0.014883785508573055 0.0001190394614241086 0.013467115350067616 -0.014653132297098637 -0.011456088162958622 -0.016841929405927658 0.02931571751832962 0.020128797739744186 0.01017234567552805 0.01691298931837082 0.007802898064255714 0.010552999563515186 0.04073116555809975 -0.028449421748518944 -0.0029681797605007887 -0.0034243566915392876 -0.008499469608068466 -0.03462417051196098 0.03975436091423035 0.029279431328177452 -0.028205083683133125 -0.0386468730866909 -0.006049684714525938 -0.026110490784049034 -0.013862498104572296 -0.012698533944785595 -0.0507604144513607 -0.02107706293463707 -0.00776202417910099 -0.005693161394447088 -0.008271499536931515 0.013462075963616371 0.027021372690796852 -0.03668029233813286 0.032882533967494965 0.028464099392294884 0.019793935120105743 -0.010277205146849155 -0.020491287112236023 -0.03334301337599754 -0.02926458604633808 -0.015251069329679012 0.010518376715481281 -0.024491650983691216 -0.006587827578186989 0.009474865160882473 0.008805586025118828 0.002272095298394561 0.017907679080963135 0.013970430009067059 -0.01873394101858139 0.036580365151166916 0.026209672912955284 -0.02081957273185253 0.004610270261764526 0.002119140699505806 -0.03756285086274147 0.000855715130455792 -0.013443311676383018 -0.05449451506137848 0.002993430243805051 0.023815035820007324 0.009082869626581669 0.020631494000554085 -0.0272494126111269 -0.009982855059206486 -0.009405112825334072 0.017094088718295097 -0.005831602960824966 -0.01220677513629198 0.00016177058569155633 -0.003895379137247801 0.03342828527092934 0.009370618499815464 0.0037339257542043924 -0.0059210993349552155 -0.003625987097620964 0.03794528543949127 0.029283743351697922 0.030616160482168198 0.011751060374081135 -0.006172060035169125 0.01957506127655506 -0.024850718677043915 -0.029875125735998154 0.0023489443119615316 -0.018207591027021408 -0.012905944138765335 -0.008536102250218391 -0.005951875355094671 -0.011870999820530415 0.03153277188539505 -0.0023287199437618256 0.03683163598179817 0.009669809602200985 0.026960814371705055 0.01914072409272194 0.004843857605010271 0.0017728966195136309 0.029025373980402946 -0.01421905867755413 0.016722090542316437 0.011525078676640987 0.003625976387411356 0.0028849239461123943 -0.04760470613837242 -0.008318752981722355 0.002434656722471118 0.02076602168381214 -0.02280806563794613 0.009263250976800919 -0.021024443209171295 0.0021936628036201 0.04209902510046959 0.00858264695852995 0.016907816752791405 0.04368145763874054 0.0136333042755723 -0.010945497080683708 0.01184691209346056 -0.0011219801381230354 0.01698903739452362 -0.024894149973988533 0.017132382839918137 0.01898164488375187 0.012755646370351315 0.007989909499883652 0.018952613696455956 0.039113350212574005 0.005183731205761433 -0.024993080645799637 -0.049486417323350906 0.06326953321695328 -0.0030087006743997335 -0.02549884095788002 -0.010159965604543686 0.019099820405244827 -0.018202058970928192 0.007550576236099005 0.0343376100063324 0.040869005024433136 0.006688299123197794 -0.031325649470090866 -0.006918041035532951 -0.03192220255732536 0.015574989840388298 0.0037926395889371634 0.025584634393453598 0.05045933276414871 -0.030324362218379974 -0.0026250765658915043 -0.005368022248148918 -0.013012641109526157 0.014014153741300106 -0.01819281093776226 0.027928097173571587 0.010502168908715248 -0.011231234297156334 -0.021039864048361778 -0.014789002947509289 -0.006830376572906971 0.009411264210939407 -0.005947393830865622 0.017352476716041565 -0.0005797554622404277 -0.024413157254457474 0.0016186172142624855 0.019585654139518738 0.02725643292069435 -0.022468378767371178 -0.01739451289176941 0.015181150287389755 8.844815602060407e-05 0.005942387506365776 -0.013458416797220707 -0.021186191588640213 -0.024076120927929878 -0.009280224330723286 0.023365573957562447 0.0047067319974303246 0.008873555809259415 -0.004960189573466778 0.017138587310910225 -0.014967796392738819 7.684796582907438e-05 0.02437547594308853 0.0001819361641537398 -0.010199780575931072 -0.0013466101372614503 0.022452885285019875 0.002602542983368039 0.020123517140746117 -0.0009975854773074389 0.005437513347715139 -0.01402481272816658 0.01594034768640995 -0.009328269399702549 -0.022693641483783722 0.009749985300004482 0.03198778256773949 -0.016141880303621292 -0.03264859691262245 0.03426742181181908 -0.03664499893784523 0.006560774054378271 -0.003688136348500848 0.023616600781679153 0.018543725833296776 0.02129419520497322 0.02160794287919998 -0.01611119881272316 0.008693523705005646 -0.016161644831299782 0.037646640092134476 -0.0168796107172966 0.0033831170294433832 -0.002988368971273303 0.05206134542822838 -0.006191687658429146 0.0015806740848347545 0.025690317153930664 -0.017452556639909744 -0.020916925743222237 -0.05557488277554512 -0.006319751497358084 0.03460464999079704 0.01835731975734234 0.009444293566048145 -0.03414535894989967 0.0003034643887076527 0.0037692764308303595 0.04010644182562828 0.008441789075732231 0.026870792731642723 -0.013505651615560055 -0.008179957047104836 -0.006349937058985233 -0.0028765813913196325 0.006645448040217161 -0.0025404514744877815 -0.016346970573067665 0.024536008015275 -0.009389426559209824 0.015749963000416756 0.006702008191496134 0.010458016768097878 -0.02748359739780426 0.03196036443114281 0.036179061979055405 0.059009093791246414 0.02021961100399494 0.012485446408390999 0.004807617049664259 0.030073437839746475 0.030962102115154266 0.007982449606060982 -0.002555268118157983 -0.01954948715865612 -0.0038666403852403164 -0.010924684815108776 -0.0013195944484323263 -0.008662077598273754 -0.006802667398005724 -0.032511644065380096 0.01549321599304676 -0.015870841220021248 0.024019891396164894 -0.011493662372231483 0.02688489481806755 -0.0005056884256191552 0.008609467186033726 -0.01541739609092474 0.005473332945257425 -0.0026453915052115917 0.022969288751482964 -0.004946790635585785 0.0108255073428154 -0.018383432179689407 0.0006406223401427269 -0.008013628423213959 0.019071973860263824 0.04872594401240349 -0.01025040727108717 -0.018353480845689774 -0.0017630773363634944 0.06283418834209442 0.03975684940814972 0.005894569680094719 -0.004382135812193155 -0.011833450756967068 -0.02119043655693531 -0.014089178293943405 0.006080976687371731 0.00531338807195425 0.006143467966467142 0.007931001484394073 0.0260030347853899 -0.019804170355200768 0.01983000710606575 0.01770356483757496 0.00365059613250196 0.02466905303299427 -0.004551501013338566 -0.01664344221353531 -0.036186713725328445 -0.004152756184339523 -0.022003689780831337 0.0015086395433172584 -0.02432636171579361 0.02366982027888298 0.03471841663122177 0.011286978609859943 0.0359361357986927 -0.0105286268517375 0.028044244274497032 -0.0028391461819410324 0.016578903421759605 0.02784455195069313 0.0326041504740715 0.0017142115393653512 -0.011374407447874546 0.007566772401332855 -0.002536073559895158 0.012026247568428516 0.04772890359163284 -0.005250479094684124 -0.005044953897595406 0.00515480013564229 -0.0002836921776179224 0.00045503186993300915 0.040181566029787064 0.013776198960840702 0.016786722466349602 0.0052751763723790646 -0.015415572561323643 -0.0014116636011749506 0.00726940156891942 0.029498815536499023 0.0007144711562432349 0.011226216331124306 -0.0160626620054245 -0.020152386277914047 0.03150460869073868 -0.041402582079172134 0.03874894231557846 0.051515739411115646 -0.024929510429501534 0.0025260623078793287 0.014906879514455795 -0.0084270890802145 -0.002779158763587475 0.005338476039469242 0.014705750159919262 0.002925196895375848 -0.021384600549936295 -0.020596913993358612 -0.005620767828077078 0.0006175516173243523 0.001361702335998416 -0.014956530183553696 0.01819952018558979 0.04878608509898186 0.031731314957141876 0.007017642259597778 0.00572418887168169 0.030719462782144547 0.0074264537543058395 0.009909897111356258 0.0005111910286359489 0.004204911645501852 0.009975427761673927 -0.030251991003751755 -0.013660532422363758 0.004906234331429005 0.0031795005779713392 -0.005891355685889721 0.027607280761003494 0.007077435497194529 -0.016651015728712082 0.01189487800002098 0.01960448920726776 0.016067467629909515 -0.014398095197975636 0.02472665160894394 -0.027532806620001793 -0.009504910558462143 -0.015100717544555664 0.013871592469513416 -0.014665991999208927 0.012680025771260262 0.03528174012899399 -0.022812891751527786 -0.030407965183258057 0.01044460665434599 0.002786261960864067 0.0027450616471469402 0.012797380797564983 0.014594369567930698 -0.024055512621998787 0.0037736527156084776 0.0410892553627491 -0.008408649824559689 0.00786973163485527 0.002555430866777897 0.01425940077751875 0.027689972892403603 -0.0023164106532931328 -0.010349726304411888 0.04158699885010719 0.0011473889462649822 -0.01861255057156086 -0.02579049952328205 0.0236166063696146 -0.024690983816981316 0.04520835727453232 3.2591758554190164e-06 -0.03558271378278732 -0.012482165358960629 0.004605155438184738 0.014280352741479874 0.01673789694905281 0.020598653703927994 -0.0069303959608078 -0.0019765368197113276 0.007309810724109411 0.03169954568147659 -0.006836061365902424 0.021807653829455376 -0.006042816210538149 0.018536193296313286 0.01128764171153307 -0.025129923596978188 0.006582879461348057 -0.003724006935954094 0.007248985581099987 -0.006186425685882568 0.021158156916499138 -0.014734003692865372 -0.019847692921757698 0.006613487843424082 0.019485628232359886 0.021958360448479652 0.014869622886180878 0.0269855298101902 -0.017250197008252144 0.012260916642844677 0.03244192525744438 0.026906736195087433 -0.01358084101229906 -0.027988240122795105 0.023567399010062218 0.01243862509727478 -0.025262199342250824 -0.011638833209872246 0.003950759302824736 -0.006128518842160702 -0.017052773386240005 0.0015418094117194414 -0.012472109869122505 0.01736465096473694 -0.0014088476309552789 -0.005467800423502922 -0.03360815718770027 0.013353086076676846 0.02875218540430069 0.04620091989636421 -0.012882022187113762 0.005073148757219315 0.013543196953833103 -0.006389381363987923 -0.015186958014965057 0.016302606090903282 0.007530437782406807 0.015614279545843601 -0.012012604624032974 0.022233424708247185 0.0057937586680054665 -0.015347704291343689 0.007043113000690937 0.004331111907958984 0.011772630736231804 0.017018601298332214 -0.042670052498579025 -0.015289496630430222 0.010177944786846638 0.003443970810621977 0.003357724752277136 -0.009551714174449444 -0.015709329396486282 0.022664906457066536 -0.011425034143030643 -0.04228644073009491 -0.045650165528059006 -0.020635563880205154 0.02118852362036705 -0.002255799015983939 0.027012137696146965 0.014857562258839607 -0.012868321500718594 -0.003390041645616293 0.014358104206621647 -0.0025240026880055666 -0.016456322744488716 0.008014591410756111 -0.011104054749011993 -0.023919623345136642 -0.006623753346502781 -0.008316348306834698 0.02628844417631626 0.0041596367955207825 0.011720429174602032 0.011911126784980297 -0.01528257317841053 0.016177790239453316 -0.0055144247598946095 -0.0031685414724051952 -0.011106284335255623 -0.0308231133967638 -0.03508281335234642 -0.012429635040462017 -0.0008675565477460623 0.03725837171077728 0.007234808057546616 0.033343713730573654 -0.004375236574560404 -0.00016053284343797714 0.006838296540081501 -0.019285481423139572 0.010177701711654663 -0.007194865494966507 0.02612687461078167 -0.0031801960431039333 -0.004487840458750725 0.014062145724892616 0.0390523262321949 -0.0011983989970758557 0.00817759707570076 0.02583165466785431 0.0024599896278232336 0.04439264535903931 0.045737557113170624 -0.012898643501102924 0.014077234081923962 0.01025108527392149 -0.017068395391106606 -0.0031313092913478613 0.0037636959459632635 -0.013890461064875126 -0.006217069458216429 0.012718145735561848 0.00044739971053786576 -0.03508514165878296 0.011838904581964016 0.021524308249354362 0.04229225963354111 0.009174523875117302 -0.02939886972308159 -0.01700333133339882 0.014148561283946037 0.00433445256203413 0.010828579775989056 0.026646245270967484 -0.004890410229563713 -0.013536655344069004 0.007127796765416861 0.008278075605630875 -0.023322461172938347 -0.02905707247555256 -0.008958777412772179 0.008196012116968632 -0.025463851168751717 -0.04351281747221947 0.007683156058192253 -0.025112660601735115 0.005270057357847691 0.004600137006491423 0.010760167613625526 -0.017202967777848244 0.014487692154943943 0.016649866476655006 0.0011287583038210869 0.016791079193353653 0.0020972155034542084 -0.026949163526296616 -0.0036766482517123222 -0.020340174436569214 -0.026929156854748726 0.022923704236745834 -0.008918500505387783 -0.00651237228885293 -0.0036739425268024206 0.01268808450549841 -0.01376392226666212 -0.01809445209801197 -0.010931595228612423 -0.00020286794460844249 -0.01014504674822092 0.006073795258998871 -0.01692258007824421 -0.003950721118599176 -0.03298206999897957 0.004069569054991007 0.02365458756685257 0.016337528824806213 0.02253153920173645 0.015543376095592976 -0.02329096756875515 -0.0042022112756967545 0.032615408301353455 -0.00871918722987175 -0.06048695743083954 0.009637759998440742 -0.022672781720757484 -0.02918352372944355 -0.025483429431915283 0.03106563538312912 -0.017727402970194817 -0.030491314828395844 0.01831820048391819 0.031001996248960495 0.0036913100630044937 -0.029806751757860184 -0.01955670304596424 0.012513849884271622 0.027349770069122314 -0.004534113220870495 0.019949043169617653 0.022330380976200104 -0.01803499273955822 -0.014950735494494438 0.00609886460006237 -0.0024352255277335644 0.016984036192297935 0.015124579891562462 0.02039024792611599 -0.018443219363689423 0.042954087257385254 -0.009077643044292927 0.004111152142286301 -0.015151442028582096 -0.020304424688220024 0.023684527724981308 0.025355668738484383 -0.007898294366896152 0.02170724608004093 -0.013355791568756104 -0.020343413576483727 0.0036932078655809164 0.008337859064340591 0.0044128065928816795 -0.006752621848136187 -0.008075883612036705 0.013120313175022602 -0.021701738238334656 0.014713287353515625 0.007728466764092445 0.006462775636464357 0.04034974053502083 0.0006158582982607186 0.030855031684041023 -0.008681921288371086 -0.027839522808790207 0.008933153934776783 -0.017223957926034927 -0.001604472636245191 -0.018475115299224854 -0.018858781084418297 -0.006338308099657297 0.01853279396891594 -0.0002266203664476052 0.003112107515335083 0.009184204041957855 -0.042164042592048645 0.027058586478233337 -0.004823246505111456 -0.011068508960306644 0.0022874523419886827 -0.0041437773033976555 0.010303925722837448 -0.011076792143285275 0.008804088458418846 -0.007791503798216581 -0.001961349043995142 0.040213692933321 0.02090669609606266 0.007051713299006224 0.006835947744548321 -0.01565801352262497 -0.02060287445783615 0.013400877825915813 -0.013451733626425266 0.0022662633564323187 -0.03805205225944519 0.009119994938373566 0.0014221846358850598 -0.0033569680526852608 0.035473570227622986 0.0032627054024487734 0.001586688100360334 6.964599742786959e-05 -0.006744217127561569 0.003127738833427429 -0.01964467391371727 -0.006549568381160498 0.004355814773589373 -0.010364986956119537 0.014061009511351585 -0.028897011652588844 -0.010771157220005989 -0.01283202599734068 -0.005152438767254353 -0.0022410275414586067 0.027638332918286324 -0.03128388896584511 -0.02214800752699375 0.008237206377089024 0.019962754100561142 0.0052794949151575565 0.018974650651216507 0.0009305216954089701 -0.01291853841394186 -0.019797775894403458 0.014882228337228298 0.012130494229495525 -0.02718343399465084 -0.000581765198148787 -0.0001389453827869147 -0.009536965750157833 0.04068142548203468 0.036175914108753204 0.030992956832051277 -0.0007157732034102082 -0.0023549883626401424 0.04714309051632881 0.007456280291080475 -0.007488769944757223 -0.025951974093914032 0.01872173510491848 -0.042033251374959946 0.0013260850682854652 -0.03489060327410698 0.01155606284737587 -0.004241632297635078 -0.016782687976956367 0.010734112933278084 0.007872471585869789 -0.011461880058050156 0.00020676194981206208 -0.007648990023881197 0.015651414170861244 0.0016935996245592833 0.03387527912855148 -0.027908215299248695 -0.007860247977077961 0.02780243754386902 -0.02607787773013115 0.007025704253464937 0.025547606870532036 0.011644906364381313 -0.03948121517896652 0.02912287414073944 0.01948695257306099 -0.00919884629547596 -0.0047517577186226845 0.01882639341056347 0.009628239087760448 -0.0060326033271849155 0.028590433299541473 -0.0020725291687995195 0.03753194585442543 -0.004882813431322575 -0.01615876518189907 -0.022198591381311417 -0.02679016999900341 0.009174516424536705 0.03181525319814682 0.028015010058879852 0.010001102462410927 -0.013538029044866562 -0.01813366450369358 -0.017959341406822205 0.033030763268470764 0.0028006050270050764 -0.014196518808603287 0.016378236934542656 0.023221857845783234 -0.0006452331435866654 0.019896021112799644 -0.02158726379275322 -0.01749010756611824 0.009782688692212105 0.000914007134269923 0.006433554925024509 0.042788635939359665 -0.022442324087023735 -0.007274324540048838 -0.017533067613840103 -0.008506701327860355 -0.011834141798317432 -0.015911683440208435 -0.0022744652815163136 0.0004807017685379833 -0.020426612347364426 -0.006177992094308138 0.0051148878410458565 -0.011623772792518139 -9.607722313376144e-05 0.004194908309727907 -0.009118356741964817 0.032108210027217865 0.0039197360165417194 0.007166761439293623 0.017393145710229874 -0.005587465595453978 0.020418589934706688 -0.028521131724119186 0.00249493564479053 0.005545260850340128 -0.015976915135979652 0.026161646470427513 -0.02226324938237667 0.019069377332925797 -0.00662663159891963 0.012960229068994522 0.034333840012550354 0.011127333156764507 0.005248279310762882 0.025088761001825333 0.017951875925064087 0.015011358074843884 0.020862581208348274 -0.020010603591799736 0.010553262196481228 -0.005518291611224413 0.026878241449594498 0.0034614535979926586 -0.0035354753490537405 0.01372069027274847 -0.004301368724554777 0.0033783852122724056 -0.03967761620879173 -0.0034938170574605465 -0.02658485807478428 0.03792593628168106 0.0340300016105175 -0.02403929829597473 -0.0014280935283750296 -0.01078758668154478 0.020901482552289963 -0.02838503010571003 0.017731070518493652 -0.0157273318618536 0.014106178656220436 -0.01783278025686741 0.007164495065808296 0.014443487860262394 0.025208592414855957 -0.0031079589389264584 -0.019232148304581642 -0.019275568425655365 0.016769129782915115 0.020050987601280212 0.027139123529195786 -0.003025128971785307 -0.013889354653656483 0.018668709322810173 0.001419495907612145 0.016883408650755882 -0.01447436772286892 -0.0356273278594017 0.004757701884955168 0.02794129215180874 -0.0017627871129661798 -0.006960542406886816 -0.009424992837011814 -0.018115170300006866 -0.047244779765605927 0.021509896963834763 0.027394860982894897 0.002228549448773265 -0.009208550676703453 0.007509057410061359 0.009563726373016834 0.03551594540476799 -0.005835289601236582 0.017711859196424484 -0.004904098808765411 -0.02004784159362316 -0.02409156784415245 0.0005390828009694815 -0.019985182210803032 0.01461276225745678 0.031682468950748444 -0.002055355114862323 0.0019946524407714605 -0.008797941729426384 -0.027714185416698456 -0.009404844604432583 0.009752435609698296 0.004814427345991135 -0.013752209022641182 0.001263556769117713 0.0031897234730422497 -0.006392560433596373 -0.028062915429472923 -0.016777120530605316 0.0060607255436480045 0.01242020633071661 0.0425860658288002 0.005562773440033197 0.012949100695550442 0.010678601451218128 0.03244181349873543 -0.0148948198184371 -0.039560042321681976 0.020007368177175522 0.027488313615322113 -0.010663148015737534 0.03430968523025513 -0.02447715774178505 0.0070634642615914345 -0.023263102397322655 -0.009585064835846424 -0.013486108742654324 -0.022542273625731468 -0.00789960753172636 -0.04680171608924866 0.04637889564037323 -0.01643839105963707 0.014918283559381962 0.014305316843092442 0.010279297828674316 -0.013605925254523754 0.013359677977859974 -0.03186788782477379 -0.006093090865761042 0.0021844645962119102 0.00858517736196518 -0.004842208698391914 0.016456061974167824 0.01921362429857254 0.0009132095729000866 -0.017140867188572884 0.030900681391358376 0.005247053690254688 -0.003659203415736556 0.02555285394191742 0.03575089946389198 -0.009199820458889008 0.007058106828480959 0.024095788598060608 0.01575455255806446 0.029464678838849068 0.008795494213700294 -0.019067302346229553 -0.02493913099169731 0.02013208717107773 -0.014310602098703384 -0.006642946042120457 0.011801746673882008 0.009790945798158646 0.020806273445487022 -0.039272744208574295 0.00880962610244751 0.006043207366019487 0.02290499396622181 -0.041068267077207565 0.007592334877699614 0.024905763566493988 0.0073534841649234295 -0.008816827088594437 0.028253719210624695 0.007105553988367319 -0.0013399519957602024 -0.023820847272872925 0.007551791612058878 -0.016155537217855453 -0.011836439371109009 -0.032485634088516235 -0.010441876016557217 -0.008531239815056324 0.008452842943370342 0.02336057834327221 -0.01352100633084774 -0.0023062494583427906 -0.001554617309011519 -0.01703290455043316 0.05526886507868767 -0.01750817708671093 -0.015571743249893188 0.055284976959228516 0.0071655320934951305 -0.003364890580996871 0.017373887822031975 -0.008096648380160332 0.00877759512513876 0.011167660355567932 -0.017290838062763214 -0.01127280667424202 -0.0018884354503825307 0.005413597449660301 0.011698666960000992 0.028693292289972305 -0.01283113844692707 -0.005129554774612188 -0.0032529369927942753 0.0428178608417511 0.006542077753692865 0.01331861037760973 0.001344688469544053 0.02640373446047306 -0.00264765415340662 -0.013355949893593788 0.016491685062646866 -0.019017791375517845 -0.006342470180243254 -0.039481084793806076 -0.008580422960221767 -0.01916777901351452 0.03757486119866371 -0.001713513513095677 0.009320776909589767 -0.0004319977597333491 0.013232838362455368 -0.012608174234628677 -0.005805394612252712 0.0075014992617070675 0.03037247061729431 0.0018103041220456362 -0.029541142284870148 -0.00822765938937664 -0.021323584020137787 -0.011319201439619064 0.0008616797276772559 0.010588704608380795 0.002530962461605668 0.010918481275439262 -0.02149585261940956 -0.018552200868725777 -0.004750548396259546 -0.007847525179386139 -0.02420745976269245 0.014361320994794369 -0.0004472291620913893 -0.017422955483198166 0.005282193887978792 -0.004238694906234741 -0.016045039519667625 -0.02401963248848915 0.0012454316020011902 0.029647542163729668 0.006651911418884993 0.04432932287454605 0.01923249661922455 0.0034038256853818893 -0.002866302616894245 0.050303246825933456 -0.006663815584033728 0.009511694312095642 -0.01444547064602375 0.00802514236420393 -0.011400619521737099 -0.012272465974092484 0.010019621811807156 0.0345952995121479 -0.037417929619550705 -0.017996134236454964 -0.03739473968744278 0.023759838193655014 0.009824153035879135 -0.02386488951742649 -0.007599405944347382 0.044121332466602325 -0.010364907793700695 0.0019050835398957133 -0.008130450733006 0.030696555972099304 0.005295297130942345 -0.008475806564092636 -0.02318435348570347 -0.017994169145822525 -0.019352396950125694 -0.011022076942026615 -0.027315840125083923 0.03649672120809555 0.006304617505520582 -0.028793107718229294 -0.02304939366877079 0.00595725467428565 -0.02671794965863228 0.009724107570946217 0.01937520131468773 -0.0009625611128285527 0.008382379077374935 -0.01761619932949543 0.004442498553544283 -0.023893306031823158 -0.031221991404891014 0.027973486110568047 -0.023701421916484833 0.01402757503092289 0.008688123896718025 -0.006125618703663349 -0.007019563112407923 0.003771218005567789 -0.012767969630658627 -0.013095863163471222 -0.0015679987845942378 0.01124302763491869 -0.019627518951892853 0.022250745445489883 0.014129988849163055 -0.03300356864929199 -0.04476120322942734 0.03746774420142174 0.01285729743540287 -0.005784244742244482 -0.005347707774490118 -0.007388978265225887 -0.030442312359809875 0.032816849648952484 0.00309789483435452 0.04195526987314224 0.015765758231282234 0.023680172860622406 -0.03025090880692005 -0.010674049146473408 0.015609546564519405 0.013095083646476269 -0.015916230157017708 -0.007950382307171822 0.019822489470243454 -0.015126699581742287 0.0298306904733181 -0.004259100183844566 -0.022637899965047836 0.0045470139011740685 -0.014903604052960873 0.004629163071513176 0.022035149857401848 -0.034487832337617874 0.018252277746796608 0.02717622183263302 -0.0033321690279990435 -0.015268169343471527 -0.009559310972690582 -0.00480589410290122 0.008302983827888966 0.020915979519486427 0.005016761366277933 -0.033129896968603134 -0.031426750123500824 0.008769223466515541 0.02360362932085991 0.02190043218433857 -0.036854054778814316 -0.014299388974905014 0.008847316727042198 -0.0050684609450399876 0.011515048332512379 -0.031753670424222946 0.008080962114036083 -0.01841743290424347 0.02333582378923893 0.003285699989646673 0.04672138765454292 0.012375504709780216 0.02803141251206398 -0.018246492370963097 0.012256034649908543 0.02293999306857586 -0.0038960473611950874 0.017835788428783417 0.009935169480741024 0.028529927134513855 -0.01913061924278736 -0.023368854075670242 -0.029413260519504547 0.01920972764492035 0.0006818627589382231 0.012630675919353962 0.03334558382630348 0.009159434586763382 0.010299645364284515 0.014454927295446396 -0.008236579596996307 0.02435425855219364 -0.002176468027755618 0.004007607698440552 -0.03558991849422455 -0.039457857608795166 -0.040742408484220505 -0.006028577219694853 -0.007036284077912569 0.024189766496419907 0.001936899614520371 0.023035813122987747 -0.03789272531867027 -0.010968190617859364 0.033760420978069305 -0.018023323267698288 -0.0012759239180013537 -0.0054970248602330685 0.004147789906710386 -0.007321340497583151 0.003213362768292427 0.0041543603874742985 0.00756717287003994 -0.002126157283782959 -0.01593027636408806 -0.017414873465895653 0.015713242813944817 0.002156758913770318 0.002949783345684409 0.01132357306778431 -0.022442147135734558 0.005867871921509504 -0.014883528463542461 0.02106400951743126 0.0034986555110663176 -0.027534324675798416 -0.009782593697309494 0.020117375999689102 -0.006849324330687523 -0.01824015937745571 -0.007003850303590298 -0.008970638737082481 -0.026529552415013313 0.026750298216938972 -0.003047858364880085 0.02807818166911602 0.036172620952129364 -0.029706360772252083 -0.018872926011681557 0.019907167181372643 0.002497601555660367 -0.020564395934343338 -0.005163884721696377 -0.027868270874023438 -0.017030885443091393 -0.0370531901717186 0.0015930220251902938 0.004790414124727249 -0.014895595610141754 -0.008770589716732502 -0.047922685742378235 -0.033589720726013184 0.03131025284528732 -0.03071492724120617 0.0037122333887964487 0.036022961139678955 -0.023220645263791084 0.030413780361413956 0.03036610782146454 0.005249409005045891 0.01023335661739111 0.005408037919551134 0.014588629826903343 -0.001122293877415359 -0.013562684878706932 0.014199608936905861 0.026575062423944473 -0.0037066952791064978 0.0017678835429251194 0.011314605362713337 -0.021131344139575958 0.012101375497877598 0.023484783247113228 -0.0044906544499099255 0.013628769665956497 0.01249166764318943 -0.008480205200612545 0.02861976996064186 0.009828398004174232 0.04030684009194374 -0.010087229311466217 0.020343832671642303 -0.00025577450287528336 0.001202901708893478 0.017087386921048164 0.005767978262156248 -0.017895948141813278 -0.03045218251645565 0.00809290912002325 -0.014248386025428772 0.009218982420861721 0.00630701519548893 -0.009939275681972504 -0.00036060120328329504 -0.02487294003367424 0.012672862969338894 0.007495707832276821 0.013171865604817867 -0.03590051829814911 0.03722784295678139 0.007078142836689949 -0.021475521847605705 0.01507757417857647 -0.016713257879018784 -0.0125657320022583 -0.005264632403850555 0.00967499054968357 0.031918834894895554 0.0005155493272468448 0.01478633750230074 0.027199842035770416 -0.010847068391740322 -0.0011020441306754947 -0.0038475156761705875 0.009462247602641582 -0.029448943212628365 0.006899585481733084 -0.005976973567157984 -0.0037293722853064537 -0.0073361643590033054 -0.025310087949037552 0.003279899014160037 -0.000668807013425976 -0.01728193461894989 0.001742163673043251 0.0073129404336214066 -0.0068159569054841995 -0.00022511578572448343 0.0056736948899924755 0.01800716668367386 -0.018012244254350662 -0.017487669363617897 0.015411577187478542 -0.04135674610733986 -0.033621035516262054 0.004414038732647896 -0.04040960222482681 0.02188616432249546 0.002381740603595972 -0.014020026661455631 0.008268960751593113 -0.002504252828657627 -0.013014927506446838 0.026094695553183556 -0.0325312614440918 -0.005583873018622398 -0.005335541907697916 -0.023177918046712875 -0.0032505039125680923 0.02839229442179203 -0.027533842250704765 -0.011581432074308395 -0.005329410545527935 0.021444570273160934 0.008854029700160027 -0.02673433907330036 0.004612219054251909 0.02360093593597412 0.011552378535270691 0.04140196740627289 -0.0015341398539021611 -0.0033480441197752953 0.006189045961946249 0.006374315358698368 0.001396827632561326 -0.009164039045572281 -0.03276779502630234 0.022908423095941544 -0.02943144552409649 0.001906188321299851 0.0029177579563111067 -0.00046100543113425374 -0.005921280011534691 0.04287074878811836 0.02583923190832138 0.017028138041496277 -0.020887380465865135 0.022151244804263115 -0.007865806110203266 0.009042991325259209 -0.015114434994757175 -0.01427614875137806 -0.005913156550377607 0.027788851410150528 -0.0354025699198246 0.02880488522350788 -0.012400394305586815 0.02138924039900303 -0.005404768977314234 -0.06417863070964813 -0.012171652168035507 0.019660381600260735 0.009312312118709087 -0.025661703199148178 0.019122933968901634 0.014329254627227783 0.016329439356923103 0.008759697899222374 -0.004639765713363886 -0.0068977028131484985 -0.014376924373209476 0.01910656876862049 0.008528454229235649 0.04144302010536194 0.011417992413043976 0.007122788578271866 -0.003390335710719228 0.012046569027006626 0.018918758258223534 0.003219268750399351 0.0019855971913784742 -0.011872262693941593 0.0215463824570179 0.026478732004761696 -0.003971484489738941 0.007054583169519901 -0.00653092609718442 -0.028308134526014328 -0.004205548670142889 0.024160992354154587 -0.0446641780436039 -0.017637155950069427 0.019551416859030724 -0.027491535991430283 0.001888126484118402 0.023676009848713875 -0.031826067715883255 -0.005268001463264227 -0.0019503646763041615 -0.023758191615343094 -0.01979898102581501 -0.016302309930324554 0.0181418564170599 0.037071336060762405 -0.002270809607580304 -0.018354766070842743 -0.036803510040044785 -0.002389568369835615 -0.015540332533419132 -0.002991312649101019 -0.004871032200753689 0.01734059303998947 -0.04424762725830078 -0.0038383416831493378 0.022123079746961594 0.025016317144036293 -0.015135379508137703 0.007003292441368103 0.015821952372789383 -0.04248097538948059 0.002963445847854018 -0.006760506425052881 0.02068442292511463 0.028902316465973854 0.008810092695057392 0.022408977150917053 -0.0018595055444166064 -0.001982626738026738 0.027625765651464462 0.01672969199717045 0.041676443070173264 0.01586061343550682 -0.009694810956716537 0.02411186508834362 0.025920063257217407 -0.0014366570394486189 0.05393571779131889 0.011175992898643017 -0.02696930430829525 -0.031389541923999786 -0.022437509149312973 -0.011939598247408867 0.003015147987753153 0.007959624752402306 0.02235649712383747 -0.02593584731221199 -0.018666313961148262 -0.03658057376742363 0.02892298251390457 -0.004996080882847309 -0.019562123343348503 -0.007783058099448681 -0.026452716439962387 -0.03163363039493561 -0.028945261612534523 0.014392309822142124 -0.0062484038062393665 0.0006860669236630201 0.027134085074067116 -0.003637413028627634 0.007541939150542021 -0.004915617872029543 -0.025744909420609474 -0.008294647559523582 0.010582993738353252 -0.04386460408568382 0.017888229340314865 0.008039158768951893 -0.018648752942681313 -0.002540391404181719 -0.004032397177070379 -0.008199726231396198 -0.016762228682637215 0.034933026880025864 0.014080327935516834 -0.021355148404836655 -0.007603583391755819 0.005454378668218851 0.0016852470580488443 0.026161398738622665 0.011438372544944286 0.017871566116809845 -0.012643192894756794 -0.028632866218686104 -0.019255323335528374 -0.01644146628677845 0.05220769718289375 0.012668854556977749 -0.0015344786224886775 -0.004395448137074709 0.016230585053563118 -0.03285690024495125 0.011947323568165302 0.02693905308842659 -0.005598604213446379 -0.004765818826854229 -0.022906646132469177 0.01412352453917265 -0.02029210887849331 -0.028461899608373642 -0.0073907021433115005 0.020927535369992256 -0.0033591818064451218 -0.0024262613151222467 -0.006199641153216362 0.014257601462304592 -0.009717706590890884 -0.01153639703989029 0.006935228127986193 -0.012177674099802971 -0.014946619980037212 -0.01962570659816265 0.04969824105501175 0.005273128394037485 -0.0007254883530549705 0.029318468645215034 0.009129366837441921 0.006381352432072163 -0.009989800862967968 0.01504455041140318 -0.06189068406820297 -0.006483620032668114 0.006519309710711241 0.00107182702049613 0.002095676027238369 -0.014752962626516819 -0.009585571475327015 -0.02150620147585869 -0.0062436810694634914 -0.0032158910762518644 -0.03569435700774193 0.03165927156805992 -0.0021582385525107384 -0.02499684877693653 -0.013896161690354347 0.0017586657777428627 -0.003745058551430702 0.01013086922466755 0.0359947644174099 -0.008173422887921333 0.014170284382998943 0.01277447585016489 -0.025046057999134064 0.015808505937457085 0.0028830799274146557 -0.014356483705341816 -0.021970223635435104 0.050945159047842026 -0.00252582598477602 0.020000876858830452 -0.005567152053117752 -0.022139670327305794 -0.011197615414857864 -0.0039083752781152725 -0.02706899866461754 -0.0072496370412409306 -0.006161038298159838 -0.01582670956850052 -0.017041409388184547 -0.00610863883048296 0.02191072329878807 -0.013759170658886433 0.024906828999519348 -0.0001338882721029222 0.03131115809082985 0.010777318850159645 -0.02015480399131775 -0.01869252510368824 0.015625327825546265 0.031197702512145042 0.020147494971752167 0.00786353088915348 0.005803254898637533 0.02585340291261673 0.004139067605137825 0.005283316131681204 0.022142721340060234 -0.015351763926446438 -0.024396926164627075 0.015129351057112217 0.015277896076440811 0.008888693526387215 0.005961835850030184 0.045248743146657944 -0.009140844456851482 0.011384338140487671 -0.00940126832574606 -0.00833105482161045 -0.018261166289448738 -0.03896439075469971 0.020960839465260506 -0.0066529507748782635 -5.4282667406369e-05 0.012868739664554596 0.010658377781510353 -0.005509753245860338 0.011508829891681671 0.01675540767610073 -0.011981900781393051 -0.009948805905878544 0.008700917474925518 0.027555646374821663 -0.03892698138952255 0.027519557625055313 0.007123343646526337 -0.014611341990530491 -0.0052469163201749325 -0.007648062892258167 -0.00846237875521183 0.024302229285240173 0.043108850717544556 0.01670219376683235 0.03487972542643547 0.005845979787409306 -0.01645132154226303 0.0058394530788064 0.00237200316041708 -0.030962089076638222 0.04257804900407791 -0.015952954068779945 0.002637947676703334 -0.01360219158232212 0.017196567729115486 0.017082056030631065 -0.03349779173731804 0.020588766783475876 0.007777034770697355 0.024131258949637413 -0.01936381496489048 -0.008267171680927277 -0.03557300195097923 -0.056007418781518936 0.0028396458365023136 0.0242080669850111 -0.0076387724839150906 -0.04774954542517662 -0.021098803728818893 -0.006853931117802858 -0.02909114770591259 -0.0012827569153159857 -0.003414193168282509 0.010559508576989174 -0.011649584397673607 0.03152025118470192 -0.03494499996304512 0.005264232400804758 -0.023455707356333733 0.03208126127719879 -0.015618975274264812 -0.015246789902448654 0.024123378098011017 0.017160112038254738 -0.0016332786763086915 0.0017717154696583748 0.00819198414683342 0.022174397483468056 -0.0052374303340911865 0.006195099093019962 -0.010291951708495617 -0.0007909092819318175 0.014974570833146572 -0.01497989147901535 0.02805810235440731 -0.005405263043940067 -0.028817156329751015 -0.012157934717833996 -0.011059054173529148 0.022333014756441116 -0.012450999580323696 -0.0286625474691391 -0.021820377558469772 -0.0020785813685506582 -0.016782497987151146 0.06481336802244186 0.004082131199538708 0.01571829617023468 0.008979236707091331 0.014904377982020378 0.03590532764792442 -0.0002882327535189688 0.0057887365110218525 0.02524258941411972 -0.020686907693743706 0.018347417935729027 -0.018820393830537796 -0.012113879434764385 0.014963047578930855 -0.015131848864257336 -0.025144502520561218 -0.008907383307814598 -0.016262540593743324 -0.0022818800061941147 -0.020744746550917625 0.013005554676055908 0.017963867634534836 0.015630420297384262 0.005816540215164423 -0.032290417701005936 0.003111446974799037 -0.00446448614820838 0.023617105558514595 0.010598878376185894 -0.022006822749972343 -0.0010158851509913802 -0.020895302295684814 0.02633402682840824 -0.01496949978172779 0.014716322533786297 0.011584989726543427 -0.008128573186695576 -0.013774390332400799 -0.004513863939791918 -0.02390693686902523 -0.019755059853196144 0.009765760973095894 -0.002908838214352727 0.015647348016500473 0.0010741384467110038 -0.008740011602640152 -0.02706640213727951 -0.016569871455430984 0.009347422979772091 -0.0045730541460216045 0.01412239484488964 0.020462187007069588 -0.008428933098912239 0.0006058972794562578 0.03751553222537041 0.024426622316241264 0.010288428515195847 0.006648612208664417 -0.00270732119679451 -0.001859958516433835 -0.006704009138047695 -0.00829374510794878 0.014287270605564117 0.010716000571846962 0.0439583957195282 -0.0058560180477797985 -0.021960590034723282 -0.013871519826352596 -0.005148554220795631 -0.018854578956961632 0.00121283286716789 -0.0007108110003173351 0.005645248107612133 0.0003077475121244788 0.013463580049574375 -0.006917983293533325 -0.0018153240671381354 0.006575540639460087 -0.011818799190223217 0.00012584190699271858 0.04198196157813072 0.018779877573251724 -0.014193461276590824 -0.00461348332464695 0.040777381509542465 0.0011397418566048145 -0.01599942520260811 0.0525759756565094 0.01566932164132595 0.012147428467869759 0.031351055949926376 -0.013209361582994461 -0.022815456613898277 -0.019460830837488174 0.007479750085622072 0.013826346024870872 0.025631161406636238 -0.0005707910167984664 0.007345993537455797 -0.00038185171433724463 0.02559381164610386 0.0117908651009202 -0.02315310575067997 0.0015569105744361877 -0.01956081949174404 0.016157129779458046 0.0017549654003232718 -0.0418783500790596 -0.015630289912223816 -0.013551076874136925 0.04188770428299904 0.005492531694471836 -0.007294315379112959 0.02038806863129139 -0.02835499495267868 -0.03828992694616318 -0.029170293360948563 0.006708165165036917 0.00627255579456687 0.03536630794405937 -0.007401212118566036 0.01187968347221613 0.02383100986480713 -0.04167139530181885 0.015571006573736668 0.029722802340984344 0.00181115185841918 0.008282814174890518 0.016943376511335373 0.005906286649405956 0.01186011079698801 0.0009138085879385471 -0.001449280302040279 -0.01245548389852047 -0.006786922458559275 0.031342484056949615 -0.008453916758298874 -0.0037804110907018185 0.0017216573469340801 -0.02058372087776661 -0.01579383946955204 0.04069114103913307 0.01917571946978569 0.008911781013011932 0.035340502858161926 -0.009191108867526054 -0.0032215567771345377 -0.013235315680503845 0.015400277450680733 -0.036733921617269516 0.030808255076408386 0.01788896881043911 -0.006908348761498928 -0.032444197684526443 0.030556777492165565 0.032393135130405426 0.060649897903203964 -0.0400984100997448 -0.040821872651576996 -0.0066014984622597694 -0.027127109467983246 -0.02921866811811924 0.020976601168513298 0.020061971619725227 -0.005502527579665184 -0.024662606418132782 0.00680702505633235 -0.004073044750839472 0.026644621044397354 0.0011628969805315137 0.01786629483103752 -0.023532330989837646 -0.006927256938070059 -0.007798378821462393 0.0177577193826437 0.018780840560793877 -0.006228195037692785 0.0104094622656703 0.024631435051560402 -0.015294001437723637 -0.0362095944583416 0.033722858875989914 0.003272912697866559 0.019150719046592712 0.03999859839677811 0.0053572081960737705 -0.006696810480207205 0.02168792486190796 -0.015993274748325348 -0.005189760122448206 -0.009012795053422451 -0.004394460003823042 0.0026903213001787663 -0.009764173999428749 -0.015093675814568996 -0.018193667754530907 0.016311394050717354 0.04337157681584358 0.0007613636553287506 0.0029392174910753965 -0.007642331067472696 -0.015315103344619274 -8.958045509643853e-05 0.026635384187102318 0.0007649945328012109 0.00881708599627018 -0.015099500305950642 -0.034536514431238174 -0.01878214254975319 0.01989888772368431 -0.02133854292333126 -0.005147920455783606 0.017318537458777428 0.008238295093178749 0.005253484472632408 0.021709207445383072 -0.0022753323428332806 -0.016506871208548546 -0.012266471982002258 -0.014413731172680855 0.004351605195552111 -0.0014308056561276317 -0.029452184215188026 0.0055990335531532764 0.022739950567483902 -0.0013296474935486913 0.03945020213723183 0.00609587924554944 -0.026030687615275383 -0.011849656701087952 -0.027051493525505066 0.03800453990697861 0.04461781680583954 -0.02078518643975258 0.004287980496883392 0.010410156100988388 0.0008209074148908257 0.020381618291139603 0.008608094416558743 -0.011209564283490181 0.012634449638426304 -0.009573575109243393 -0.009013873524963856 -0.017744729295372963 -0.00903119146823883 0.0039908383041620255 -0.027738049626350403 0.0031138104386627674 -0.010579574853181839 -0.024794679135084152 -0.005681514274328947 0.006294878665357828 0.004925449378788471 0.026280052959918976 0.03760075941681862 -0.01988842710852623 -0.020137814804911613 0.00153412448707968 0.009657461196184158 -0.005584017839282751 0.012081104330718517 0.03543344885110855 -0.005168321076780558 -0.02577226422727108 -0.020104965195059776 0.02149784564971924 -0.007818162441253662 0.03680757060647011 0.0390380397439003 -0.008078809827566147 0.005746566690504551 0.03622622787952423 0.006843745708465576 0.01086402963846922 -0.009080598130822182 -0.02465084008872509 -0.019470972940325737 -0.043055713176727295 -0.014617224223911762 -0.05718490481376648 0.010018917731940746 -0.011404640041291714 -0.0031664755661040545 0.0015087012434378266 0.012060956098139286 -0.03791305422782898 -0.014209832064807415 0.007578064687550068 0.0013823435874655843 0.030548464506864548 0.024184437468647957 -0.000902628933545202 0.036355771124362946 -0.004420722369104624 0.009954961016774178 0.027158236131072044 0.007638567592948675 0.008920862339437008 0.02229115553200245 0.033835168927907944 -0.008997823111712933 0.020746009424328804 -0.004179119598120451 -0.012916228733956814 -0.006431542802602053 0.0019496995955705643 0.0045658801682293415 0.01218177005648613 -0.008071476593613625 0.02229376882314682 0.020741388201713562 -0.03441929072141647 -0.010085102170705795 0.038234516978263855 -0.00037096950109116733 0.0013270643539726734 -0.022870482876896858 -0.007783727720379829 0.023802246898412704 -0.02836274914443493 -0.00890965573489666 -0.002355164848268032 -0.007124908734112978 -0.012011644430458546 -0.025346189737319946 -0.030285613611340523 -0.0005415236228145659 0.04427885264158249 -0.0022407500073313713 0.021557576954364777 0.021902112290263176 0.011510719545185566 -0.017565671354532242 -0.019414100795984268 -0.025292085483670235 -0.021245228126645088 0.012645377777516842 0.04429235681891441 -0.015795035287737846 -0.027008652687072754 0.04303859546780586 -0.034190043807029724 0.029157670214772224 -0.027222732082009315 0.029960935935378075 0.002023368841037154 0.006357724778354168 -0.008139685727655888 0.004312034696340561 0.00390099105425179 -0.009968588128685951 0.010539774782955647 -0.009020504541695118 0.007485134061425924 0.021919604390859604 0.012529429979622364 0.016930125653743744 -0.012958666309714317 0.0010573728941380978 0.016677074134349823 0.03117796778678894 -0.00026913548936136067 0.017335273325443268 -0.006358178332448006 -0.013455254025757313 0.033626604825258255 0.016182100400328636 -0.006760906893759966 -0.006087253801524639 -0.02158515714108944 -0.004755276720970869 -0.02908039465546608 0.017383702099323273 0.008387304842472076 -0.026433467864990234 -0.020983673632144928 -0.024597790092229843 -0.0014611114747822285 0.04284033179283142 0.009414911270141602 -0.004094122909009457 0.03511747345328331 -0.017708569765090942 0.00959087535738945 -0.03774811327457428 -0.01933596096932888 0.009010178968310356 -0.04075638949871063 0.021099433302879333 0.031224530190229416 -0.007011996582150459 -0.020088326185941696 0.019954703748226166 0.006791001185774803 -0.015314162708818913 -0.01930752769112587 0.043572064489126205 -0.0038884312380105257 -0.018204836174845695 -0.0022025357466191053 0.04729181528091431 0.015993626788258553 -0.022001810371875763 0.0087814312428236 -0.003355141030624509 0.02229764126241207 -0.016593843698501587 -0.043358754366636276 0.017017066478729248 -0.006872560828924179 -0.020362960174679756 -0.00188673404045403 0.001682331901974976 0.010466977953910828 -0.015308978967368603 -0.037957046180963516 0.03253146633505821 -0.011130108498036861 0.018245719373226166 -0.014121463522315025 0.01128917746245861 -0.012758168391883373 -0.02950086072087288 -0.01804380677640438 0.011643155477941036 -0.002340670209378004 0.0022989739663898945 0.03011731244623661 -0.003933896776288748 -0.03732986003160477 0.015343909151852131 0.01534066628664732 0.0022576837800443172 -0.014253819361329079 -0.01403962541371584 -0.01587877981364727 0.007192709948867559 0.014175825752317905 0.016827573999762535 -0.00971956830471754 -0.02589854970574379 -0.008406808599829674 0.029218485578894615 -0.01074831373989582 -0.008033445104956627 0.03103512153029442 -0.005133789032697678 -0.01461317390203476 0.0029986866284161806 -0.02588893473148346 -0.0005940375849604607 -0.0010054116137325764 -0.015015755780041218 -0.022427421063184738 0.008646326139569283 0.021280379965901375 0.02718307636678219 0.01781480759382248 0.0014723282074555755 0.008784603327512741 0.020338069647550583 -0.000547881587408483 0.005587148945778608 0.009884689003229141 0.010778021067380905 -0.030130669474601746 0.0034862379543483257 0.00795903243124485 -0.011354264803230762 0.007597967516630888 -0.013966557569801807 0.002606377936899662 -0.005572904832661152 -0.015293979085981846 -0.014977987855672836 -0.007969462312757969 -0.010502642951905727 0.00795874372124672 -0.015005053021013737 -0.028526926413178444 -0.007060416974127293 0.04048778489232063 0.0491933673620224 0.010626367293298244 0.006765406113117933 -0.0016845432110130787 -0.04255266115069389 -0.02068842016160488 -0.020357009023427963 -0.004691459704190493 -0.0166500061750412 0.018857326358556747 -0.007541112136095762 -0.001284862752072513 -0.015344265848398209 0.01552059780806303 0.024852536618709564 0.02143544703722 0.02239023707807064 0.008352894335985184 -0.004561487585306168 -0.03789370879530907 -0.02347450703382492 -0.005061738658696413 -0.015914689749479294 0.02398165874183178 0.0014661187306046486 -0.019581127911806107 0.020201409235596657 0.014962653629481792 0.014920206740498543 0.0003305332502350211 0.0006203994853422046 0.02197978086769581 -0.021221235394477844 -0.009275989606976509 0.0021571137476712465 -0.01533835381269455 0.03797004371881485 -0.0015700010117143393 -0.0014250308740884066 -8.667208021506667e-05 -0.02156350389122963 0.027358395978808403 -0.026186877861618996 -0.013421302661299706 0.0003817646356765181 0.034576088190078735 -0.01770554855465889 -0.025737205520272255 -0.027685001492500305 0.01803957298398018 -0.014922886155545712 -0.01852557063102722 -0.0017754409927874804 0.03627372160553932 -0.00225613615475595 -0.021326184272766113 -0.03188265860080719 0.017444565892219543 -0.00830184854567051 0.0020949135068804026 -0.007403155788779259 -0.008765523321926594 0.01346792746335268 -0.007868343032896519 0.04106182977557182 0.007780318148434162 0.01404597144573927 0.0173623189330101 0.0024386493023484945 0.024624468758702278 0.014919067732989788 -0.0025316812098026276 -0.0033158843871206045 -0.008168361149728298 -0.044317811727523804 -0.007033536210656166 0.025180131196975708 -0.006425641477108002 -0.0029072072356939316 -0.013675387017428875 -0.03173080086708069 0.019576895982027054 0.04468560591340065 -0.0015254360623657703 -0.011123646050691605 0.02680431306362152 -0.01900804042816162 -0.039759207516908646 0.000650789646897465 -0.03277979791164398 0.004986358806490898 -0.014471990056335926 -0.006094376090914011 -0.012010215781629086 -0.04884166643023491 0.014023598283529282 -0.025994922965765 0.02363995648920536 0.009186239913105965 -0.003417128697037697 -0.011357364244759083 -0.015403862111270428 0.0014234618283808231 -0.0017120799748227 -0.012232395820319653 -0.009397581219673157 -0.027186142280697823 -0.025252660736441612 -0.017701836302876472 -0.017668621614575386 0.006202533841133118 0.03860350698232651 -0.03404330834746361 0.024972878396511078 0.0006729958695359528 -0.025550486519932747 -0.011404920369386673 -0.007150738034397364 0.00925001036375761 -0.0054893470369279385 -0.005244141910225153 -0.032594189047813416 -0.017261646687984467 -0.010499768890440464 -0.022370340302586555 -0.0069637056440114975 0.0024291519075632095 0.014300801791250706 0.00024048668274190277 0.022214673459529877 -0.002657475182786584 0.02083010785281658 -0.0064924913458526134 -0.027083052322268486 0.008432522416114807 0.006200818344950676 -0.008309951052069664 0.013741620816290379 -0.020241020247340202 -0.01866014674305916 0.021650157868862152 0.002941381884738803 0.013977278023958206 0.0036945040337741375 0.005834709387272596 0.0004993341863155365 -0.0038104683626443148 0.00485249375924468 -0.0021565661299973726 0.012262201867997646 0.023569775745272636 0.021465204656124115 0.013652567751705647 -0.01614345610141754 -0.0010966680711135268 -0.004052596632391214 0.01790035329759121 0.002803180832415819 -0.02460731565952301 0.0500415600836277 -0.0018845043377950788 0.00018397517851553857 -0.004629224073141813 0.03829384595155716 -0.0060172658413648605 0.02358873374760151 0.011446977034211159 0.0011250015813857317 0.017071492969989777 -0.004070647526532412 0.00879690796136856 0.02346792258322239 0.040199726819992065 0.02236669510602951 -0.03194669261574745 0.0020309919491410255 -0.039596568793058395 0.009975520893931389 0.03771311417222023 0.009340748190879822 0.016716253012418747 -0.017894288524985313 -0.019857190549373627 -0.005721823778003454 0.030004436150193214 0.016200784593820572 0.0013299926649779081 0.016120487824082375 0.020434191450476646 0.01190162356942892 -0.0031853667460381985 0.0015617894241586328 -6.263329123612493e-05 -0.01981396973133087 -0.007949223741889 0.0020462677348405123 -0.014868825674057007 -0.02296438068151474 0.025320271030068398 -0.0005166013143025339 -0.014580989256501198 0.006638915278017521 0.027008647099137306 -0.017999447882175446 -0.0341983363032341 0.00011194472608622164 0.010223974473774433 0.011540007777512074 0.0031456383876502514 -0.03241390734910965 -0.0245562344789505 -0.02489130198955536 0.01624266803264618 -0.018300354480743408 -0.014042112976312637 -0.007330662105232477 -0.011323980055749416 0.0073534706607460976 0.003440211759880185 -0.01548661570996046 0.013765967451035976 -0.023499680683016777 0.025135044008493423 0.035604409873485565 -0.002773167099803686 0.00727981748059392 0.03574459254741669 0.0018737330101430416 0.007799953687936068 -0.006741808727383614 0.004270163830369711 -0.002758895745500922 -0.00011404421820770949 -0.022023992612957954 0.04282662644982338 0.012113991193473339 0.019809246063232422 -0.017882002517580986 0.005394672509282827 0.014801682904362679 0.007402475923299789 0.0003636983747128397 -0.028235401958227158 -0.008127912878990173 0.0052130077965557575 -0.029771488159894943 -0.0028083554934710264 0.02909560687839985 0.014932560734450817 -0.00034444997436366975 0.015641173347830772 9.449912613490596e-05 0.007914521731436253 -0.009202325716614723 0.0409344881772995 0.006590128876268864 0.02839089371263981 -0.024330029264092445 0.005632615182548761 -0.026462946087121964 0.003418635344132781 0.016986433416604996 -0.04447929188609123 0.012023944407701492 0.002522950991988182 -0.0115226274356246 0.010491712018847466 -0.02489962987601757 0.009676492772996426 0.020775362849235535 -0.023142443969845772 0.004546857438981533 0.017749885097146034 0.00892169214785099 -0.012854518368840218 0.0224362313747406 0.026507895439863205 -0.016202755272388458 0.01585402525961399 -0.005524220410734415 0.04525618255138397 0.039363402873277664 -0.0016372248064726591 -0.036600079387426376 -0.00879689585417509 -0.009575805626809597 -0.03174350783228874 0.017598427832126617 0.0019127184059470892 0.04187244921922684 0.0021753902547061443 -0.012963175773620605 0.0009323343983851373 -0.02593565359711647 0.00564760435372591 -0.0205965768545866 0.005557982716709375 -0.007153612561523914 -0.026794414967298508 0.012103645130991936 0.022015171125531197 0.006293967831879854 0.019111542031168938 -0.005720582790672779 0.00878326315432787 -0.010765674524009228 0.04515113681554794 -0.01140808779746294 -0.016288872808218002 -0.03990168124437332 0.011670581996440887 0.006832726765424013 0.001553572597913444 0.013884294778108597 0.0205537062138319 0.0008743845974095166 0.035295598208904266 -0.008785980753600597 -0.009820600040256977 0.00415025232359767 -0.027497829869389534 0.005579967051744461 0.0104525750502944 0.020585138350725174 -0.016461996361613274 0.02326413430273533 -0.0006771499174647033 0.0076417019590735435 -0.0372152253985405 0.041606344282627106 -0.00035447636037133634 -0.013758032582700253 0.00010737193224485964 -0.041011467576026917 -0.00053866469534114 -0.016037462279200554 -0.007945459336042404 0.01919083297252655 0.011987773701548576 -0.010739696212112904 -0.025062890723347664 -0.012184333056211472 0.0451151467859745 0.018374504521489143 -0.0005346090183593333 0.004377839155495167 -0.00523277698084712 0.027355298399925232 0.014707924798130989 0.032430246472358704 0.011896971613168716 -0.015748541802167892 0.008405232802033424 -0.0027041896246373653 -0.01121468935161829 0.0012323835399001837 0.0370975136756897 -0.006430912762880325 -0.008776195347309113 -0.0037032156251370907 0.011712878942489624 0.002501315902918577 -0.0009163187933154404 0.01304989866912365 0.00387962581589818 -0.03003869764506817 -0.01980685442686081 0.006267893128097057 -0.05530734360218048 -0.016051137819886208 -0.0036775609478354454 -0.015729211270809174 0.0019801801536232233 -0.028188513591885567 -0.022981952875852585 -0.012383237481117249 -0.0164075568318367 0.03129936009645462 -0.0037621785886585712 0.007498743012547493 -0.007207573391497135 -0.017018558457493782 0.04360218718647957 0.003932677675038576 0.010396004654467106 0.0013447958044707775 -0.0005158440908417106 0.022219380363821983 -0.004482378251850605 -0.002250390825793147 -0.03277924656867981 0.017199233174324036 -0.010327544063329697 0.03210923448204994 0.01488193217664957 -0.0023499843664467335 -0.04767380282282829 0.027802947908639908 0.008683566935360432 -0.020532123744487762 0.01600297912955284 -0.0064260042272508144 -0.019415194168686867 -0.03213716298341751 -0.0501062348484993 -0.01982353813946247 0.009271063841879368 -0.038503531366586685 0.00019457173766568303 -0.002679231343790889 0.014297670684754848 -0.030697079375386238 0.02149205468595028 -0.024599429219961166 -0.042300768196582794 -0.015306568704545498 0.003884069388732314 0.02360439859330654 -0.02591557987034321 -0.016277261078357697 -0.014379735104739666 -0.02047848142683506 -0.018014531582593918 -0.001776869292370975 -0.06794434785842896 0.025248540565371513 -0.025149142369627953 -0.013433846645057201 -0.013292992487549782 -0.01804899238049984 0.02837863378226757 0.017065415158867836 0.021648263558745384 0.004046219401061535 0.01839429698884487 -0.03196467459201813 -0.027393503114581108 -0.040593210607767105 -0.01892506144940853 0.026360204443335533 0.013896089047193527 -0.005308566614985466 0.009069669060409069 0.006473977584391832 0.010763168334960938 -0.013833718374371529 0.01395607553422451 -0.021933062002062798 0.007988383062183857 0.003494392381981015 0.01899307779967785 -0.005388803780078888 0.03669559583067894 0.02226193994283676 0.01351559441536665 0.008719525299966335 0.02379029616713524 0.04899078235030174 -0.012861482799053192 -0.007379079703241587 -0.0018067567143589258 0.021903499960899353 0.01725323684513569 0.0499819815158844 -0.04939918592572212 0.0007336107082664967 0.017933426424860954 0.0032060137018561363 -0.00711336825042963 0.03853006288409233 -0.010074486956000328 -0.002392590045928955 0.032687585800886154 0.011488428339362144 -0.020322630181908607 0.006144326645880938 -0.0015120405005291104 0.007257785648107529 0.030222758650779724 0.022338878363370895 0.009700984694063663 -0.006365305278450251 0.02193029224872589 0.004644847009330988 0.04178646206855774 -0.01835971139371395 0.002538965316489339 -0.004903331398963928 0.007361290045082569 0.024155976250767708 -0.025607682764530182 0.020122194662690163 0.02958531863987446 -0.017383530735969543 0.003879124764353037 -0.0038391246926039457 -0.021744541823863983 0.003024714533239603 -0.03875702992081642 -0.021732011809945107 -0.0015123938210308552 0.049442000687122345 -0.01951228640973568 -0.022992419078946114 0.01574697718024254 0.0034775803796947002 -0.013441606424748898 -0.0011671839747577906 0.008028855547308922 -0.02430752106010914 -0.011446305550634861 -0.019502850249409676 0.014078967273235321 0.011510421521961689 0.02186611108481884 -0.03302247077226639 0.03384384140372276 0.008260779082775116 0.01575043983757496 0.010524862445890903 0.03816987946629524 -0.0020912662148475647 0.018096856772899628 0.011022531427443027 0.02525978349149227 0.004163672216236591 -0.032144900411367416 -0.005353010259568691 -0.009113780222833157 -0.014641144312918186 0.029223131015896797 -0.029311727732419968 0.03335706517100334 0.05876144766807556 -0.03777845576405525 0.02393021620810032 -0.018830791115760803 -0.028972582891583443 0.02505410462617874 0.013082116842269897 0.005014406982809305 0.002795530017465353 -0.011963478289544582 -0.011996314860880375 0.01299212034791708 0.007539969403296709 -0.009279754012823105 -0.016496334224939346 0.005233408883213997 -0.016094598919153214 0.03281500190496445 -0.01815733127295971 -0.023921847343444824 0.02442850172519684 0.016725871711969376 0.006771202199161053 -0.02504980005323887 -0.0227501317858696 0.018294742330908775 0.010076711885631084 0.03807644546031952 0.026833951473236084 -0.008365846239030361 -0.020265843719244003 0.04801538214087486 0.03906795755028725 -0.008899545297026634 0.0030762762762606144 0.016820412129163742 -0.0058265733532607555 0.04220307245850563 -0.01131435576826334 0.005116201005876064 0.016528841108083725 -0.015710052102804184 -0.021642500534653664 -0.032470375299453735 0.002439552452415228 0.0007797642610967159 0.00716955354437232 -0.000724846962839365 0.015406984835863113 0.007576839067041874 0.017541365697979927 -0.027156807482242584 0.004962594714015722 0.016572685912251472 -0.0189178679138422 0.01265194546431303 -0.005434882827103138 0.005098035559058189 0.012495958246290684 0.050368160009384155 0.02492043934762478 0.008781139738857746 -0.019802987575531006 0.017364542931318283 0.06560423225164413 0.02125483751296997 0.00959985051304102 0.017813969403505325 -0.00368959316983819 -0.005275567062199116 0.008714091964066029 0.011340668424963951 0.010251306928694248 -0.031363632529973984 0.024813221767544746 -0.04070110619068146 0.00801679864525795 -0.00047135152271948755 -0.005142988637089729 -0.019401654601097107 -0.0294764656573534 0.003983367700129747 -0.0031714250799268484 -0.001985246315598488 -0.027714824303984642 0.005224743392318487 0.04009717330336571 -0.016616256907582283 -0.030921492725610733 0.004604259971529245 0.03358513116836548 -0.026427004486322403 -0.011452404782176018 -0.0020776293240487576 -0.006458241026848555 0.007034257985651493 0.02577674388885498 0.025683557614684105 -0.0030478204134851694 0.01133295800536871 -0.040907420217990875 0.03452938050031662 -0.01602301001548767 0.02839367464184761 -0.003290219232439995 0.0029976314399391413 0.001027762540616095 -0.013182489201426506 0.025325821712613106 -0.001057224697433412 0.01090735662728548 0.01600062847137451 0.020664364099502563 -0.017925117164850235 -0.02785569243133068 -0.02071043662726879 0.020733753219246864 0.0018074513645842671 -0.009755668230354786 0.014582381583750248 0.01530366949737072 0.0019410187378525734 0.011815974488854408 -0.015155111439526081 -0.023634886369109154 -0.02813839353621006 0.0031081929337233305 -0.0112307108938694 -0.0013826866634190083 -0.03629404678940773 0.020480455830693245 -0.006994477938860655 0.004315643571317196 0.00921908300369978 0.01162919495254755 -0.048444680869579315 0.01506574172526598 0.015227751806378365 0.0133651252835989 -0.016786344349384308 -0.013861793093383312 0.040422189980745316 -0.0007197117665782571 -0.01839432120323181 -0.01927759312093258 0.00030963431345298886 -0.03242824226617813 -0.014034160412847996 0.007449265569448471 0.016707567498087883 0.007359261624515057 -0.010914591141045094 -0.0246465802192688 -0.004627874121069908 -0.03570648655295372 -0.006388426758348942 -0.016046475619077682 0.014823522418737411 0.0028253854252398014 -0.02474881336092949 0.01706685870885849 0.02810819074511528 -0.016086429357528687 0.01490435004234314 0.02638913318514824 -0.009645594283938408 -0.0032510447781533003 0.003516355762258172 0.013306430540978909 0.031069060787558556 0.003593439469113946 0.020525207743048668 -0.0006947902147658169 0.00446562422439456 0.002815143670886755 0.05036970227956772 0.008908511139452457 0.004606673959642649 -0.016637036576867104 0.018634743988513947 -0.001565649756230414 0.04963058605790138 -0.02072853036224842 -0.0062446692027151585 0.015633607283234596 -0.017630651593208313 -0.02077995054423809 -0.03708699718117714 -0.025316854938864708 -0.015558330342173576 -0.025134965777397156 0.011151065118610859 0.017369840294122696 0.014660435728728771 0.051600441336631775 -0.008782492019236088 -0.005045535042881966 -0.0022661734838038683 -0.002144553931429982 0.0002182421158067882 0.00965681578963995 -0.010090526193380356 0.0074965013191103935 -0.0011329611297696829 -4.047292532050051e-05 -0.020687144249677658 -0.022633621469140053 0.007155975792557001 -0.014714663848280907 0.011281982995569706 -0.043865811079740524 -0.02404821664094925 -0.03681249916553497 -0.024211853742599487 0.027157161384820938 -0.0181999783962965 0.014625761657953262 -0.009311290457844734 0.007889955304563046 -0.02138690836727619 0.02083112671971321 -0.016807086765766144 0.008768122643232346 -0.00778138218447566 -0.04060227796435356 0.006044537294656038 0.0023934701457619667 -0.015614958480000496 0.0015549472300335765 0.019055133685469627 0.0025078621692955494 -0.02736744098365307 -0.038739606738090515 -0.004848618991672993 0.02075139433145523 -0.030284639447927475 0.0027131829410791397 0.007772092707455158 -0.02426622435450554 -0.011556874960660934 -0.010889281518757343 0.013590929098427296 0.005734479986131191 -0.04318870231509209 0.021874215453863144 0.013839136809110641 -0.011960198171436787 -0.03383389860391617 0.025363897904753685 0.008814973756670952 0.02660459838807583 0.0002763515221886337 -0.024531258270144463 0.03229985386133194 -0.001288037863560021 -0.010231046006083488 -0.034238964319229126 -0.008760686963796616 0.0382142998278141 -0.017604533582925797 -0.0020186142064630985 -0.010807188227772713 -0.024238359183073044 -0.012910581193864346 -0.003347620368003845 -0.005173989571630955 -0.0003283696423750371 0.04433122277259827 0.0326436422765255 -0.01603066548705101 0.024548687040805817 -0.004557953681796789 -0.012286107055842876 -0.011240337044000626 -0.016206391155719757 0.00686706742271781 0.0025893845595419407 -0.00696556456387043 -0.002381116384640336 -0.030558748170733452 -0.0061505502089858055 0.003502800129354 -0.013972705230116844 0.009321586228907108 -0.03460782766342163 0.003667903132736683 -0.014926102012395859 0.020084429532289505 0.025340238586068153 -0.014110464602708817 -0.009742642752826214 0.011254534125328064 -0.0049134111031889915 0.00813412293791771 -0.014767112210392952 0.023730246350169182 0.01423416193574667 0.01747279241681099 0.015716250985860825 -0.007722839247435331 0.009418618865311146 0.01063841488212347 -0.018682846799492836 0.015303323045372963 -0.05071849375963211 -0.02489069662988186 -0.002552006160840392 0.011596607975661755 0.012101993896067142 0.002787069184705615 -0.0004161992110311985 -0.01615970954298973 -0.013988186605274677 0.02211768366396427 -0.011459472589194775 0.023274829611182213 0.030679699033498764 0.0042046671733260155 0.014459894970059395 0.014415467157959938 0.029403649270534515 -0.01188024040311575 -0.0010140517260879278 0.0037960598710924387 -0.0108005590736866 0.0431327186524868 0.022484680637717247 -0.0030528311617672443 0.000844721682369709 -0.0038108318112790585 0.024177774786949158 0.03564436733722687 0.0044662244617938995 0.041212048381567 -0.01892464980483055 0.03466462716460228 0.02303861267864704 0.027277274057269096 -0.005846763961017132 0.008961602114140987 0.015919728204607964 -0.015875890851020813 -0.010245343670248985 0.00936184823513031 -0.011861290782690048 -0.0045480201952159405 -0.014776828698813915 0.006865271832793951 0.013366191647946835 0.007075986359268427 -0.0024190491531044245 0.010587368160486221 0.035372473299503326 -0.001413075253367424 0.02643219754099846 0.03338763862848282 0.010760389268398285 0.053145818412303925 0.018747061491012573 0.017932308837771416 0.016095386818051338 -0.0006558903842233121 -0.011751863174140453 -0.0018293465254828334 0.016435762867331505 0.010119135491549969 0.005922241602092981 -0.009144671261310577 -0.02259914018213749 -0.022624071687459946 -0.024371828883886337 -0.0026779910549521446 -0.026629863306879997 -0.011911759153008461 0.018741510808467865 0.03174588084220886 0.018998533487319946 -0.0009807087481021881 -0.004592082463204861 0.034690506756305695 -0.010183211416006088 -0.03593437746167183 -0.03247202932834625 0.01679631508886814 0.025548888370394707 0.015813779085874557 -0.0017668252112343907 -0.030237630009651184 -0.0017759654438123107 -0.03920568898320198 -0.0013104459503665566 0.043580953031778336 -0.021855687722563744 -0.00787960272282362 0.03254922851920128 -0.0283194687217474 -0.03437069058418274 0.012213717214763165 0.0017701018368825316 -0.003302860539406538 -0.02145916223526001 0.02993452362716198 -0.011680169962346554 -0.019881457090377808 -0.001350013306364417 0.03585580363869667 -0.03391817584633827 -0.0009764518472366035 -0.043415047228336334 0.015250945463776588 0.005921035073697567 -0.0027518754359334707 -0.008878130465745926 0.004722458776086569 0.011171954683959484 0.015208286233246326 0.02110353112220764 0.01977473683655262 0.020923586562275887 -0.01734650507569313 0.03876110538840294 0.010643770918250084 -0.013321250677108765 0.051115717738866806 -0.0013377743307501078 -0.01769523322582245 -0.006435620132833719 -0.022623440250754356 -0.014360671862959862 -9.838635014602914e-05 -0.017664214596152306 -0.003911345731467009 0.016701148822903633 0.03553999215364456 0.00312978308647871 0.01637868396937847 0.03122626803815365 -0.025733543559908867 0.010396303609013557 -0.03931312635540962 0.0064431456848979 0.01781698688864708 -0.029599634930491447 -0.01650961861014366 -0.031101064756512642 -0.026544352993369102 0.03483101353049278 0.056970320641994476 0.028597824275493622 0.02036546915769577 0.006822178140282631 -0.003725110786035657 -0.021517952904105186 0.0032094644848257303 0.003578233066946268 0.005115060601383448 -0.00038162933196872473 -0.020655877888202667 -0.04091532900929451 0.01097472757101059 0.014119389466941357 0.006360071245580912 -0.0008616847335360944 -0.03509121388196945 -0.0016315164975821972 0.025165079161524773 -0.0009025023318827152 0.018127210438251495 0.03639134019613266 0.012499147094786167 -0.025797562673687935 -0.008913814090192318 -0.028973989188671112 0.003513240721076727 -0.00492456741631031 -0.013677980750799179 -0.0040510292164981365 0.010032414458692074 -0.010479139164090157 -0.007077474612742662 0.03737054020166397 -0.008331086486577988 -0.016284480690956116 -0.004141575191169977 0.0055274576880037785 -0.034545645117759705 0.010702580213546753 -0.025011474266648293 0.026620522141456604 -0.017002278938889503 0.010057772509753704 0.021048251539468765 0.00298672984354198 -0.029993215575814247 0.026108765974640846 -0.014471751637756824 -0.03647254407405853 0.0100523941218853 0.0010412598494440317 -0.011772923171520233 -0.0006379630649462342 0.0016403975896537304 -0.023939626291394234 0.023781444877386093 0.010120941326022148 -0.014186867512762547 0.008456905372440815 0.01562531292438507 -0.01911204680800438 -0.008595431223511696 -0.02253054641187191 -0.01288080494850874 0.02993791177868843 0.026129858568310738 -0.0400877483189106 -0.03042219579219818 -0.02928469143807888 -0.0027306692209094763 -0.0020751184783875942 -0.013570504263043404 0.005414290353655815 0.009346453472971916 0.007462953217327595 0.00660029798746109 -0.0009829608025029302 -0.0261810515075922 0.019315650686621666 -0.01625598594546318 -0.009699802845716476 -0.028714442625641823 0.0039526489563286304 -0.01436422299593687 0.010508190840482712 0.008476910181343555 -0.007386684883385897 0.004648016765713692 0.018886473029851913 0.002713942900300026 0.005179259926080704 0.0147554287686944 -0.0036421939730644226 -0.016239898279309273 -0.004699942655861378 0.003385578515008092 0.05995135009288788 0.007238247897475958 -0.012718718498945236 0.009050813503563404 0.017267847433686256 -0.00440191337838769 0.008830364793539047 0.0233683530241251 0.051305003464221954 0.004467409569770098 0.005109424237161875 -0.026413679122924805 0.0056943129748106 0.03545683994889259 -0.019617632031440735 0.024313265457749367 0.013857124373316765 -0.014053421095013618 -0.008237849920988083 -0.0028974954038858414 0.011372223496437073 -0.009240789338946342 -0.050218772143125534 0.009296927601099014 0.051519934087991714 -0.002131389919668436 0.0002845235576387495 -0.010216828435659409 0.03085464797914028 0.008193975314497948 -0.0052603199146687984 0.01492181047797203 0.021201426163315773 0.012506289407610893 0.0023775713052600622 -0.03449278697371483 0.039094749838113785 0.021641476079821587 0.004374098032712936 -0.00850020069628954 -0.007277855183929205 -0.04106630012392998 0.012797578237950802 -0.003726521972566843 -0.010517001152038574 -6.238725472940132e-05 0.023028051480650902 -0.029038606211543083 -0.003530627815052867 0.005815235432237387 -0.008065304718911648 0.013924228958785534 -0.0014149424387142062 0.019563764333724976 0.026277273893356323 0.0017199697904288769 -0.007046401035040617 0.006058716680854559 -4.0420516597805545e-05 -0.009180677123367786 -0.00892674271017313 0.026631921529769897 -0.028646394610404968 -0.024261949583888054 0.058110062032938004 -0.012157007120549679 0.028432566672563553 0.007248288486152887 -0.05880153179168701 0.00895780511200428 0.03253215178847313 0.01182902604341507 -7.019088661763817e-05 0.0013785258634015918 -0.04509129747748375 -0.01664753630757332 0.0028022408951073885 0.00429067388176918 -0.013952969573438168 0.01944749616086483 -0.005019123200327158 -0.026280274614691734 0.007257419638335705 0.005850253161042929 -0.008714200928807259 0.022373681887984276 -0.00942334346473217 -0.010988375172019005 0.021178094670176506 -0.031186185777187347 -0.039395883679389954 -0.020849784836173058 0.014830440282821655 -0.003961246460676193 -0.00888410396873951 0.004491988569498062 0.035817813128232956 0.038713496178388596 0.01009421981871128 0.02937800996005535 -0.013931325636804104 0.05942679941654205 0.005767837632447481 -0.004994312301278114 0.016400745138525963 0.0172665324062109 0.007645500358194113 -0.004962895531207323 0.01606743037700653 0.01615462265908718 0.019871005788445473 0.02461099810898304 -0.005401964765042067 0.01065774168819189 0.006064750719815493 0.034540805965662 -0.017108410596847534 0.002165087964385748 -0.010286831296980381 0.028071843087673187 0.013419853523373604 0.007976654917001724 0.00744168646633625 0.035410407930612564 0.026984592899680138 0.013898955658078194 -0.0019267948810011148 -0.002850193530321121 0.04180406406521797 -0.024229392409324646 0.0006994206923991442 -0.0023858181666582823 -0.0349687859416008 -0.013803110457956791 0.015711961314082146 -0.01186295598745346 0.009360108524560928 0.02991713024675846 0.007196641992777586 -0.004802708048373461 -9.158763714367524e-05 0.0009730566525831819 -0.025242317467927933 0.02387194149196148 -0.03488115593791008 -0.035513076931238174 -0.022497354075312614 -0.019907867535948753 0.027314795181155205 -0.010640015825629234 -0.013516062870621681 -0.0058199274353682995 -0.006055060774087906 0.007326336577534676 -0.01797531358897686 0.007507713511586189 -0.035876400768756866 0.010360569693148136 0.019855856895446777 0.013225720264017582 0.028914986178278923 0.021042216569185257 -0.00584800448268652 -0.01506897434592247 -0.03522103652358055 0.032425347715616226 -0.0009346334263682365 -0.005371021572500467 -0.012464742176234722 -0.002239314140751958 -0.01778465323150158 -0.0230411309748888 0.04602314159274101 0.017280183732509613 0.013636155053973198 -0.012451591901481152 -0.01645538955926895 0.008777700364589691 0.02617194876074791 0.06999621540307999 0.020677687600255013 -0.0034300037659704685 -0.011745945550501347 0.02440119907259941 0.004738511051982641 -0.02797204628586769 0.013897332362830639 0.010445719584822655 -0.0045761531218886375 -0.0006893964018672705 -0.03264801949262619 0.04570348933339119 0.04857134446501732 0.021116990596055984 -0.0023843266535550356 -0.02831459790468216 -0.040624745190143585 -0.01440661121159792 -0.012348642572760582 0.026674313470721245 -0.0007078605704009533 0.00163462501950562 0.032754622399806976 0.00754650728777051 -0.013138661161065102 -0.027149802073836327 -0.011315211653709412 -0.03317103907465935 -0.00800254475325346 0.0036758333444595337 -0.017343854531645775 -0.0031726222950965166 0.011692315340042114 0.03381037339568138 0.010020106099545956 0.019752491265535355 -0.01696721464395523 0.007278086617588997 -0.05122055858373642 -0.0010741240112110972 0.003170254873111844 -0.02862435393035412 -0.006895797327160835 0.04550836980342865 -0.000825610535684973 -0.02024826779961586 -0.014908098615705967 -0.02557450905442238 0.017608143389225006 0.005762155633419752 0.015164951793849468 -0.037399277091026306 0.04138505831360817 0.011397548951208591 -0.007246203720569611 0.0021400023251771927 0.011142930947244167 -0.002017214195802808 -0.01861211098730564 -0.009985104203224182 -0.015728866681456566 0.02100936509668827 0.0021665345411747694 0.0005753040313720703 -0.025554144755005836 0.021152673289179802 0.020815245807170868 0.02402508817613125 -0.030809592455625534 0.015428254380822182 0.0336182676255703 0.016895301640033722 0.035894643515348434 0.007863097824156284 -0.004837785381823778 0.028291955590248108 -0.012526010163128376 0.005854571238160133 0.011981445364654064 -0.022175494581460953 -0.009446448646485806 -0.00253645540215075 -0.012838157825171947 0.007344247307628393 -0.009685122407972813 0.02245243266224861 0.003849068423733115 0.01665804535150528 0.01724284514784813 0.025238053873181343 0.02804281935095787 0.017422541975975037 0.006681079510599375 -0.01458485797047615 0.030283834785223007 -0.014578348025679588 0.024249842390418053 -0.022522566840052605 -0.013154496438801289 -0.01726740226149559 -0.005836623255163431 0.0030565657652914524 -0.0042688581161201 -0.005878389347344637 0.0051215155981481075 0.016090152785182 -0.002659860299900174 0.05816834792494774 -0.008283923380076885 0.013580111786723137 0.017895324155688286 0.01140867080539465 -0.014481302350759506 0.015438366681337357 0.00817370880395174 0.005345901008695364 0.01074737124145031 0.007381007075309753 -0.02843724936246872 0.04196876287460327 -0.008431741036474705 0.047750912606716156 0.024304382503032684 0.0022810865193605423 -0.025688033550977707 0.04364833980798721 0.0022882611956447363 -0.0022968724370002747 -0.002888828283175826 0.02647061087191105 0.025809243321418762 0.025928257033228874 0.010371644981205463 -0.011586736887693405 -0.029846834018826485 0.008778000250458717 