0.07474464178085327 0.11165278404951096 -0.06116574630141258 -0.04871152341365814 0.0914350226521492 -0.20643936097621918 -0.07700323313474655 -0.042898595333099365 -0.406211793422699 0.15203657746315002 -0.38109368085861206 0.13440090417861938 -0.4436955153942108 0.5141423344612122 0.14042779803276062 0.05672556161880493 0.033547718077898026 -0.09276323765516281 -0.3696363568305969 -0.049030762165784836 0.23864023387432098 0.3464113175868988 0.578829824924469 -0.5772232413291931 -0.5075450539588928 -0.07498488575220108 0.3209778070449829 0.1756797730922699 -0.027616998180747032 0.37414422631263733 0.12195098400115967 0.7633554339408875 -0.4591803252696991 -0.47886791825294495 0.01029120571911335 -0.3461531102657318 -0.05113127455115318 0.6759390830993652 -0.1919056922197342 0.886645495891571 -0.3442136347293854 0.2074923813343048 0.013784956187009811 -0.013878335244953632 -0.7262008190155029 -0.454426646232605 0.005579058546572924 0.07474114000797272 0.03560121729969978 -0.11895269900560379 -0.3217644989490509 0.3966062366962433 0.6620891094207764 0.1052875891327858 0.29227906465530396 -0.34662336111068726 -0.1033763587474823 -0.011254689656198025 0.053537845611572266 0.2675105631351471 -0.05065072327852249 0.01707722246646881 -0.2836092412471771 0.06241889297962189 -0.3337513208389282 -0.37619057297706604 0.4079638421535492 -0.05692041292786598 0.380894273519516 -0.06798099726438522 0.647323727607727 -0.3889317810535431 0.1187981590628624 -0.22017112374305725 0.1816006302833557 0.4309377074241638 0.6631782054901123 -0.06959083676338196 -0.10184858739376068 -0.11468063294887543 -0.10255781561136246 0.13360853493213654 0.10174386203289032 -0.614234209060669 -0.18589605391025543 -0.27260133624076843 0.1612638384103775 0.024848701432347298 -0.05024634301662445 -0.2710859179496765 -0.3890494108200073 -0.05708708614110947 0.5728771686553955 0.36814770102500916 0.15089945495128632 0.07998637109994888 -0.29401934146881104 -0.42072346806526184 0.354432612657547 0.5011157989501953 0.2600119113922119 -0.042545218020677567 -0.409732460975647 0.014858320355415344 -0.15847399830818176 0.0630418211221695 -0.5676080584526062 -0.3425208628177643 -0.35277578234672546 -0.4461170434951782 -0.31071388721466064 0.18665331602096558 0.9511359333992004 -0.4048653841018677 0.33410826325416565 0.16681161522865295 -0.005730865057557821 0.11563008278608322 0.19067299365997314 -0.5581142902374268 0.26200979948043823 0.7462049126625061 0.07521510869264603 0.14001284539699554 0.4037271738052368 0.5040171146392822 0.17671772837638855 -0.16848723590373993 -0.15426954627037048 -0.2821636497974396 0.24527791142463684 -0.026639185845851898 0.3807503283023834 -0.5224512219429016 0.04135599732398987 -1.0167346000671387 0.12529830634593964 -0.09826456010341644 0.08635352551937103 -0.14830155670642853 0.179598867893219 -0.47985541820526123 0.26182183623313904 0.26409289240837097 -0.0012382871937006712 -0.37972912192344666 0.8194382786750793 0.1483345776796341 -0.09341344237327576 -0.059606075286865234 0.02061942219734192 0.0016662487760186195 -0.4156217575073242 -0.2255168855190277 -0.21037352085113525 -0.21810589730739594 0.3339955508708954 0.45746976137161255 0.16257426142692566 0.18424242734909058 -0.33246469497680664 1.0312565565109253 -0.09200821816921234 0.015999648720026016 -0.10042258352041245 0.4860532879829407 -0.25821399688720703 0.34644654393196106 -0.6529302597045898 -0.16308557987213135 0.012500074692070484 0.0043396493420004845 0.24928879737854004 -0.4154605567455292 0.015996916219592094 -0.1985800862312317 0.20525507628917694 -0.13730108737945557 0.05345259606838226 -0.1794636845588684 -0.05585248023271561 0.34011128544807434 0.24808232486248016 -0.09300229698419571 -0.285421758890152 0.5244331955909729 -0.05288533866405487 0.2651517689228058 0.021130185574293137 0.03383255377411842 0.3651415705680847 0.11048772186040878 -0.019372902810573578 -0.05675167590379715 -0.19615234434604645 -0.009169820696115494 0.5826607942581177 0.13818907737731934 0.005228616297245026 -0.14294491708278656 0.13676610589027405 -0.035369206219911575 -0.050561804324388504 -0.3531479239463806 -0.2594267725944519 0.4068540334701538 -0.00894378311932087 -0.12056486308574677 -0.27620941400527954 -0.676281213760376 0.5708522200584412 0.0864475667476654 -0.1476011872291565 0.6229478120803833 0.010936407372355461 -0.685893177986145 0.11763990670442581 0.26625677943229675 0.46458590030670166 -0.06584993004798889 0.5843514204025269 0.14563633501529694 0.10792610049247742 0.1939341425895691 0.3674941658973694 -0.29948943853378296 -0.42576465010643005 0.2836982011795044 0.13458827137947083 -0.011984342709183693 -0.03425709530711174 -0.5130122900009155 -0.2320929318666458 -0.2771065831184387 0.16287371516227722 0.025815706700086594 -0.3084287941455841 -0.18165484070777893 -0.3968577980995178 -0.19025681912899017 -0.523363471031189 -0.6180086731910706 -0.5328684449195862 0.21556399762630463 -0.013623992912471294 -0.17207171022891998 -0.23766915500164032 -0.18092145025730133 0.3173167109489441 0.5689288973808289 -0.3766533136367798 -0.5196909308433533 -0.6367120146751404 0.05868649110198021 -0.5214169025421143 0.15341630578041077 -0.2675536870956421 -0.7242777347564697 -0.18110890686511993 0.08477580547332764 -0.43978965282440186 0.5431991815567017 -0.5505601763725281 0.25448301434516907 -0.445968896150589 -0.2295762300491333 0.27329444885253906 0.12027408927679062 -0.206546813249588 0.053210243582725525 0.008848246186971664 0.061263930052518845 -0.07764076441526413 0.10788267850875854 0.01919327862560749 0.07588449865579605 -0.4291189908981323 0.17168428003787994 0.22046054899692535 -0.49427759647369385 -0.16056862473487854 0.22666871547698975 -0.3437930643558502 -0.11846742033958435 -0.5369351506233215 -0.2656949460506439 -0.2694438695907593 0.31921491026878357 0.4432738125324249 -0.02728458307683468 -0.39118310809135437 -0.27410683035850525 0.3783116042613983 -0.6780479550361633 -0.46974387764930725 0.17801475524902344 0.34719789028167725 0.4794508218765259 -0.01307135634124279 0.12490245699882507 0.10974027216434479 0.653278112411499 -0.3472164273262024 -0.6231332421302795 0.12442366033792496 -0.26618149876594543 -0.30104976892471313 0.02743745595216751 0.16483063995838165 -0.18085689842700958 -0.061991676688194275 -0.12961383163928986 -0.11231735348701477 -0.005619904957711697 0.6255138516426086 0.01686389558017254 0.03901516646146774 -0.19917228817939758 -0.25373879075050354 -0.22645695507526398 0.8419701457023621 0.33930912613868713 -0.16547419130802155 0.20643708109855652 0.306062787771225 -0.46614113450050354 0.2788656949996948 -0.2731351852416992 -0.1756724864244461 -0.1444990187883377 -0.2600385248661041 -0.1470155268907547 0.3079412281513214 0.20064595341682434 -0.2666889429092407 -0.48073095083236694 0.11874575167894363 0.38036245107650757 0.3739045560359955 -0.48199182748794556 -0.18365263938903809 0.12694214284420013 0.06672188639640808 -0.018955180421471596 -0.5699349641799927 -0.11118955165147781 0.18845972418785095 0.3015168607234955 -0.736066997051239 -0.36340588331222534 -0.1912393718957901 0.22881349921226501 -0.25464650988578796 -0.37385621666908264 -0.11501544713973999 0.11762915551662445 -0.21181413531303406 0.014249112457036972 -0.2768566906452179 -0.121877022087574 0.03901400789618492 -0.16987884044647217 0.001642806688323617 0.518362820148468 0.19976256787776947 0.07009277492761612 -0.19388990104198456 -0.5431802272796631 -0.014520930126309395 -0.5397819876670837 0.09453247487545013 -0.43653666973114014 0.15635640919208527 0.6697259545326233 -0.07339277863502502 0.055301547050476074 -0.15815822780132294 -0.0764835998415947 0.33416885137557983 -0.035031985491514206 0.35711047053337097 -0.024410834535956383 -0.03774915263056755 -0.0245390385389328 0.38451674580574036 -0.7097886800765991 -0.06738429516553879 0.48901501297950745 -0.23810261487960815 -0.014738471247255802 -0.1006125882267952 0.12370668351650238 0.1223149299621582 -0.18245700001716614 -0.518502950668335 -0.06717318296432495 0.20050835609436035 -0.5078723430633545 0.011395365931093693 -0.16422274708747864 0.027103453874588013 0.04420540854334831 -0.22079837322235107 0.4202004671096802 -0.0620218850672245 0.24765974283218384 0.08222951740026474 -0.45326530933380127 -0.0942491739988327 -0.23143386840820312 -0.20391565561294556 0.9559069871902466 0.13519048690795898 0.11206410825252533 -0.16059400141239166 -0.17401742935180664 -0.14064925909042358 -0.0333004929125309 0.4063529074192047 -0.30179014801979065 -0.6559407114982605 -0.3323526084423065 -0.15709875524044037 0.12309359014034271 -0.5320850014686584 0.17703241109848022 -0.12362931668758392 -0.016335504129529 0.04751470685005188 -0.15553632378578186 0.07137657701969147 0.24457906186580658 0.14587441086769104 0.3397009074687958 0.23688682913780212 0.565431535243988 0.5343316197395325 -0.17415550351142883 -0.014320118352770805 0.35865315794944763 -0.10714589059352875 0.17343683540821075 -0.1834307760000229 0.4993442893028259 0.38460466265678406 -0.2815551459789276 0.06467358767986298 -0.10268744081258774 0.45439112186431885 0.07447531819343567 0.6390493512153625 0.17983321845531464 0.03175923973321915 0.12414447218179703 0.19438573718070984 -0.6034714579582214 -0.16420461237430573 -0.4849384129047394 0.7059342861175537 0.03830309957265854 -0.08461513370275497 0.07357186824083328 -0.07376328855752945 0.6365545988082886 0.16516174376010895 0.4976971745491028 0.2953908145427704 0.6459787487983704 -0.12254905700683594 0.3101082742214203 -0.4498389959335327 -0.43989208340644836 0.2813776433467865 -0.31498226523399353 -0.1030876412987709 0.2731054425239563 0.25823935866355896 0.17920972406864166 -0.2120457887649536 0.5171389579772949 0.2929518520832062 -0.21136774122714996 -0.04437136650085449 -0.11802531778812408 -0.23895275592803955 0.6976963877677917 -0.0987943634390831 0.284639447927475 -0.1744922548532486 0.1555996537208557 -0.3957533538341522 -0.29505646228790283 -0.6824948191642761 -0.05479370802640915 -0.5400349497795105 -0.12785184383392334 0.2676653563976288 0.38426101207733154 -0.19127649068832397 -0.4644070863723755 0.3974543809890747 0.2770671844482422 -0.07418416440486908 0.041966427117586136 -0.1530408263206482 0.03438321501016617 0.04572560265660286 0.10933595895767212 -0.3161108195781708 -0.2500227689743042 -0.06556612253189087 -0.265252023935318 -0.4090171456336975 0.07607004791498184 0.143906831741333 0.17485947906970978 0.0038032992742955685 -0.0456065870821476 0.2221277505159378 0.11490797251462936 -0.2292519211769104 -0.14308974146842957 0.3862469494342804 0.043967537581920624 -0.04225602746009827 -0.3809923827648163 -0.021482503041625023 -0.1949974000453949 -0.09797735512256622 0.14813129603862762 0.07238107919692993 0.15876227617263794 0.35405483841896057 -0.03327197581529617 -0.08364258706569672 0.17182447016239166 0.1837349832057953 -0.012902083806693554 0.4275885820388794 0.023308346047997475 0.1466609388589859 0.08752065896987915 -0.3218148350715637 -0.3923455476760864 0.012900106608867645 -0.3908635377883911 0.1394340991973877 0.5212851762771606 -0.5252519249916077 0.14794372022151947 -0.02193213440477848 0.3364218771457672 -0.4102216064929962 0.13975076377391815 0.6204135417938232 -0.5121990442276001 0.02853887900710106 -0.08607141673564911 -0.2714404761791229 0.059061311185359955 -0.11141782999038696 -0.010354284197092056 -0.05471434071660042 -0.11316155642271042 -0.16529004275798798 0.1252780258655548 0.4270249307155609 -0.2612546682357788 -0.12493079155683517 0.5303628444671631 0.0025006569921970367 -0.13067710399627686 0.19424082338809967 -0.1788148283958435 0.08985798060894012 -0.10022981464862823 0.0015969376545399427 -0.37299349904060364 0.4672061502933502 -0.09594029188156128 0.12230970710515976 0.6245273351669312 0.07577141374349594 0.033875007182359695 -0.7888893485069275 0.15219397842884064 0.27678945660591125 0.17044566571712494 -0.3759951889514923 -0.39214766025543213 0.1643381416797638 0.47316813468933105 -0.10491464287042618 -0.5470123291015625 -0.07929540425539017 -0.1540660411119461 0.0037406720221042633 -0.1521078646183014 0.4996671974658966 -0.2167835831642151 0.21060484647750854 0.1074591651558876 -0.20447619259357452 -0.46846264600753784 -0.2050490379333496 -0.2631177008152008 0.23325411975383759 -0.07787181437015533 0.18627095222473145 -0.22360189259052277 0.4137888550758362 0.08655617386102676 -0.34706246852874756 0.511117160320282 0.002230681013315916 0.15447822213172913 -0.021680714562535286 0.12782689929008484 0.5116672515869141 0.368085652589798 0.050966907292604446 -0.07302173972129822 0.37167125940322876 -0.30221128463745117 -0.017546826973557472 -0.03635922446846962 -0.021012095734477043 0.198444664478302 -0.23583605885505676 0.15601640939712524 -0.09404705464839935 -0.05557253211736679 0.1568145900964737 0.4560036361217499 0.3530801236629486 -0.3319453001022339 0.059217993170022964 0.2226753979921341 -0.0674048364162445 0.03290792182087898 -0.2699885666370392 0.0071915932931005955 0.6031023263931274 0.09443558007478714 -0.07662505656480789 -0.15059128403663635 -0.1441008299589157 -0.452201783657074 -0.15206658840179443 0.06921542435884476 0.26761820912361145 0.5671157836914062 0.08505300432443619 0.17288008332252502 -0.09851736575365067 -0.24223490059375763 -0.25873154401779175 -0.09890750795602798 -0.1845530867576599 -0.6316309571266174 -0.07337653636932373 -0.14659303426742554 -0.1484639048576355 -0.23444975912570953 0.4104754328727722 -0.023511528968811035 0.0693739652633667 -0.200337216258049 -0.05502478778362274 0.3205081522464752 0.3809809982776642 -0.3597438931465149 0.23503489792346954 -0.3158092200756073 0.5210833549499512 -0.1486014723777771 -0.10767834633588791 -0.30840763449668884 0.05121658742427826 0.21167722344398499 -0.3291225731372833 0.1492798775434494 0.06981221586465836 0.0012585200602188706 0.005872042383998632 -0.24345242977142334 -0.23460568487644196 -0.22164100408554077 -0.3083503544330597 -0.26432833075523376 0.062417641282081604 -0.1274019181728363 0.04066622257232666 -0.2296040654182434 0.11928320676088333 -0.5824583172798157 -0.49348199367523193 0.2884023189544678 -0.22265417873859406 -0.32386448979377747 -0.2788708209991455 0.4689261019229889 -0.4417772889137268 0.10788105428218842 0.1706632822751999 0.06819776445627213 0.15820665657520294 -0.3992997407913208 -0.4349280297756195 0.07876954972743988 0.9799080491065979 -0.6878215670585632 -0.27294373512268066 -0.19273953139781952 0.16736294329166412 -0.17741216719150543 0.21760456264019012 -0.04865945503115654 -0.6619542837142944 -0.1974504441022873 0.430480033159256 0.1419878602027893 -0.04319794103503227 0.02721896395087242 0.025418831035494804 -0.256750226020813 0.18214111030101776 0.1302533894777298 -0.4810757637023926 -0.051073234528303146 0.3583366870880127 0.29486483335494995 -0.3610265552997589 0.0431692972779274 -0.6905419826507568 0.0764506533741951 -0.2114165872335434 -0.7061591148376465 0.08683069795370102 0.1630937159061432 0.24735857546329498 0.1468464881181717 -0.3568839430809021 0.21582402288913727 0.3163374960422516 -0.1733340322971344 0.28169333934783936 -0.19907748699188232 0.30753353238105774 0.2001403570175171 0.2391532063484192 0.2987845242023468 0.09216011315584183 0.40086713433265686 0.22119680047035217 0.05784589424729347 -0.014242441393435001 0.31744760274887085 0.11654280126094818 0.08906620740890503 0.042858392000198364 0.028535597026348114 0.14637184143066406 0.3616487383842468 0.30515024065971375 0.5226022601127625 0.18467779457569122 -0.278378427028656 0.043268319219350815 0.2034311443567276 0.1892876774072647 -0.7063992023468018 0.08361493051052094 0.635507345199585 -0.4610426723957062 0.3962499797344208 -0.3094470500946045 0.08503515273332596 -0.2228102833032608 0.048548415303230286 -0.4486088156700134 -0.04123738780617714 -0.34539246559143066 -0.3251945674419403 0.7026932239532471 0.7946528196334839 -0.44719216227531433 0.23962412774562836 -0.3955899775028229 0.12889060378074646 0.05977679789066315 0.4116959273815155 0.01374922413378954 0.2716076374053955 0.048006318509578705 0.09106919169425964 -0.4732918441295624 0.42706871032714844 -0.6685928106307983 -0.16428588330745697 0.08671489357948303 0.23779357969760895 0.09822166711091995 -0.4030851125717163 -0.3549584448337555 -0.42308521270751953 -0.06636597961187363 -0.24804578721523285 0.2924512028694153 0.1600341498851776 0.053171973675489426 -0.45359453558921814 -0.590935468673706 0.14969360828399658 0.06493056565523148 -0.11293958127498627 -0.38261646032333374 -0.03244924917817116 -0.47412723302841187 0.42227083444595337 0.0949946716427803 0.3467934727668762 0.13822339475154877 0.535147488117218 0.18344731628894806 0.1471618413925171 -0.08799315989017487 0.9726831912994385 0.06128387525677681 0.28050661087036133 0.41726574301719666 -0.18241213262081146 0.17873385548591614 0.8299434781074524 0.16602715849876404 -0.34705641865730286 0.13221369683742523 0.15820154547691345 -0.3531331419944763 -0.23121245205402374 0.2120198905467987 0.4688672423362732 -0.08386500924825668 0.13152247667312622 0.4709495007991791 0.4159766435623169 -0.10520602017641068 0.030997980386018753 0.7450805902481079 -0.16662970185279846 0.05205977335572243 0.19749672710895538 -0.8158658146858215 -0.1332249790430069 -0.04742207005620003 0.3430969715118408 0.07794159650802612 0.011273455806076527 -0.7008917331695557 -0.37972334027290344 -0.14474333822727203 -0.21382002532482147 -0.225389763712883 0.3968046307563782 -0.039839453995227814 -0.12206538766622543 -0.05094410851597786 0.6030904650688171 -0.20417159795761108 0.7639386653900146 -0.6565648317337036 -0.2077636867761612 0.34242552518844604 -0.5768798589706421 0.26069381833076477 0.11353199928998947 0.17304068803787231 -0.022711437195539474 0.1957990825176239 -0.4836771488189697 -0.022016895934939384 0.3642270267009735 -0.4649077355861664 -0.3618493676185608 -0.05464964359998703 0.3292354345321655 0.1353730410337448 -0.09058043360710144 0.2537491023540497 -0.3209896385669708 0.1933518350124359 -0.5736970901489258 -0.509140133857727 -0.3019002079963684 0.053381431847810745 -0.08360420167446136 -0.07366843521595001 0.06751929223537445 0.34801429510116577 -0.27605533599853516 -0.05653933435678482 -0.08681024610996246 0.03637847304344177 -0.1927167922258377 0.2820374071598053 0.11264131963253021 -0.13973790407180786 0.4252271354198456 0.7512613534927368 -0.23931705951690674 -0.07628045976161957 0.6519919037818909 0.4304722845554352 0.10518193989992142 0.06861989200115204 -0.4359283745288849 0.42683812975883484 0.06014435365796089 0.04862365126609802 0.8492389917373657 -0.36354535818099976 -0.13461731374263763 -0.26289957761764526 -0.60758376121521 0.3626372218132019 -0.6004867553710938 -0.446061372756958 0.057041943073272705 0.4901905357837677 -0.2682226896286011 -0.45053768157958984 -0.16949664056301117 -0.7597069144248962 -0.40710991621017456 -0.2710978388786316 0.02096857689321041 0.03003453090786934 0.386810839176178 -0.02773304097354412 0.31144988536834717 0.33286529779434204 0.1459127515554428 0.3158490061759949 -0.010152343660593033 0.15145714581012726 0.4533228278160095 -0.39228320121765137 -0.2897893190383911 -0.2634044289588928 0.11024998128414154 0.23576705157756805 0.4215533137321472 -0.4667842388153076 -0.5705907940864563 0.2651398777961731 0.18967360258102417 -0.09149197489023209 -0.18333369493484497 -0.1070527583360672 -0.2105543166399002 0.41085392236709595 0.6712448000907898 -0.1316419243812561 0.16706064343452454 -0.41885507106781006 -0.6176865696907043 -0.13994842767715454 -0.024361835792660713 0.006719423923641443 -0.08882151544094086 0.46509605646133423 0.35216376185417175 -0.05303367227315903 0.2121206670999527 0.09571348130702972 0.10595819354057312 -0.13056805729866028 0.4411812424659729 -0.277831494808197 -0.2702375650405884 -0.14991046488285065 -0.2560802102088928 -0.33770909905433655 -0.3395884335041046 -0.6851356029510498 -0.4445702135562897 -0.16947832703590393 -0.13064461946487427 0.1104716956615448 0.21572747826576233 -0.14499540627002716 -0.43719980120658875 -0.01193838007748127 0.3082214295864105 -0.2822626531124115 0.1769711971282959 -0.07921015471220016 -0.20689402520656586 0.28591054677963257 0.30470582842826843 -0.07645347714424133 0.25132590532302856 -0.09974692016839981 -0.09826845675706863 0.2869594395160675 -0.0788489505648613 -0.14492669701576233 0.3248152732849121 -0.22445891797542572 0.15965694189071655 0.18766148388385773 0.2765621542930603 0.4059825539588928 -0.18886245787143707 0.4244871437549591 0.07799114286899567 0.08490385860204697 -0.34667712450027466 0.25150802731513977 0.10173452645540237 -0.28881633281707764 -0.019029714167118073 -0.12159250676631927 -0.20919522643089294 -0.04729561507701874 0.09369058161973953 0.30992329120635986 0.8054164052009583 0.6500069499015808 0.1086827889084816 -0.6951218247413635 -0.7036094665527344 -0.4573327302932739 -0.2201911211013794 -0.16887371242046356 -0.440690279006958 0.4583677053451538 -0.4826025366783142 -0.402521014213562 0.4559642970561981 -0.4662832021713257 -0.10509058088064194 -0.00251243868842721 0.5391837358474731 -0.1834035962820053 -0.18842710554599762 -0.01703444868326187 -0.4216734766960144 0.5327141284942627 0.0120694600045681 0.33711037039756775 0.24914319813251495 0.04333622008562088 -0.3072669804096222 -0.03833381459116936 0.3312472403049469 -0.12732894718647003 -0.05614399164915085 0.3168486952781677 -0.3070620596408844 0.05287632718682289 -0.5727486610412598 0.02225845865905285 -0.49180009961128235 0.16094990074634552 -0.45463597774505615 -0.005141266155987978 0.14244399964809418 0.02385534532368183 -0.1469874233007431 -0.054867152124643326 0.12747231125831604 -0.04182903468608856 0.28728657960891724 0.3770796060562134 -0.5349729061126709 0.371612548828125 -0.03426537662744522 0.01632445678114891 -0.11071450263261795 -0.14688414335250854 0.18824371695518494 -0.03954021632671356 -0.4815508723258972 0.22573961317539215 -0.8670791983604431 -0.08940267562866211 0.3846299946308136 0.12161814421415329 0.22222661972045898 -0.7145981192588806 0.1322363168001175 -0.24200986325740814 0.19249007105827332 -0.32970502972602844 -0.32470703125 -0.07804276049137115 -0.16100747883319855 0.241730198264122 0.4830968379974365 0.11714350432157516 -0.30410727858543396 0.07308012992143631 0.4004144072532654 -0.18885312974452972 0.3862699866294861 -0.04875144734978676 0.1962078958749771 0.24586379528045654 0.4509146511554718 0.2735459506511688 0.04967675730586052 -0.39950940012931824 -0.2545660734176636 -0.009190628305077553 -0.04986733943223953 -0.05459195002913475 -0.2012389749288559 -0.05743565782904625 -0.015563374385237694 0.17527543008327484 -0.25100526213645935 -0.21165010333061218 -0.8356493711471558 -0.0465347059071064 0.9376932382583618 -0.14088226854801178 0.45383748412132263 -0.10367994010448456 0.06624611467123032 0.24297191202640533 -0.11784587800502777 -0.427872896194458 0.40601813793182373 0.7925875782966614 -0.6990920305252075 -0.4062401056289673 -0.3527754545211792 -0.31775179505348206 0.11766801029443741 -0.10233456641435623 -0.16891466081142426 0.09711489081382751 -0.09878283739089966 -0.1113349124789238 -0.5729563236236572 -0.3922745883464813 0.31833645701408386 0.35050731897354126 0.03426264598965645 0.0484062023460865 0.4077780544757843 -0.4508322775363922 0.2060175985097885 -0.25054842233657837 0.7054359912872314 0.06175348907709122 -0.33856719732284546 0.11302367597818375 0.10210954397916794 0.3953261077404022 -0.35485127568244934 -0.06987567245960236 -0.4485029876232147 0.2573520243167877 0.2656070590019226 0.36474698781967163 0.21089233458042145 0.3920923173427582 -0.5499950647354126 -0.13483338057994843 0.7587160468101501 -0.2722286283969879 -0.41967564821243286 0.22492748498916626 0.356798380613327 0.22512784600257874 0.05833573639392853 -0.20371265709400177 0.14651642739772797 -0.11751476675271988 -0.6408692598342896 0.41978931427001953 -0.6475332975387573 -0.2029491662979126 0.06795753538608551 -0.663407027721405 0.327693372964859 0.8219967484474182 0.07685702294111252 0.2314523160457611 -0.048346396535634995 -0.005650493782013655 0.6105874180793762 0.1119581088423729 -0.7685637474060059 0.08162588626146317 0.346553236246109 -0.30915382504463196 0.08854890614748001 -0.04192698746919632 0.021628662943840027 -0.4665570557117462 0.006802021060138941 -0.5064007043838501 -0.18548621237277985 -0.5254365801811218 0.24228064715862274 -0.32840612530708313 0.04017766937613487 0.08286388963460922 0.6450203657150269 -0.4403841495513916 0.35197001695632935 0.28197550773620605 -0.7854461669921875 -0.1191890761256218 0.0793403685092926 0.10202185809612274 0.5789580941200256 -0.21451738476753235 -0.45764562487602234 -0.21407218277454376 0.5214826464653015 -0.07705258578062057 -0.23182716965675354 0.36668041348457336 -0.15350130200386047 0.44040271639823914 -0.01019464060664177 0.5310540795326233 -0.09422823786735535 0.13949181139469147 0.6210547685623169 -0.007780457381159067 0.05139908567070961 0.36200419068336487 -0.016371918842196465 0.38850703835487366 -0.2372317612171173 -0.28219547867774963 -0.028806395828723907 -0.057405341416597366 -0.1553804874420166 -0.059108834713697433 -0.1328028291463852 0.22813113033771515 0.30789896845817566 0.12362825125455856 -0.06414204835891724 -0.43424680829048157 0.1853305697441101 0.23669177293777466 0.2432618886232376 0.17015419900417328 0.3852040767669678 -0.1303870677947998 0.3673786222934723 -0.13717526197433472 -0.09036736190319061 0.3158986568450928 -0.11822963505983353 -0.45278656482696533 0.0033657036256045103 0.055730000138282776 0.6202684044837952 0.32473865151405334 0.16574615240097046 -0.05499580502510071 0.15179532766342163 -0.11026140302419662 -0.2925207018852234 -0.5159429907798767 -0.0639205276966095 -0.027047336101531982 -0.23926353454589844 0.35765954852104187 -0.29588446021080017 -0.1510131061077118 0.07466457039117813