-0.015119525603950024 -0.0033582209143787622 -0.012194559909403324 0.0022856644354760647 0.006299335975199938 -0.009424385614693165 -0.0021167227532714605 -0.002779235364869237 -0.0002036965306615457 -0.02755558118224144 -0.027008991688489914 -0.010261323302984238 -0.001471007359214127 -0.0018227704567834735 0.009634205140173435 -0.004063168074935675 0.004305968526750803 0.014550128020346165 -0.017737124115228653 0.012775947339832783 0.0069677880965173244 0.004352895077317953 -0.0012721383245661855 -0.0013049291446805 -0.0018333495827391744 0.02161978743970394 -0.01577094756066799 0.016901403665542603 0.011799562722444534 -0.0005013019545003772 -0.004215708933770657 -0.007076454348862171 -0.012248575687408447 0.004684242885559797 0.009550966322422028 -0.014468520879745483 -0.013864806853234768 -0.01858655735850334 -0.01133571658283472 -0.02571110427379608 -0.018745852634310722 0.013747777789831161 -0.011422533541917801 -0.01716737262904644 0.01693563349545002 0.01863004080951214 -0.007049822714179754 -0.0025281913112848997 0.019007621333003044 8.947783499024808e-05 -0.007699065376073122 0.0018162678461521864 0.013974725268781185 -0.022529400885105133 -0.01677805185317993 -0.0071585513651371 -0.010749263688921928 -0.0007301804726012051 -0.0019816209096461535 0.030031070113182068 0.0017790966667234898 0.00316651095636189 -0.03525179252028465 0.022506503388285637 3.4292552300030366e-05 0.009258756414055824 -0.00304976268671453 0.02836718037724495 0.0004586603899952024 0.027138499543070793 0.009051584638655186 0.0035901814699172974 0.009436391294002533 0.0005741697968915105 0.001956034218892455 0.00706483656540513 -0.00841131154447794 -0.006081185769289732 0.011602415703237057 0.02327873185276985 -0.015804175287485123 0.009489869698882103 0.011540940962731838 -0.0004725185572169721 -0.0036757492925971746 -0.008746090345084667 -0.006905388552695513 0.02349895052611828 -0.009458821266889572 -0.005225806962698698 0.010894328355789185 0.004032467026263475 0.013053346425294876 -0.014194304123520851 -0.013681493699550629 -0.0038583220448344946 0.005108712241053581 -0.0009378481772728264 0.013999293558299541 -0.0003695579362101853 0.004995022434741259 -0.017686832696199417 0.018601303920149803 0.009853219613432884 -0.016135700047016144 0.0016251818742603064 0.017539890483021736 0.03334668278694153 -0.006052207667380571 -0.009646466933190823 0.019819244742393494 -0.0045066154561936855 0.012571252882480621 0.02681964449584484 -0.0014504613354802132 0.00031629757722839713 -0.035713568329811096 -0.012005677446722984 -0.025463836267590523 -0.016873469576239586 0.010746685788035393 0.013958543539047241 0.010577169246971607 0.008178092539310455 -0.010548011399805546 0.003435122547671199 0.013240547850728035 -0.005284206010401249 -0.007942907512187958 0.017362574115395546 -0.006845677271485329 -0.00016234432405326515 0.01178774144500494 0.015104664489626884 0.0060461037792265415 -0.01696913316845894 0.0067422217689454556 -0.003547889180481434 0.01452516857534647 -0.0035231951624155045 -0.007731761317700148 0.023718368262052536 -0.004275722429156303 -0.004803623538464308 0.007770942524075508 0.03107280842959881 0.015877431258559227 -0.0014427726855501533 0.020109601318836212 0.004906459711492062 0.00036854500649496913 0.0015505377668887377 0.015832161530852318 -0.001229100045748055 -0.011506173759698868 -0.01396189071238041 -0.027977269142866135 -0.01674441434442997 -0.0023182297591120005 0.002418446820229292 -0.0035483844112604856 -0.0016579990042373538 0.016331937164068222 0.039688266813755035 -0.011437661945819855 0.006452918518334627 -0.005579321179538965 0.011202409863471985 -0.0063536944799125195 -0.001121750334277749 0.010238953866064548 0.008070011623203754 0.02732561156153679 0.028358107432723045 -0.005473441444337368 0.02523209899663925 -0.011025491170585155 -0.007740541361272335 0.01820952072739601 0.030997013673186302 0.0020486016292124987 0.02717154286801815 0.01430379319936037 -0.00010370004747528583 0.006305489223450422 0.01070178672671318 0.0036666570231318474 0.0024789494927972555 -0.0480477400124073 0.009451711550354958 0.02796182781457901 0.014846661128103733 -0.014678760431706905 -0.009050796739757061 0.0029100715182721615 -0.006917726248502731 -0.013776357285678387 -0.0034032866824418306 -0.0035366469528526068 0.0004957732162438333 -0.01529458723962307 0.007799066137522459 0.00680550979450345 0.0004143834230490029 0.01175618264824152 0.016444360837340355 0.006990334019064903 -0.006521542556583881 0.004890380427241325 0.006783726625144482 -0.003672151593491435 0.008333863690495491 -0.0025372214149683714 0.00266476022079587 0.0022806457709521055 -0.009472629055380821 0.01606319285929203 -0.02268870547413826 -0.008877646178007126 -0.017039943486452103 -0.015803465619683266 -0.009187120944261551 0.001578929484821856 0.008021898567676544 0.006392516195774078 -0.03229802846908569 -0.0005983308656141162 0.009267156012356281 -0.024158675223588943 0.0018939839210361242 0.011329307220876217 -0.002688080072402954 -0.011461513116955757 -0.0008292188867926598 0.011579161509871483 -0.0007703266455791891 -0.008382542058825493 0.01122920773923397 -0.019028322771191597 0.0007727412739768624 -0.004625534173101187 0.009430562146008015 0.0030202872585505247 -0.01671266183257103 0.012690478935837746 -0.026005025953054428 0.016248194500803947 0.009715136140584946 -0.005691134836524725 0.0037351613864302635 0.0033093150705099106 -0.025653894990682602 0.0037960910703986883 0.011752982623875141 -0.006021360866725445 0.024437205865979195 -0.009553377516567707 0.007020076271146536 -0.027353571727871895 0.011535394005477428 0.005183070432394743 0.010124407708644867 0.008547240868210793 -0.007787931710481644 -0.006387987639755011 -0.003669613739475608 -0.0033356754574924707 0.022748228162527084 -0.0025018122978508472 -0.015903085470199585 0.004232022445648909 -0.0020299532916396856 0.006761110853403807 0.007784915156662464 -0.006079591810703278 -0.018487637862563133 -0.00816124677658081 -0.004365856759250164 -0.002738164970651269 -0.008759355172514915 0.004092204384505749 0.0061286878772079945 0.0036722682416439056 -0.0022063215728849173 -0.011676493100821972 0.026165524497628212 -0.0066956328228116035 0.00805426575243473 -0.007000850513577461 -0.007599858567118645 -0.013407573103904724 0.00589323602616787 -0.0019516281317919493 -0.0011050791945308447 -0.001217317534610629 0.009713733568787575 -0.02015773206949234 0.006337366998195648 0.031507138162851334 0.007877405732870102 0.0031177701894193888 0.0008818648639135063 -0.00215408974327147 0.009560241363942623 0.022989068180322647 -0.0023064713459461927 0.002362300641834736 0.00215449882671237 0.0019206925062462687 0.0023754523135721684 -0.0005393393221311271 0.009121570736169815 -0.017068814486265182 0.014307818375527859 -0.005147197283804417 0.0037591364234685898 0.020550437271595 -0.005458686500787735 -0.0040775625966489315 0.004602022003382444 -0.012062079273164272 -0.02003064937889576 -0.01654534786939621 -0.030293762683868408 -0.012971452437341213 0.008965788409113884 0.015299856662750244 0.012236286886036396 -0.02239636331796646 0.008867558091878891 -0.010192705318331718 0.007818643003702164 0.007805442903190851 -0.004256362095475197 -0.010269002988934517 -0.02319900318980217 -0.00520093459635973 0.022833073511719704 0.018393293023109436 -0.0056478288024663925 0.015950065106153488 -0.01992957480251789 -0.012952089309692383 0.007242065854370594 0.027329163625836372 0.005482922308146954 -0.018316024914383888 0.0021513081155717373 0.011848348192870617 0.019226297736167908 0.011399914510548115 0.005479145795106888 0.007745795883238316 -0.023569894954562187 -0.011202039197087288 0.03474866971373558 -0.00047542102402076125 0.013916786760091782 0.016450803726911545 0.010529428720474243 -0.011169878765940666 -0.03510051220655441 0.0196838341653347 -0.015288840979337692 -0.006172806955873966 -0.012362577021121979 -0.012359905056655407 -0.014293207786977291 -0.020336486399173737 -0.034323569387197495 0.011364215053617954 0.002662354614585638 -0.010958380997180939 -0.015901461243629456 0.006071578245609999 -0.009331850335001945 0.022252032533288002 0.0032772691920399666 -0.020664634183049202 -0.0017800652422010899 0.016116667538881302 0.00981986615806818 0.0009058695286512375 0.027410762384533882 0.000932499417103827 -0.004042363725602627 -0.00015180182526819408 -0.011947346851229668 0.014766008593142033 0.012475555762648582 -0.025507912039756775 0.00024213013239204884 0.013307238928973675 -0.002441931050270796 0.02162826806306839 0.008646460250020027 0.016427209600806236 -0.005153421778231859 -0.008852314203977585 -0.019397076219320297 -0.01793101243674755 0.005702259950339794 -0.007783814799040556 0.027993129566311836 -0.00807221420109272 0.011801629327237606 0.011469676159322262 -0.0012780101969838142 0.010646727867424488 0.0018608506070449948 -0.002157617826014757 -0.019713152199983597 0.011616759933531284 0.00571052823215723 -0.010421120561659336 0.00921726319938898 -0.011102894321084023 0.007889068685472012 -0.007557854987680912 0.008862201124429703 -0.004660321865230799 -0.005691561847925186 -0.004006877075880766 -0.0019461909541860223 -0.007033367641270161 -0.0015207650139927864 -0.002434063469991088 0.0025206315331161022 0.0040434920229017735 -0.01800953969359398 0.019963160157203674 -0.004245445132255554 0.016810467466711998 0.018014784902334213 -0.012914180755615234 0.009521502070128918 0.02616048976778984 0.007002165075391531 -0.024155717343091965 0.02193518541753292 -0.0020272904075682163 0.009035222232341766 0.005399774294346571 0.017656926065683365 -0.00740845175459981 0.0025120992213487625 0.01423732191324234 0.0011478615924715996 -0.02052043378353119 -0.022457435727119446 -0.0003960604954045266 -0.01695987582206726 -0.009087134152650833 -0.001600505318492651 -0.0010647523449733853 0.0020221229642629623 0.0015789808239787817 0.02391682378947735 -0.007509000599384308 0.0003053368127439171 -0.017098238691687584 0.004919553641229868 0.017265794798731804 0.003751876298338175 0.014377470128238201 -0.004121153615415096 0.006374720484018326 -0.022632833570241928 0.013455071486532688 5.4946413001744077e-05 -0.010942970402538776 -0.015787295997142792 -0.011703550815582275 0.0046248603612184525 -0.010499862022697926 0.015907827764749527 0.002926655812188983 -0.008939127437770367 0.014704999513924122 -0.007416435983031988 -0.008492124266922474 0.005880079232156277 -0.012894624844193459 0.0030246588867157698 -0.0004738719144370407 0.004514659754931927 -0.01656755991280079 -0.004106671083718538 -0.008916218765079975 0.017739005386829376 -0.009761051274836063 0.010516909882426262 0.015782656148076057 0.0131240114569664 -0.012262768112123013 0.010109620168805122 -0.005328219849616289 0.00047378678573295474 0.004189328756183386 0.006323249079287052 -0.014062968082726002 0.006531466729938984 0.016552496701478958 0.00454407325014472 -0.0052075814455747604 0.005839377176016569 0.008917700499296188 -0.002352846786379814 0.01649315468966961 -0.005071181338280439 -0.004740774165838957 -0.0024564522318542004 0.004716789349913597 -0.003074789419770241 0.004891685210168362 0.0009075785055756569 0.006613192614167929 -0.003914887085556984 0.004822712857276201 0.0070014894008636475 -0.003571823239326477 0.003036369103938341 0.004610299598425627 0.01721975766122341 -0.022827137261629105 -0.003570420667529106 -0.01210213452577591 0.005388541612774134 0.013840184547007084 -0.007646349724382162 -0.005539265926927328 -0.0005435532657429576 -0.027616120874881744 0.0007762279128655791 0.010347126051783562 -0.0034502875059843063 -0.00026061313110403717 0.00477096950635314 0.017656110227108 0.008292140439152718 0.00828863587230444 0.012393679469823837 0.04368703067302704 -0.0011478059459477663 0.0038187154568731785 0.007548678666353226 0.010741409845650196 0.01397948618978262 0.010605855844914913 -0.015836985781788826 0.0012205574894323945 0.0065985373221337795 -0.00915665552020073 -0.00524600176140666 -0.0168620515614748 0.0029703218024224043 -0.002385132247582078 0.0005262459744699299 0.0023243362084031105 -0.0061749788001179695 0.017291627824306488 -0.0015424222219735384 0.010658242739737034 -0.011376098729670048 -0.0001449222763767466 0.01516642700880766 0.0008959579863585532 -0.0012241883669048548 -0.002880142070353031 0.019133828580379486 -0.01005441602319479 -0.0041107661090791225 -0.01651291735470295 0.02130983956158161 0.009062825702130795 0.007499270141124725 -0.026505304500460625 0.005797599907964468 -0.0018843960715457797 7.944589015096426e-05 -0.012813287787139416 0.015519510954618454 -0.006619260646402836 -0.010402463376522064 -0.01879660040140152 -0.006575362756848335 -0.010928818956017494 -0.014060714282095432 0.011453202925622463 -0.06474623829126358 -0.001455397461540997 0.01286196056753397 0.017712125554680824 0.023192381486296654 -0.012549804523587227 -0.006270197685807943 0.003032729960978031 0.011702301912009716 0.001290193758904934 0.016278639435768127 0.010404576547443867 -0.0014853680040687323 0.0031714336946606636 -0.008732910268008709 0.010328186675906181 -0.00812245812267065 0.004084279760718346 0.018675390630960464 -0.008673558942973614 0.011132651939988136 0.008039521053433418 -0.0031367780175060034 0.00020230500376783311 -0.002460331190377474 -0.005815302953124046 0.02516735903918743 -0.000603747961577028 -0.01802370883524418 0.00870195310562849 -0.004308799281716347 0.025871774181723595 0.03167722746729851 0.008364391513168812 -0.015507007017731667 0.010164758190512657 -0.0025182589888572693 0.020804347470402718 0.01815914921462536 0.0024457613471895456 0.022081054747104645 -0.00447525829076767 0.01638774201273918 0.013041109777987003 -0.01762300170958042 0.014309397898614407 0.02686508372426033 0.0215874332934618 0.005492274183779955 0.012448474764823914 0.008517113514244556 -0.012388178147375584 -0.01418778020888567 -0.00737928319722414 0.011260363273322582 0.010992997325956821 -0.010170315392315388 -0.00460270419716835 -0.015150993131101131 0.006262355949729681 -0.014588799327611923 0.023663818836212158 -0.008880515582859516 -0.0030412906780838966 0.005588330794125795 -0.0045988112688064575 -0.000438798131654039 0.007748859468847513 0.01536518894135952 -0.0029639515560120344 -0.01646139658987522 0.017780747264623642 0.02062791772186756 -0.0018438980914652348 0.010501030832529068 -0.009157651104032993 0.0007680756389163435 -0.0035557481460273266 -0.014709081500768661 -0.0019014935242012143 -0.009565881453454494 0.01650531217455864 -0.03424239531159401 0.0010168711887672544 0.010025035589933395 0.012272380292415619 0.011706553399562836 -0.005936180707067251 0.008021296933293343 0.02771957591176033 0.005326920188963413 -0.00046308731543831527 -0.0070177228190004826 0.013641647063195705 0.008457601070404053 -0.0033192846458405256 0.0026089767925441265 0.01180795393884182 0.00016484437219332904 0.0014847859274595976 0.006717393174767494 -0.023343227803707123 0.010543929412961006 -0.01264788769185543 0.01549465674906969 -0.020721275359392166 0.004190592095255852 0.0032646122854202986 -0.0049540395848453045 0.006632523611187935 0.0008488144958391786 -0.01926635578274727 -0.006439193617552519 -0.004879445303231478 -0.006357716396450996 -0.02541283331811428 -0.014020921662449837 0.0023367805406451225 0.0010851847473531961 -0.022830678150057793 -0.00012728186266031116 0.009561351500451565 0.005219995975494385 -0.005025664810091257 -0.02616921253502369 0.011287742294371128 0.0036857023369520903 0.013527984730899334 -0.016603026539087296 0.003753956640139222 0.013254011981189251 -0.014245091937482357 0.021612243726849556 0.0024008145555853844 -0.013564121909439564 -0.01200956292450428 -0.005924667697399855 -0.03345196694135666 -0.017528746277093887 0.00044319569133222103 0.028465190902352333 -0.01561938226222992 -0.0023820726200938225 -0.015792550519108772 -0.01111181266605854 -0.01664874516427517 0.009684107266366482 0.009392781183123589 0.0022366747725754976 0.007579435594379902 0.011200645007193089 0.003923922777175903 0.0024445808958262205 -0.005984715186059475 -0.03238966315984726 0.0014891547616571188 0.0011233135592192411 0.0184431504458189 -0.031275443732738495 -0.0022704843431711197 0.012266754172742367 0.0042287977412343025 -0.009387334808707237 0.0036554760299623013 0.015664996579289436 0.027792925015091896 0.00993881095200777 0.0031943258363753557 -0.0356425978243351 -0.012540675699710846 -0.0033898204565048218 -0.009123764932155609 -0.002841036533936858 0.01777745969593525 -0.0026302209589630365 0.018445974215865135 0.02145039476454258 -0.0003076047287322581 0.003826289437711239 -0.008531546220183372 -0.002050606068223715 -0.013044252060353756 0.016196034848690033 -0.0008223039912991226 -0.019552791491150856 -0.007401217706501484 0.02997637912631035 0.021536285057663918 0.010897347703576088 -0.0082192188128829 -0.0032049992587417364 0.014887482859194279 -0.0027701170183718204 0.012603005394339561 0.0007735097897239029 -0.009391197934746742 -0.007686719298362732 0.015804745256900787 0.012270085513591766 0.013317402452230453 0.000826194416731596 0.029002415016293526 -0.003955800086259842 0.012681541033089161 0.013051394373178482 -0.0016578033100813627 -0.016527285799384117 -0.02295692265033722 0.03691602125763893 -0.015331202186644077 -0.005082951858639717 -0.0014001006493344903 0.0017827621195465326 0.011170143261551857 -0.005810204893350601 0.014277242124080658 0.012834888882935047 0.014761808328330517 0.009432748891413212 -0.01337591465562582 -0.01756100542843342 0.006651654373854399 -0.006569841876626015 -0.00210952409543097 0.017249582335352898 -0.020240167155861855 -0.020543940365314484 -0.01688472554087639 0.016117295250296593 0.000488590681925416 0.0026472334284335375 -0.02322213351726532 -0.01567777432501316 -0.02416185848414898 -0.011837594211101532 0.007955272682011127 0.012822371907532215 0.011568598449230194 -0.0008566415635868907 0.02354302443563938 0.010264554060995579 -0.018482333049178123 -0.003969436511397362 0.014867894351482391 -0.004444874823093414 -0.016954772174358368 -0.0019397243158891797 -0.005872612353414297 -0.035621024668216705 -0.012645632959902287 0.017104169353842735 0.005191384349018335 0.003065595868974924 0.028527451679110527 -0.013542168773710728 -0.008830455131828785 -0.023207388818264008 0.005457564722746611 0.008351506665349007 -0.029842985793948174 -0.007394392043352127 -0.0012554689310491085 0.004697505850344896 0.0038040908984839916 0.015405964106321335 0.0003044919576495886 0.011539127677679062 0.012488116510212421 0.006575864739716053 -0.0030400806572288275 0.0003263902908656746 -0.0052915532141923904 0.04322499781847 -0.03747367858886719 -0.008263548836112022 0.005011179018765688 0.004305332433432341 0.00015259109204635024 -0.01588108390569687 0.004439107142388821 -0.01088560651987791 -0.0019526935648173094 0.012341983616352081 0.0055114757269620895 0.025791337713599205 0.008481436409056187 -0.006013427395373583 -0.009120707400143147 -0.0005535668460652232 0.0014197685522958636 -0.006816427689045668 -0.003943928517401218 -0.006943229120224714 -0.0043736109510064125 -0.0038674110546708107 -0.0045492625795304775 -0.013728467747569084 0.001275482471100986 0.005053374450653791 0.0097584780305624 -0.01479598693549633 -0.0018474014941602945 -0.000987567356787622 -0.014331482350826263 0.009730595164000988 0.015408555045723915 -0.008112017996609211 -0.009474566206336021 0.01546604186296463 -0.006168990395963192 0.013248155824840069 0.004786654841154814 0.021160488948225975 -0.004813461098819971 -0.013211559504270554 0.006638113874942064 -0.012044758535921574 -0.01615697517991066 -0.007148646283894777 -0.00972012896090746 0.012873053550720215 0.009902538731694221 0.00012114283163100481 0.01955689862370491 0.0028107401449233294 0.0038490379229187965 -0.002571444259956479 -0.014239005744457245 -0.006072763819247484 0.021264301612973213 -0.0027853187639266253 0.006612700410187244 0.0006097130826674402 -0.019928595051169395 -0.017526235431432724 0.028160154819488525 0.035350825637578964 -0.01722448132932186 -0.007087415549904108 -0.021943669766187668 -0.009047632105648518 -0.011627140454947948 -0.017098568379878998 -0.003601064207032323 -0.001207997091114521 -0.011913028545677662 -0.02052449993789196 -0.007162668276578188 -0.0004465008096303791 0.005815444048494101 0.002981377299875021 -0.003266011131927371 -0.00627627270296216 0.01927005685865879 0.020580030977725983 0.0029502667021006346 0.011714468710124493 0.0017158091068267822 -0.010339255444705486 0.007064785808324814 -0.011863439343869686 0.027012979611754417 -0.0005528601468540728 0.011863610707223415 0.011492956429719925 0.016262969002127647 -0.021609626710414886 0.008835508488118649 0.01630968414247036 0.00022659871319774538 -0.002931819064542651 0.006838987581431866 0.0019967423286288977 0.018551385030150414 -0.025156743824481964 -0.0047661359421908855 0.0016779644647613168 -0.007734028156846762 -0.0010796855203807354 0.008956991136074066 -0.0016194568015635014 0.00918834749609232 0.00543254753574729 0.002777773654088378 0.007464262656867504 0.01046915352344513 0.00919041596353054 -0.021685943007469177 0.0066221412271261215 -0.010651066899299622 -0.021458616480231285 0.016712026670575142 -0.029167529195547104 0.00806762371212244 0.01520033273845911 -0.008245090954005718 -0.011658141389489174 0.024944251403212547 -0.01565486378967762 0.02953350730240345 -0.012211970053613186 -0.011398171074688435 -0.007407102268189192 0.0037387595511972904 0.0007915884489193559 0.001287519233301282 0.004951500333845615 0.02058417908847332 -0.006095261313021183 -0.006566483527421951 -0.005984824150800705 0.02145516499876976 0.005478403531014919 0.002428303938359022 0.0029419660568237305 -0.014857769943773746 0.02110135369002819 -0.0010337971616536379 -0.0006292119505815208 -0.0020841225050389767 -0.006490846164524555 -0.0026158152613788843 -0.021848909556865692 0.008922642096877098 -0.014680321328341961 0.002325627952814102 0.00782331358641386 -0.013457407243549824 -0.01706274226307869 -0.0002724215737544 0.006352920085191727 -0.0016207905719056726 0.008407817222177982 -0.011352958157658577 0.006439227610826492 -0.0007586965803056955 -1.2485479601309635e-05 -0.016980551183223724 0.014533473178744316 -0.004069080576300621 0.012022747658193111 -0.0017805208917707205 -0.025517748668789864 -0.010617957450449467 -0.01254104170948267 0.007749037817120552 0.017713136970996857 -0.00813062209635973 -0.0007029165280982852 -0.011493916623294353 -0.03008013404905796 -0.01654685288667679 0.006868866737931967 0.0021797572262585163 0.0046208505518734455 -0.007573980372399092 0.024499712511897087 0.004706900101155043 -0.010544123128056526 0.018553968518972397 0.017961552366614342 0.00293831923045218 -0.015482223592698574 -0.017627596855163574 -0.0023455098271369934 -0.011363725177943707 -0.011412885040044785 0.032542597502470016 -0.017169546335935593 -0.00795891135931015 0.014544202014803886 -0.015632757917046547 0.002666980028152466 -0.025634899735450745 -0.009602096863090992 0.019267613068223 0.013182858005166054 0.02568308636546135 -0.00902725663036108 -0.008149152621626854 -0.023494884371757507 -3.6946563341189176e-05 0.013487335294485092 -0.017441047355532646 0.01397780328989029 -0.0043338388204574585 0.007793725002557039 -0.021503353491425514 -0.007161103188991547 -0.002122577978298068 -0.006103753577917814 -0.0007479240885004401 0.010978547856211662 -0.004363022278994322 0.016501039266586304 0.013017085380852222 0.010567002929747105 -0.008757594041526318 -0.017572995275259018 0.0056759873405098915 -0.0061086430214345455 0.0076697394251823425 0.004957625176757574 -0.022782253101468086 0.009428108111023903 0.00465701799839735 0.0005328063853085041 0.008808932267129421 0.02169954404234886 0.001257347408682108 0.0028109101112931967 -0.010981139726936817 0.001543583464808762 -0.01632915809750557 -0.008217611350119114 0.017540063709020615 0.019152574241161346 -0.012054608203470707 -0.002640233840793371 -0.00524902855977416 0.01808629371225834 0.010585756041109562 -0.000813844264484942 -0.008312326855957508 0.028723817318677902 -0.01241553109139204 -0.0029980384279042482 0.0137986671179533 0.009192509576678276 2.3378303012577817e-05 -0.0014176672557368875 -0.018847154453396797 -0.006841409485787153 0.0059499479830265045 0.006933786906301975 0.03213096037507057 -0.00936836190521717 0.009726538322865963 -0.016033776104450226 -0.003709010547026992 -0.016495082527399063 0.027783088386058807 -0.010347310453653336 -0.008180436678230762 -0.019147654995322227 -0.006792847998440266 0.00500547606498003 -0.012785274535417557 0.011199023574590683 0.013283181935548782 0.0011491532204672694 0.008820897899568081 0.01081669982522726 -0.0025525495875626802 -0.009497874416410923 0.01272590458393097 0.011738762259483337 0.02349567972123623 -0.008147443644702435 -0.003245204221457243 -0.014290726743638515 -0.02471548318862915 -0.013670490123331547 0.009885551407933235 -0.0019348951755091548 -0.0026008321437984705 0.012966164387762547 0.03141523152589798 -0.0016882693162187934 0.0171203650534153 -0.012207998894155025 0.0177762471139431 -0.022984273731708527 -0.004047711845487356 0.005393764469772577 0.026738720014691353 -0.01648060604929924 -0.0302880872040987 -0.005100431386381388 0.007422042079269886 0.0024931267835199833 -0.007445981726050377 -0.008080624043941498 -0.002343440195545554 -0.0018899558344855905 -0.0016143491957336664 -0.014920518733561039 0.00852149911224842 0.002918089972808957 0.004116579424589872 0.009794714860618114 0.005892414133995771 -0.002073202980682254 -0.01699858345091343 0.012248805724084377 0.009794040583074093 0.024457573890686035 0.004282618407160044 0.007812549360096455 0.0028036716394126415 0.017046859487891197 0.007760568987578154 -0.00929004792124033 -0.02174173668026924 0.0014328141696751118 -9.552191477268934e-05 0.012034083716571331 0.01278726290911436 0.01703055389225483 -0.013159310445189476 -0.009206956252455711 -0.0029945059213787317 -0.002929639769718051 -0.0058912355452775955 -0.015205282717943192 -0.005796605721116066 -0.007607133127748966 0.005163517314940691 0.0038144525606185198 -0.025822188705205917 -0.0036824450362473726 0.024208953604102135 0.021352488547563553 0.003350578946992755 0.012836279347538948 0.007067346945405006 -0.008401945233345032 -0.002040234161540866 0.0012947387294843793 0.005286142695695162 -0.016411028802394867 0.010629738681018353 -0.006844003219157457 0.004531258251518011 -0.004905190318822861 0.025795819237828255 -0.0166866946965456 0.004838953725993633 -0.006044226232916117 -0.023483894765377045 0.005142935086041689 0.011578119359910488 0.0061356122605502605 0.01880023442208767 0.012829539366066456 0.0029059969820082188 -0.005897356662899256 0.01509866677224636 -0.0019442110788077116 -0.011976710520684719 0.0041386825032532215 0.008377008140087128 -0.034262511879205704 0.017437027767300606 -0.002431754022836685 0.0022316281683743 0.014492351561784744 0.021086620166897774 0.029312532395124435 -0.0034811238292604685 0.0061531029641628265 -0.0056803589686751366 0.022102320566773415 -0.013660134747624397 0.003992761019617319 -0.0004015098384115845 0.01073894277215004 -0.018408386036753654 -0.003986530937254429 0.02371632307767868 0.022486820816993713 -0.02846071869134903 -0.009294496849179268 0.01529064029455185 0.014688496477901936 0.01359599269926548 0.008860044181346893 -0.009006496518850327 0.013190323486924171 -0.013953040353953838 -0.001234298455528915 -0.024688517674803734 0.01112216804176569 -0.008409704081714153 -0.0007123732357285917 -0.0002918459358625114 0.008400864899158478 0.008449375629425049 0.004349950235337019 -0.02796691283583641 -0.0035094204358756542 -0.003998020198196173 -0.0007773612160235643 -0.005041507538408041 -0.007923569530248642 0.026686981320381165 0.004250176716595888 -0.00526004284620285 -0.02110779657959938 0.01410099770873785 -0.03008577600121498 -0.019674019888043404 -0.007343559991568327 -0.007927987724542618 -0.014423305168747902 0.02007557637989521 -0.001933068037033081 -0.004916774574667215 0.011586114764213562 -0.01877269521355629 0.00968108605593443 -0.0087215481325984 0.004264939110726118 -0.011948815546929836 -0.018341686576604843 0.011464107781648636 0.0010366333881393075 -0.0009052854729816318 0.026029543951153755 0.003677055472508073 -0.0012936475686728954 -0.0051592146046459675 0.014181835576891899 0.019022855907678604 -0.0066235181875526905 0.0273878276348114 0.03196685388684273 -0.005740937311202288 0.007033453322947025 -0.02479064278304577 -0.01091771014034748 -0.032709524035453796 -0.00950542651116848 0.0020880321972072124 -0.02546420879662037 0.018356895074248314 0.016286861151456833 0.006087278947234154 0.024861350655555725 -0.01089190412312746 0.00026135798543691635 -0.00433338200673461 0.014910044148564339 -0.011781913228332996 -0.014269357547163963 0.039046481251716614 -0.013304508291184902 0.015493987128138542 -0.0016855720896273851 -0.010939981788396835 -0.035287775099277496 -0.0198109969496727 0.007134718354791403 0.011130672879517078 -0.0020562512800097466 0.008819100446999073 -0.000562528963200748 0.0044683171436190605 -0.007515183184295893 0.0018454076489433646 0.007197961676865816 -0.011341615580022335 -0.0034312403295189142 -0.014243808574974537 -0.005766135174781084 0.016959358006715775 -0.019562309607863426 0.0009703960968181491 -0.011524643748998642 0.020598456263542175 4.6780594857409596e-05 -0.007005296181887388 -0.0021471837535500526 -0.009608257561922073 0.025598980486392975 0.02355222962796688 -0.017064688727259636 0.011782824993133545 -0.009359482675790787 0.005283640697598457 -0.00436851242557168 0.015235704369843006 0.00949760153889656 -0.011018886230885983 -0.007827503606677055 -0.0079215532168746 0.030282745137810707 -0.0029886425472795963 4.237074972479604e-05 0.00019908440299332142 0.0047439089976251125 -0.01551014930009842 -0.01718808524310589 0.01741848886013031 0.016342030838131905 0.013558824546635151 0.007940530776977539 0.015280211344361305 -0.014546765014529228 -0.019372358918190002 0.031530652195215225 -0.009222238324582577 -0.013231941498816013 -0.02105107344686985 0.004687614273279905 -0.0075905886478722095 -0.0026749749667942524 0.007963098585605621 -0.042730994522571564 0.015293660573661327 -0.008128791116178036 0.017535578459501266 0.006617468781769276 0.014933949336409569 0.030072098597884178 0.006562567315995693 -0.026012929156422615 0.016299640759825706 -0.007481358479708433 0.016657033935189247 0.000426963233621791 -0.007755056489259005 0.04335559532046318 -0.014084216207265854 -0.01256342139095068 -0.004805776756256819 -0.005306062754243612 -0.002822090405970812 0.00476136663928628 0.0010689659975469112 -0.008871498517692089 0.004629753530025482 0.008998490869998932 -0.040615759789943695 -0.009609038941562176 0.016681881621479988 0.002072843024507165 0.014800154604017735 -0.02134842984378338 0.014896542765200138 0.004040122032165527 -0.02893925830721855 -0.0034888265654444695 0.010124752297997475 0.010421267710626125 -0.011189315468072891 -0.020113874226808548 -0.011363067664206028 0.005167981144040823 0.004638076294213533 -0.004764963407069445 -0.020378397777676582 -0.021482199430465698 0.014445794746279716 -0.00837841909378767 -0.012341117486357689 0.017026623710989952 -0.0072431666776537895 -0.0007623467827215791 0.015656761825084686 -0.003959656693041325 0.013470166362822056 -0.01322774589061737 -0.0012997770681977272 0.00978856347501278 0.006839448120445013 -0.019020801410079002 0.017189079895615578 -0.0011264779604971409 0.0036140340380370617 0.009734563529491425 -0.001304149511270225 0.010774862952530384 0.016410741955041885 -0.014229784719645977 -0.005997735075652599 -0.010916659608483315 0.0057634273543953896 -0.0019840095192193985 0.006973081734031439 0.009154744446277618 -0.011961223557591438 -0.006799215450882912 -0.011713828891515732 -0.0034750571940094233 -0.0007524657994508743 -0.004121425561606884 0.0021590804681181908 -0.003907947335392237 -0.0072389752604067326 0.000964513688813895 -0.01986951194703579 -0.026360411196947098 -0.008918419480323792 0.017080672085285187 0.02872501313686371 -0.003837497439235449 -0.0003847299958579242 -0.00869124848395586 -0.0027380429673939943 0.018943002447485924 0.00046918998123146594 -0.0029467151034623384 -0.006110000889748335 0.0015958119183778763 0.00040772443753667176 0.0021299731452018023 0.014309489168226719 0.018737832084298134 0.000767755089327693 -0.025730809196829796 -0.004899568855762482 0.002559300744906068 0.009609433822333813 -0.010103159584105015 -0.0009417804540134966 0.01306447945535183 -0.0004987371503375471 -0.005301809869706631 -0.011525284498929977 -0.007904049940407276 0.0101750073954463 0.01439713779836893 0.0005249576061032712 0.0159760732203722 -0.02308819629251957 -0.0010873419232666492 -0.030604228377342224 0.007501654326915741 -0.005795988719910383 -0.023125721141695976 0.0003232199524063617 0.0028408442158252 0.0010008573299273849 0.024012701585888863 0.014771271497011185 -0.0015839196275919676 -0.01451193355023861 0.014662167057394981 0.016225559636950493 0.00579230347648263 -0.00045938623952679336 -0.025469955056905746 0.0066294302232563496 0.020982488989830017 0.015830496326088905 -0.02067681774497032 -0.017971675843000412 -0.014768654480576515 0.02653910033404827 0.003772375173866749 -0.025857651606202126 0.0014585715252906084 0.0077841030433773994 0.009322740137577057 0.008176945149898529 -0.0019487274112179875 -0.0085098622366786 0.0022489470429718494 0.0010140377562493086 -0.015980824828147888 -0.02301640622317791 0.001340265036560595 0.005351950414478779 -0.01969965547323227 -0.023057900369167328 0.004329416900873184 -0.008686132729053497 0.02210366353392601 0.0035666811745613813 0.01169543620198965 0.03869148716330528 -0.003588832449167967 0.002954794093966484 -0.014687229879200459 -0.012269437313079834 -0.006980435457080603 0.0014312705025076866 -0.01970919594168663 -0.003805746091529727 -0.0069185905158519745 -0.017822902649641037 0.00131571339443326 0.029245495796203613 -0.00553985545411706 0.0022822327446192503 -0.00476006418466568 -0.031273968517780304 0.002054383512586355 -0.000817044812720269 0.011722066439688206 -0.028778361156582832 -0.0030778544023633003 0.018748780712485313 0.016321316361427307 -0.02586444653570652 0.006818181369453669 0.015113952569663525 0.0015605154912918806 0.0027102807071059942 0.0036407599691301584 -0.024164147675037384 -0.00026339481701143086 -0.013318182900547981 0.02351890690624714 -0.0006621697684749961 0.0010034226579591632 0.01563802734017372 0.00019299544510431588 -0.007524439599364996 -0.016241610050201416 0.01756240613758564 0.007143927272409201 -0.002555001061409712 0.01839401386678219 -0.007334202062338591 -0.011004025116562843 0.0030979833099991083 -0.032662373036146164 0.018434952944517136 0.00937341433018446 -0.0065101743675768375 4.073554737260565e-05 0.006232294719666243 -0.012262777425348759 -0.024204129353165627 0.004965744446963072 -0.0029252420645207167 0.01239776611328125 0.015082404017448425 0.004312300588935614 -0.005442994646728039 0.0031559597700834274 0.028720024973154068 0.012291043996810913 -0.010584368370473385 0.006587606854736805 0.009953015483915806 -0.008414318785071373 -0.010046739131212234 0.0010874585714191198 0.01483328640460968 0.013690789230167866 -0.012393925338983536 0.006500324234366417 -0.01842321828007698 -0.0034925458021461964 -0.010151995345950127 0.0024803217966109514 -0.0003746606525965035 -0.005477197468280792 -0.00463858712464571 -0.014466103166341782 -0.015394734218716621 0.02112485282123089 -0.010133280418813229 -0.012607797048985958 0.0036702186334878206 -0.016748907044529915 0.015634596347808838 -0.011468316428363323 0.029689714312553406 0.025172267109155655 0.010603109374642372 -0.01905692368745804 0.012651094235479832 0.015003465116024017 -0.004948138725012541 0.015271250158548355 -0.004198723938316107 -0.003021031152456999 0.025673167780041695 -0.003910755272954702 -0.01013302244246006 -0.0018903169548138976 -0.01947712153196335 0.0005004078848287463 -0.006544443778693676 0.010889922268688679 -0.0085089560598135 -0.0014591597719118 -0.006590800825506449 -0.017082171514630318 -0.004192724358290434 0.0009197245235554874 -0.009813452139496803 0.0031901972834020853 -0.017591290175914764 -0.011170527897775173 0.01307032909244299 0.003960225731134415 -0.012082118541002274 0.020466584712266922 -0.0026784169021993876 0.0030362531542778015 -0.01566043123602867 -0.003898623399436474 0.0032862478401511908 0.002818548586219549 -0.007858729921281338 -0.010341665707528591 0.007766774855554104 0.022842610254883766 -0.011297346092760563 -0.0016719026025384665 -0.010814744047820568 0.007646932266652584 0.014476632699370384 0.011503449641168118 0.013148341327905655 0.010113217867910862 -0.0037744538858532906 -0.011470837518572807 0.005523160565644503 -0.006498519331216812 -0.01194869726896286 0.004972362890839577 0.01761806569993496 0.011986890807747841 0.010245498269796371 -0.0019143532263115048 -0.008811160922050476 0.002913601463660598 -0.013296788558363914 0.0113550815731287 -0.030403265729546547 -0.010759184136986732 0.0003348716127220541 0.013770482502877712 0.007478749379515648 0.01550991740077734 0.031030254438519478 0.005646550562232733 0.024861594662070274 -0.009733939543366432 0.0031470295507460833 -0.021183088421821594 0.002368943067267537 0.00646100752055645 -0.0097852423787117 -0.007058135699480772 0.029993856325745583 -0.019267451018095016 0.0011395636247470975 -0.01595897227525711 -0.0005341435899026692 -0.008604435250163078 0.030053824186325073 -0.00657923799008131 -0.006852089427411556 -0.0004535832558758557 -0.0046955677680671215 0.030708646401762962 -0.002877503167837858 -0.025688612833619118 -0.016460491344332695 0.009225450456142426 0.014880719594657421 0.009672041051089764 0.01775950752198696 0.014971327967941761 0.010854064486920834 0.006388967856764793 -0.016138147562742233 -0.008324799127876759 0.03548911586403847 0.04372170940041542 -0.005508248694241047 0.019071636721491814 0.017642129212617874 -0.02080349624156952 0.0006122228805907071 -0.0246585663408041 0.02433919906616211 -0.005703364964574575 -0.013318406417965889 0.01717066951096058 0.01222270354628563 -0.018300725147128105 0.01300942525267601 0.010846144519746304 -0.0154092563316226 0.01406880747526884 -0.015002160333096981 -0.0005624685436487198 -0.010309657081961632 -0.010903672315180302 0.0071702818386256695 -0.03472760692238808 0.005942753050476313 0.01749699003994465 -0.014482653699815273 0.008382041938602924 0.016672750934958458 -0.0028854464180767536 -0.0057761771604418755 0.012574245221912861 0.016255930066108704 0.0007439943728968501 0.0187968946993351 0.020545661449432373 0.011809040792286396 -0.006596469320356846 -0.012864171527326107 -0.011970468796789646 -0.016344984993338585 0.002843968803063035 -0.011797928251326084 0.0027270757127553225 0.014427253976464272 -0.013020158745348454 0.010390671901404858 -0.0056543657556176186 0.0023453347384929657 -0.008057809434831142 -0.0031202014070004225 0.0013476790627464652 -0.01195724867284298 0.014199947007000446 0.006190343759953976 0.01804955303668976 0.01022264827042818 -0.016770636662840843 0.0068000792525708675 -0.0017182589508593082 -0.010045780800282955 -0.01953071542084217 -0.0168069489300251 0.004154748748987913 0.012326798401772976 -0.0056416941806674 0.012914459221065044 0.016893737018108368 -0.00453172018751502 -0.007637542672455311 0.003240370424464345 0.006287022028118372 -0.014563745819032192 0.005301254335790873 -0.006297031883150339 0.02490072138607502 0.020924674347043037 -0.002200087998062372 0.006393544375896454 -0.0024801085237413645 -0.012033948674798012 -0.015454471111297607 0.001966446405276656 5.277480522636324e-05 -0.00552709586918354 0.0005242800107225776 0.0022338253911584616 -0.008136552758514881 0.010943252593278885 -0.0048820143565535545 -0.0045779794454574585 0.00626895809546113 -0.007989893667399883 -0.0017269742675125599 0.008104495704174042 -0.00809537060558796 0.007163774222135544 -0.016619330272078514 0.002762983553111553 -0.0033801482059061527 -0.009845604188740253 -0.009539660066366196 0.017914438620209694 0.0017944913124665618 0.007422762457281351 0.0012936550192534924 0.006331336684525013 0.008947629481554031 0.004318142309784889 -0.01276386808604002 -0.014053300023078918 0.015580174513161182 -0.003184726694598794 0.007431234233081341 0.023379039019346237 -0.000655108829960227 0.005168338306248188 0.0008720614132471383 0.007236695382744074 -0.017304791137576103 0.0098125534132123 0.00967317633330822 0.00104181666392833 -0.00761033920571208 -0.00011617393465712667 0.009676573798060417 -0.00521219102665782 0.022982219234108925 0.0009431471116840839 -0.011960381641983986 -0.005629082676023245 -0.008636187762022018 -0.012166467495262623 0.0007229018374346197 -0.00017843380919657648 0.002335669007152319 -0.015119397081434727 0.007152778096497059 0.028707653284072876 -0.0015948506770655513 0.0005925543373450637 -0.011301061138510704 -0.016904324293136597 0.0124365771189332 -0.007722161244601011 -0.0308145210146904 0.00876010674983263 0.005703628994524479 -0.001635560765862465 -0.003791168099269271 4.122726750210859e-05 -0.0002561221190262586 0.019604844972491264 -0.013554099015891552 -0.008244979195296764 -0.018130159005522728 -0.00867740623652935 0.00618419935926795 -0.0022960882633924484 -0.02287857048213482 0.020379427820444107 -0.017049042508006096 0.007551178801804781 -0.007078446913510561 0.0051139588467776775 0.009846742264926434 0.013561013154685497 0.009136137552559376 0.009202610701322556 0.01802481897175312 0.022919723764061928 -0.0031507774256169796 -0.0021623908542096615 -0.013841364532709122 -0.020766276866197586 -0.0001511911686975509 -0.0011335849994793534 -0.02484050765633583 0.0024988942313939333 0.007997128181159496 -0.015430732630193233 -0.026021933183073997 -0.0437907911837101 -0.007472074590623379 0.012035326100885868 -0.008963358588516712 0.037697382271289825 -0.03585829213261604 -0.015223715454339981 0.02250128611922264 -0.0020957414526492357 0.016403626650571823 0.006697809789329767 -0.023400908336043358 -0.014119945466518402 -0.007596243172883987 0.0015680918004363775 -0.00025163768441416323 0.005479414481669664 -0.013856152072548866 -0.004193467553704977 0.006534846965223551 6.785093319194857e-06 0.012642215006053448 -0.010015377774834633 -0.007634198758751154 0.011536483652889729 0.010718896985054016 -0.027577636763453484 0.011054868809878826 0.009120929054915905 -0.0017784760566428304 -0.011194461025297642 0.010253271088004112 -0.004555995110422373 0.00995889212936163 -0.012228881008923054 0.006483290810137987 0.004459144547581673 -0.00883717741817236 0.003189265029504895 -0.02563108131289482 -0.009190263226628304 -0.0007343523902818561 -0.018582196906208992 0.003420853288844228 0.002253093058243394 -0.0013694878434762359 -0.012448469176888466 -0.034903377294540405 -0.0020303858909755945 0.0354115292429924 -0.0021832180209457874 0.008286016061902046 0.005827857181429863 0.012781600467860699 -0.026432646438479424 -0.00892226304858923 -0.0031605451367795467 0.006137568037956953 -0.01070669386535883 0.0005368266138248146 -0.005931961815804243 -0.008567636832594872 -0.020979322493076324 0.00018826198356691748 0.0042106993496418 -0.004565308801829815 6.3807383412495255e-06 -0.01317720115184784 -0.00055814313236624 -0.006963793188333511 0.026080019772052765 0.014675084501504898 0.025834325700998306 0.010370725765824318 -0.006951000075787306 0.013054640963673592 0.00586651312187314 -0.0007560298545286059 0.013644295744597912 -0.020889287814497948 -0.014953642152249813 0.0011378084309399128 -0.019366225227713585 0.014896516688168049 -0.006047441158443689 -0.008147184737026691 0.011046530678868294 -0.008749713189899921 -0.020838996395468712 -0.013505355454981327 -0.0076072439551353455 0.022937847301363945 -0.008928352035582066 0.0015116074355319142 -0.012740259058773518 -0.009190021082758904 0.023108869791030884 -7.842888589948416e-05 0.022755522280931473 -0.022500792518258095 -0.014134379103779793 0.0004892683355137706 0.015496453270316124 -0.011097917333245277 0.025325968861579895 0.015249702148139477 0.0232179407030344 -0.0026497971266508102 0.01788095012307167 -0.016145097091794014 -0.021622586995363235 0.018978631123900414 -0.013163886964321136 0.018297653645277023 0.005129403900355101 0.0016693578800186515 7.837521116016433e-05 -0.022695859894156456 0.014637937769293785 -0.0092801284044981 0.012713669799268246 0.003482043743133545 0.0013735998654738069 0.010193836875259876 0.009777805767953396 -0.005135096609592438 0.023783467710018158 0.01685541495680809 -0.020665926858782768 -0.016284717246890068 0.005984039977192879 0.002622919622808695 0.00386891420930624 0.02437290921807289 -0.012968229129910469 0.009285356849431992 -0.012735116295516491 0.015622437931597233 0.011448215693235397 0.001622763811610639 -0.006332428194582462 0.006148142274469137 -0.016950128600001335 0.009783703833818436 -0.017732426524162292 0.00039129419019445777 -0.03628900647163391 0.011286338791251183 -0.004925230983644724 0.009331811219453812 0.008584469556808472 -0.006554176565259695 -0.007250454742461443 -0.022640105336904526 0.0077887303195893764 -0.01770513504743576 0.0031630024313926697 -0.016503702849149704 0.005558782257139683 -2.6312940462958068e-05 0.0010500246426090598 -0.004010224249213934 -0.004950540605932474 0.02170519530773163 -0.003861590288579464 -0.014144102111458778 -0.001552413566969335 -0.01901794970035553 -0.0004164303245488554 -0.01598903350532055 -0.003482332220301032 0.027554675936698914 -0.006637405138462782 -0.004958549048751593 0.013322697021067142 0.000546736700925976 -0.01698997989296913 0.02144905924797058 -0.0041477615013718605 0.011157620698213577 -0.008215085603296757 -0.009601105935871601 0.014237148687243462 -0.024368470534682274 -0.017093587666749954 0.00712162209674716 0.024380233138799667 0.012810014188289642 0.023081883788108826 -0.005292836576700211 0.006995897274464369 -0.005220838822424412 -0.014907583594322205 0.001261560944840312 -0.006365247070789337 0.005930809769779444 -0.010057897306978703 0.005275537259876728 -0.0024683817755430937 -0.0046853190287947655 -0.006040586158633232 0.00117122835945338 0.007251120172441006 -0.00043506757356226444 -0.004030997399240732 -0.003939169924706221 -0.0010373125551268458 -0.0022342761512845755 -0.0022285853046923876 -0.0324799045920372 -0.014939351007342339 0.008515970781445503 -0.004739483818411827 0.00032916266354732215 0.014130494557321072 0.0037793752271682024 -0.0014044780982658267 -0.001986293587833643 -0.009063094854354858 -0.0016177615616470575 0.009982582181692123 -0.001936615793965757 0.012770289555191994 0.00022342169540934265 0.007719444110989571 0.011829279363155365 0.010271893814206123 -0.004058538470417261 0.01769537292420864 -0.009097835049033165 0.004904039204120636 0.01021224819123745 0.019778691232204437 0.0019440798787400126 -0.012075809761881828 0.01361303124576807 0.008755456656217575 0.014672767370939255 -0.011490955017507076 -0.017261791974306107 -0.012501553632318974 -0.015565392561256886 -0.013133673928678036 0.0145206768065691 0.002349821850657463 -0.02135315351188183 -0.0005778228514827788 -0.0183258093893528 0.013683422468602657 0.017331980168819427 0.0002394098846707493 0.0058975364081561565 -0.009845810011029243 0.00886427890509367 -0.024363625794649124 0.005140849854797125 -3.601974458433688e-05 -0.011724070645868778 0.004322851542383432 0.00572154950350523 0.0034966159146279097 -0.004764629062265158 0.0065387943759560585 -0.018911471590399742 0.010053585283458233 -0.022199997678399086 0.010858466848731041 -0.02392006479203701 -0.003001169301569462 -0.013171007856726646 -0.0003917593858204782 -0.016885871067643166 0.008187603205442429 0.013035496696829796 0.0010577255161479115 -0.0032714619301259518 0.0379408523440361 -0.009246919304132462 -0.006370163522660732 0.015088066458702087 0.03416753560304642 -0.0012916995910927653 0.007052046712487936 -0.003328296123072505 0.011560703627765179 -0.002747867489233613 -0.007632323075085878 0.04315350577235222 0.005129274912178516 0.029396001249551773 0.004896747879683971 0.00341480178758502 -0.016616085544228554 -0.0037506797816604376 -0.03424275666475296 0.0034778041299432516 -0.0032867351546883583 -0.0020090800244361162 -0.002140149474143982 -0.0027692639268934727 -0.019682126119732857 -0.03338312730193138 -0.013658339157700539 -0.01886359415948391 0.01108118612319231 -0.02936089225113392 -0.004552115686237812 0.012263969518244267 -0.02982953190803528 0.019748032093048096 -0.005538315512239933 0.009095462039113045 -1.9724710000446066e-05 -0.01263308897614479 0.0187995582818985 -0.02640596032142639 -0.020893387496471405 3.725973510881886e-05 -0.003716988256201148 0.0033499738201498985 0.021687403321266174 -0.01517583429813385 -0.0015598833560943604 -0.02738937735557556 0.011400340124964714 -0.009140253067016602 -0.0191507525742054 -0.00013508183474186808 -0.000991359120234847 0.009138625115156174 0.007528735790401697 -0.004447099752724171 -0.0073539260774850845 -0.014411838725209236 -0.011959175579249859 0.0004924191161990166 0.004447879735380411 -0.015261012129485607 0.0022720908746123314 -0.003881399519741535 0.003512699156999588 0.013868022710084915 0.01239771582186222 -0.010816147550940514 -0.018992004916071892 0.0055511146783828735 0.0007604995043948293 0.0011390866711735725 0.0046033188700675964 0.01311400905251503 -0.010160231031477451 -0.011283465661108494 -0.015310101211071014 -0.012734348885715008 -0.004229529295116663 0.01924392208456993 0.008003759197890759 -0.01853017322719097 -0.0019821408204734325 0.002997011411935091 -0.019450606778264046 -0.019884178414940834 -0.0006840307614766061 0.001110317651182413 0.0055108023807406425 -0.008993861265480518 0.00274919206276536 -0.014134583063423634 0.002509867772459984 -0.013996991328895092 -0.022061917930841446 0.01521459873765707 -0.0010850491235032678 0.005096900276839733 -0.0014912356855347753 -0.0010867711389437318 0.02275971509516239 0.03259880840778351 0.020861290395259857 -0.0069214715622365475 -0.006379704922437668 0.002015802776440978 -0.009001652710139751 -0.00535962451249361 -0.01756875216960907 -0.002536880550906062 -0.02550855651497841 -6.602863140869886e-05 0.005215411074459553 -0.004650550428777933 -0.015984592959284782 0.008785294368863106 -0.02124323509633541 -0.014194220304489136 -0.007915457710623741 0.025208795443177223 -0.0019686345476657152 -0.0015068546636030078 0.017383532598614693 0.014839609153568745 -0.015023432672023773 0.0003204300010111183 0.007197315338999033 0.018166018649935722 0.0055799721740186214 0.010012101382017136 0.014669330790638924 -0.020477868616580963 0.006171883083879948 -0.018831994384527206 0.010815149173140526 -0.009240795858204365 0.025361377745866776 -0.019589141011238098 -0.029764264822006226 0.010703091509640217 0.012444921769201756 -0.0011363645317032933 -0.027130817994475365 -0.007275971118360758 -0.004579457454383373 0.013444333337247372 0.005093022249639034 0.007401434239000082 0.01578899472951889 -0.009191300719976425 -0.015040049329400063 0.021420318633317947 -0.0010614953935146332 0.007929018698632717 0.010548175312578678 -0.008893667720258236 -0.014273280277848244 -0.011650891043245792 0.004815019201487303 -0.006660406943410635 -0.006194198504090309 -0.012063183821737766 0.00815748330205679 0.008245516568422318 0.0051516094245016575 0.002999043557792902 0.010446707718074322 0.022284429520368576 0.015464973635971546 0.0023587339092046022 0.003920834045857191 0.020812904462218285 -0.012098978273570538 -0.012236455455422401 -0.0003394773229956627 0.009256863035261631 0.0036110039800405502 0.010241996496915817 0.004952177405357361 0.022742610424757004 -0.018434854224324226 0.017392555251717567 0.0062187183648347855 0.0024480377323925495 -0.011766849085688591 -0.0006798018584959209 -0.017097290605306625 0.006935114972293377 0.004672172479331493 -0.01176940742880106 -0.013052085414528847 0.004305880516767502 -0.023807602003216743 0.01245510671287775 -0.009844262152910233 -0.023978160694241524 0.0025119001511484385 0.01547673437744379 -0.007833697833120823 -0.002627394627779722 -0.020467929542064667 0.0032083969563245773 -0.0009970666142180562 -0.001662392751313746 -0.030133062973618507 0.0010520159266889095 -0.01030719093978405 -0.0022278560791164637 0.008883961476385593 -0.0006615557358600199 -0.009001340717077255 -0.0030628833919763565 -0.015952248126268387 0.017231309786438942 -0.017081893980503082 0.04321887344121933 -0.011416987515985966 -0.014985472895205021 0.027956727892160416 -0.015447412617504597 0.011489135213196278 -0.006721599958837032 -0.0422106571495533 0.010269898921251297 -0.007319735363125801 0.01632419228553772 -0.004389612469822168 0.0055721355602145195 0.0012863802257925272 -0.02811732329428196 -0.00556660583242774 0.010044539347290993 0.015575846657156944 0.006257313769310713 0.008579595014452934 0.0049550193361938 -0.004411500878632069 0.0034365584142506123 0.006248510908335447 0.0034696354996412992 0.01731567643582821 0.01297717448323965 0.041695043444633484 -0.00399788748472929 0.019834117963910103 0.008235376328229904 0.0003796791424974799 0.015554898418486118 0.011629398912191391 -0.000348041532561183 -0.0109240198507905 -0.015637854114174843 0.0013907247921451926 -0.015616634860634804 -0.016326412558555603 0.015687618404626846 0.0015099085867404938 0.0074537075124681 -0.014911760576069355 0.007049672771245241 -0.009919591248035431 0.01207385677844286 -0.008619727566838264 -0.013432780280709267 -0.00048134682583622634 -0.01687314175069332 -0.00545586459338665 -0.007917681708931923 -0.012608185410499573 -0.02462116815149784 -0.010115484707057476 -0.031717099249362946 -0.008035963401198387 0.021585294976830482 0.01974351331591606 -0.005426506046205759 0.031015697866678238 -0.001347910612821579 -0.006449195556342602 -0.00010275995737174526 -0.008426741696894169 0.0014965772861614823 0.005138743668794632 0.008302424103021622 -0.0012160810874775052 -0.0166203361004591 0.004022855777293444 0.005760436411947012 0.019254177808761597 0.0054427627474069595 0.003148058196529746 -0.028087351471185684 0.0076315030455589294 0.011172151193022728 -0.026839451864361763 0.0028104858938604593 -0.014081868343055248 -0.016198601573705673 -0.008185453712940216 0.003760199761018157 0.0004937031189911067 -0.0003973612328991294 0.006050800904631615 -0.0034298175014555454 0.005947783589363098 0.0036080176942050457 -0.01463665533810854 0.023416811600327492 -0.023558175191283226 -0.022081797942519188 -0.022720590233802795 0.00568021833896637 0.012273735366761684 -0.005151741206645966 -0.005833737552165985 -0.00808851420879364 -0.006471576169133186 -0.0019179309019818902 0.025038132444024086 -0.008487474173307419 -0.020411305129528046 -0.007484653498977423 0.01781412959098816 0.014619817025959492 -0.004469586536288261 0.01699952222406864 -0.008069774135947227 -0.009292861446738243 -0.022755980491638184 0.01504549477249384 0.006247461773455143 -0.0025574699975550175 -0.005343286320567131 0.015388799831271172 -0.012522426433861256 0.019940003752708435 -0.0212200079113245 -0.016842132434248924 -0.008327208459377289 -0.009894832968711853 -0.010538446716964245 0.0017888919683173299 0.008982890285551548 -0.0030399030074477196 0.020067203789949417 0.006832860875874758 0.004415261559188366 0.013696572743356228 0.009867355227470398 -0.020725930109620094 0.009668219834566116 -0.014840485528111458 0.0078400494530797 0.009288273751735687 -0.019681619480252266 -0.003956611733883619 0.012552627362310886 0.0101773114874959 -0.0076122949831187725 -0.03238033875823021 0.0042169224470853806 0.0035862713120877743 0.007436080370098352 0.001019214396364987 -0.019776111468672752 0.01395693514496088 0.0007667859317734838 -0.00466765183955431 0.0036969566717743874 -0.010016847401857376 -0.021886326372623444 -0.004597999155521393 0.005186045076698065 -0.020728830248117447 -0.0011632820824161172 -0.030233602970838547 -0.011778230778872967 0.0038642592262476683 0.016658775508403778 0.001301801879890263 -0.02070249244570732 0.000841746455989778 0.0135577991604805 -0.009815963916480541 -0.012190650217235088 0.013802662491798401 0.010095920413732529 -0.0033317056950181723 -0.007840283215045929 -0.006208449136465788 0.004625486675649881 0.018805554136633873 -0.01028432510793209 -0.010761973448097706 0.020609496161341667 0.0023184968158602715 -0.006322488654404879 -0.004836202599108219 0.00417719641700387 0.0015146509977057576 -0.018401190638542175 -0.024820903316140175 -0.02234151028096676 -0.021093906834721565 0.0024007123429328203 0.01743634045124054 0.00966765359044075 0.008450044319033623 -0.027397936210036278 0.01085418090224266 0.006514853332191706 -0.003558163298293948 -0.021350139752030373 -0.007422568276524544 0.005216534715145826 0.01636490412056446 0.0006709193112328649 -0.0090358080342412 0.0003224920073989779 -0.010534875094890594 -0.004966923501342535 0.012539719231426716 0.0006873263628222048 -0.01095803827047348 -0.012823929078876972 -0.010236050002276897 0.019738787785172462 0.003600048366934061 0.018568582832813263 -0.033751074224710464 0.009034166112542152 0.007617683615535498 0.015288230963051319 0.0004886324750259519 0.021063705906271935 -0.019169727340340614 -0.022291885688900948 0.006144070066511631 -0.010498251765966415 -0.011201105080544949 0.018610801547765732 -0.01914086751639843 -0.0009202995570376515 -0.03002600371837616 0.0025299759581685066 -0.02102658525109291 -0.007455052342265844 0.009989824146032333 0.018529966473579407 -0.0048607997596263885 -0.002765862736850977 -0.014249404892325401 -0.014685668982565403 -0.014870819635689259 0.013094073161482811 0.010424764826893806 -0.014573859982192516 0.017431996762752533 0.02442115917801857 -0.0007449142867699265 0.004920267499983311 0.01824333332479 0.009076530113816261 0.01486435066908598 0.008032679557800293 0.0029003110248595476 0.019313938915729523 0.0167743731290102 0.03935838118195534 -0.011849337257444859 -0.010715628042817116 0.002157533075660467 0.008579318411648273 0.0022410303354263306 0.002048410242423415 0.010176245123147964 -0.003301267046481371 -0.021778101101517677 0.011908398009836674 -0.0054578701965510845 0.015611859038472176 0.022175969555974007 -0.0076700234785676 0.00382637744769454 -0.01319754309952259 0.023514632135629654 -0.004138705786317587 -0.0063524069264531136 -0.012616411782801151 -0.0031193932518363 -0.0050350818783044815 -0.009989297948777676 -0.007404836360365152 -0.0030387481674551964 0.011709197424352169 -0.001487002824433148 0.00875946506857872 -0.00668324762955308 0.021191593259572983 -0.001786610810086131 -0.014723755419254303 -0.02424388937652111 -0.0033491605427116156 0.004148931708186865 -0.004373096860945225 0.010028251446783543 0.005219418555498123 0.0206899456679821 0.008316957391798496 0.015857752412557602 0.008384699933230877 0.0014577549882233143 0.013282375410199165 0.0023475103080272675 -0.001269363216124475 -0.017321815714240074 0.0015745206037536263 -0.0031088588293641806 -0.0053942701779305935 -0.012274873442947865 -0.011579595506191254 0.0034229394514113665 0.02911720611155033 -0.01624610275030136 -0.007543396670371294 0.0021436389070004225 -0.025645555928349495 -0.005726722069084644 0.011511101387441158 -0.0030866072047501802 0.022159915417432785 0.017802389338612556 0.001762268366292119 0.0015765634598210454 0.003783843945711851 -0.00416861567646265 -0.005758592393249273 0.011171413585543633 0.016298098489642143 0.004060533829033375 -0.0025325831957161427 0.011182683520019054 -0.013178898021578789 0.00039454427314922214 -0.02182111144065857 0.012578829191625118 -3.24705324601382e-05 -0.025000443682074547 0.0010733946692198515 -0.01335984282195568 0.00915498100221157 0.019655417650938034 0.006123274099081755 0.012831071391701698 -0.007674059364944696 -0.007382131181657314 -0.01257642824202776 -0.008683946914970875 -0.01831282116472721 0.020048467442393303 0.010108830407261848 -0.008001337759196758 0.015303751453757286 -0.005023209378123283 -0.019219109788537025 -0.011174890212714672 -0.01662311889231205 -0.013052312657237053 0.01144652720540762 0.0053757005371153355 -0.013441270217299461 -0.016739144921302795 -0.006857607048004866 0.0052709272131323814 0.0030697695910930634 0.018063092604279518 0.009151754900813103 0.006740039214491844 -0.011291325092315674 0.005012813955545425 0.00556326424703002 -0.0034464176278561354 -0.0011759353801608086 -0.00490162055939436 -0.01524164155125618 0.009965525008738041 -0.005902227479964495 -0.0005481033003889024 0.020795157179236412 0.018555564805865288 0.009592014364898205 0.010534100234508514 0.0031719075050204992 0.009755909442901611 -0.020294860005378723 0.009367148391902447 -9.398355177836493e-05 -0.013362063094973564 0.015717776492238045 -0.0012195900781080127 -0.03236941993236542 0.003662482835352421 -0.016022954136133194 -0.013913653790950775 0.00573808653280139 -0.001962523441761732 -0.009271549992263317 0.0010674215154722333 -0.02489747293293476 -0.01982477679848671 0.007966438308358192 0.018541458994150162 -8.436879579676315e-05 0.008170121349394321 0.02751103788614273 0.006487477570772171 -0.012905201874673367 0.008875933475792408 0.007458156906068325 -0.0032110719475895166 -0.009451845660805702 0.012341272085905075 -0.009947994723916054 0.025384312495589256 0.010612991638481617 0.0011622210731729865 -0.016746748238801956 0.006615754682570696 -0.02908378280699253 0.008059092797338963 0.017789606004953384 0.0028041882906109095 -0.013913029804825783 -0.020423393696546555 0.025378964841365814 0.008658264763653278 -0.01708116941154003 0.010450810194015503 0.01168729830533266 0.008338981308043003 0.015741964802145958 0.017864890396595 0.010851653292775154 -0.005150195676833391 -0.0153598478063941 -0.003863038495182991 0.010349636897444725 -0.0023825294338166714 0.0024795562494546175 0.013335391879081726 -0.004528303164988756 0.018192142248153687 -0.026143642142415047 -0.013153398409485817 -0.015076960436999798 0.006229320541024208 -0.01848907396197319 0.01071860734373331 -0.010584897361695766 -0.0007263376610353589 -0.0044203284196555614 0.017649836838245392 0.00028575590113177896 0.009702392853796482 -0.007212855853140354 0.006775713991373777 -0.013044392690062523 0.01871645636856556 -0.009802156127989292 -0.015502087771892548 -0.0006139710312709212 0.0061746989376842976 -0.023200390860438347 -0.008336631581187248 -0.00791845377534628 0.008830786682665348 -0.01850723661482334 -0.0011591039365157485 0.0043062870390713215 0.00789677258580923 0.015043999068439007 -0.012928299605846405 0.006519632413983345 0.003733611200004816 0.023852236568927765 0.0335942842066288 8.882008114596829e-05 0.005126129370182753 -0.00721616018563509 -0.015476935543119907 0.014989214017987251 0.001851384644396603 0.011219492182135582 -0.0036538676358759403 0.001555970055051148 0.005093722138553858 -0.00560541870072484 0.011706762947142124 -0.01126079261302948 -0.005364499520510435 -0.018439609557390213 0.011409727856516838 0.01161871012300253 0.012193011119961739 0.01255685556679964 -0.006497718393802643 0.005955449305474758 -0.033918265253305435 0.021990733221173286 0.02877907082438469 0.018540648743510246 0.007808775641024113 -0.0029870287980884314 -0.0014867178397253156 -0.0071135880425572395 -0.009931327775120735 0.009502775967121124 -0.024096541106700897 0.018707243725657463 -0.013158153742551804 -0.004924955777823925 -0.025096792727708817 0.002999902004376054 0.003085181349888444 0.01664641685783863 -0.010529492050409317 -0.011841736733913422 0.009421678259968758 0.007614058442413807 0.0025366786867380142 0.02328971028327942 0.0066092233173549175 -0.027172042056918144 -0.013065675273537636 0.010346898809075356 -0.011605475097894669 0.008159411139786243 0.0021585833746939898 -0.02396688424050808 -0.00756677333265543 -0.015380113385617733 -0.009607754647731781 0.016887713223695755 0.015811646357178688 0.012578482739627361 0.0008724755607545376 -0.014056948944926262 0.0006391624920070171 -0.0004044552624691278 -0.0025588495191186666 -0.0031508714891970158 0.005723273381590843 0.03508962318301201 -0.014652068726718426 0.0003380215785000473 -0.024947496131062508 0.006156866438686848 -0.01902487315237522 -0.019952602684497833 -0.004898544400930405 -0.0018196869641542435 -0.010376299731433392 0.002694020513445139 -0.02253294363617897 0.005586391314864159 0.014287128113210201 -0.004051460884511471 -0.010803943499922752 0.007792438846081495 -0.01356764230877161 -0.003665929427370429 -0.009184972383081913 -0.013863821513950825 0.00783386267721653 0.02040272206068039 -0.006088002119213343 0.012620911933481693 0.014153741300106049 0.012877270579338074 0.009423634968698025 0.019370416179299355 -0.014128105714917183 0.007256951183080673 -0.0005611817468889058 0.016988582909107208 -0.005547123029828072 0.007189480122178793 0.0010783623438328505 0.00468028848990798 -0.010174695402383804 -0.001971558900550008 -0.008572829887270927 -0.01983712799847126 0.01982375793159008 0.02960280515253544 0.014766563661396503 -0.013792408630251884 0.019623003900051117 -0.007518456783145666 0.00728263845667243 -0.008561816066503525 -0.003748585470020771 0.020500287413597107 -0.02282269485294819 0.00747311394661665 0.01315364707261324 0.0028470216784626245 0.02442958764731884 0.013507358729839325 -0.010767237283289433 0.005991518031805754 0.004391058348119259 0.003163021756336093 -0.00478588230907917 -0.006916276179254055 0.0005272732232697308 0.01413472555577755 0.021019604057073593 -0.009014002047479153 -0.007151441182941198 0.018034465610980988 -0.009833120740950108 0.013017748482525349 0.008339832536876202 -0.001156384707428515 0.0005887506413273513 0.007666601799428463 -0.0026342133060097694 0.0018868007464334369 -0.019847482442855835 0.017708374187350273 0.006913239601999521 -0.003276573261246085 -0.004930013325065374 0.0007258603000082076 0.0016633969498798251 -0.0038931206800043583 -0.017281590029597282 0.0015293306205421686 -0.00880869384855032 0.027075087651610374 0.017945732921361923 -0.0023968771565705538 -0.031257882714271545 0.009216547943651676 0.02123544178903103 0.02158607915043831 -0.03612944111227989 0.00973891094326973 0.0026496178470551968 0.02997674234211445 -0.03261178731918335 -0.015823855996131897 0.0011625004699453712 -0.002527970355004072 0.015091078355908394 -0.0005221835453994572 -0.015391401946544647 -0.012191996909677982 0.00342685729265213 -0.010111069306731224 0.018436942249536514 -0.0018726761918514967 0.013050981797277927 0.002883264096453786 -0.0033937511034309864 -0.023998990654945374 -0.029955876991152763 0.0038513129111379385 -0.0011520691914483905 0.010303786024451256 0.011142373085021973 -0.01526153739541769 0.001466399640776217 0.027660652995109558 -0.011155272834002972 -0.0035797797609120607 0.023509914055466652 0.012628316879272461 0.029791221022605896 0.0012379573890939355 -0.019861573353409767 -0.003329709405079484 0.0317736491560936 -0.002155085327103734 0.023038826882839203 0.0037237643264234066 -0.01674945093691349 0.01765090599656105 -0.009642121382057667 0.01921568065881729 0.04557206109166145 -0.01052369736135006 0.023756638169288635 -0.014543861150741577 -0.00017481594113633037 0.013194716535508633 -0.008534770458936691 -0.007450760342180729 0.005080390255898237 -0.0051333545707166195 -0.0075241136364638805 -0.005718396045267582 -0.01291065663099289 -0.0048826816491782665 0.00174456846434623 -0.01951473020017147 -0.0017090912442654371 -0.00960527267307043 0.03288865461945534 0.0037886686623096466 -0.006195488851517439 0.006755628623068333 -0.03253171965479851 0.02693580836057663 -0.01610245183110237 0.010210644453763962 0.017611108720302582 -0.004044834058731794 -0.0034738110844045877 -0.03051922842860222 -0.022190649062395096 0.018562164157629013 0.004303580150008202 0.005445515736937523 -0.0047033801674842834 0.01596893183887005 -0.004552139434963465 0.000874481862410903 -0.01708884723484516 -0.008680664002895355 0.012650508433580399 0.021266235038638115 0.014473332092165947 0.016167692840099335 -0.014502993784844875 0.011739484034478664 -0.015022248961031437 0.008285026997327805 -0.013723470270633698 -0.022524716332554817 0.010294760577380657 -0.009162635542452335 0.00500083202496171 0.01262583862990141 -0.028427831828594208 0.005061362870037556 0.006200712639838457 0.009600112214684486 -0.004929381422698498 -0.0017061338294297457 -0.020508000627160072 -0.003992071375250816 0.0004376192227937281 0.012497557327151299 0.018465518951416016 -0.0070098391734063625 0.00026950525352731347 -0.007800078950822353 -0.017853181809186935 0.01623597741127014 0.00023243864416144788 -0.020054183900356293 0.010999687016010284 -0.015823056921362877 -0.007815849967300892 -0.005686321761459112 0.02246013656258583 -0.00971901323646307 0.010126198641955853 0.02248292975127697 -0.008022172376513481 0.0013021298218518496 0.004985538311302662 -0.010110393166542053 0.005276245530694723 -0.015235007740557194 0.014269066974520683 0.007561936043202877 -0.014484241604804993 -0.012233462184667587 0.005068695638328791 -0.0006470256485044956 -0.009497092105448246 0.018598077818751335 0.031588200479745865 0.0003808233595918864 -0.008670919574797153 0.000995777896605432 0.009396558627486229 -0.004839673638343811 -0.014931970275938511 0.01640026830136776 -0.006794842425733805 -0.008337657898664474 0.016013510525226593 0.012902435846626759 -0.038511451333761215 0.020542126148939133 0.022482169792056084 -0.023653510957956314 -0.019346201792359352 0.022534556686878204 0.004074709955602884 -0.015779707580804825 0.010992055758833885 -0.0028286173474043608 -0.018485521897673607 -0.017164865508675575 0.007146752905100584 -0.0029557025991380215 0.0076277730986475945 0.013787321746349335 0.003947312943637371 -0.009661824442446232 0.013260121457278728 0.008407470770180225 0.001006517792120576 -0.01111371349543333 0.006109300069510937 0.00378455501049757 0.00524797523394227 -0.009133690968155861 -0.014087120071053505 0.004382993094623089 -0.009371177293360233 -0.012346265837550163 0.0022740131244063377 0.013523772358894348 -0.04409575089812279 -0.013234374113380909 0.012251083739101887 0.011874457821249962 -0.010312617756426334 0.009312652051448822 -0.004078189376741648 0.012363255955278873 -0.004761628340929747 -0.007486471440643072 0.015641730278730392 -0.014162526465952396 -0.0198321882635355 -0.016472822055220604 -0.012909894809126854 -0.014357169158756733 0.001971365651115775 -0.007903278805315495 0.00665478827431798 -0.013379309326410294 -0.015138575807213783 -0.003317340509966016 -0.008230644278228283 0.010651253163814545 -0.026080705225467682 -0.0017790206475183368 -0.028850506991147995 -0.024539481848478317 -0.002842441201210022 0.005536670796573162 -0.003910712897777557 -0.00011197639105375856 0.014216296374797821 -0.015221014618873596 0.004150945693254471 -0.011225488968193531 0.012327941134572029 0.0016894839936867356 0.0018036741530522704 0.013189716264605522 0.014442096464335918 0.009221702814102173 -0.00039439433021470904 0.023574190214276314 0.022483380511403084 -0.006319615989923477 -0.0006956170545890927 -0.004841644782572985 -0.0016857553273439407 0.004344858694821596 -0.002483225427567959 -0.003144468879327178 -0.03156328946352005 -0.006243893876671791 0.012113228440284729 0.014738177880644798 0.0034764129668474197 0.002789073856547475 0.010289201512932777 -0.007427160162478685 0.011252704076468945 -0.025958118960261345 0.005593834910541773 -0.004204463213682175 0.012792675755918026 -0.009241746738553047 -0.006266579031944275 -0.01912045106291771 0.013480620458722115 -0.011395168490707874 0.007832652889192104 0.007237089332193136 -0.017020784318447113 0.015392706729471684 0.008889480493962765 0.01194466557353735 -0.022189725190401077 -0.010820288211107254 0.0002835954655893147 0.0005992556689307094 0.013609874062240124 0.008534209802746773 -0.009287616237998009 -0.024079786613583565 0.011063746176660061 -0.017850566655397415 0.0075908442959189415 0.011130028404295444 0.0007720160065218806 -0.0002910636248998344 -0.027524998411536217 -0.0041364156641066074 0.0006091278628446162 0.013171535916626453 -0.00550698209553957 0.00632900558412075 0.0035193609073758125 -0.01657150313258171 0.01851109229028225 -0.013182826340198517 0.011001408100128174 0.005570960231125355 -0.011786971241235733 -0.005332895554602146 -0.02010280080139637 0.0075476816855371 0.0038056611083447933 -0.003375078784301877 -0.004262309055775404 -0.007047326769679785 -0.027961675077676773 0.016033761203289032 -0.013731214217841625 -0.015503845177590847 -0.007770448457449675 0.004803914576768875 0.015207215212285519 0.0026817272882908583 -0.026093872264027596 0.01420730073004961 -0.007287307642400265 0.013689881190657616 -0.0013896268792450428 0.0014169610803946853 -0.010911162942647934 0.002952964510768652 0.0011783739319071174 -0.017254773527383804 0.012294304557144642 -0.021913869306445122 -0.008408061228692532 0.02307656966149807 0.011416369117796421 -0.010828663595020771 0.017250455915927887 0.018622254952788353 -0.0021328588481992483 0.005630021914839745 -0.016946176066994667 -0.00015543788322247565 0.0051328204572200775 0.006348888855427504 -0.0076090614311397076 -0.012062483467161655 0.020323261618614197 -0.031200742349028587 -0.01411177683621645 0.01846315711736679 -0.01905178837478161 0.021875876933336258 -0.001581250224262476 -0.02333139441907406 -0.004344456363469362 -0.012764939107000828 0.030625665560364723 -0.015423615463078022 0.0034909581299871206 -0.0017699936870485544 -0.00037997536128386855 0.004170060157775879 0.0010063662193715572 0.004463065881282091 -0.010387540794909 0.024247564375400543 -0.015924545004963875 0.0054412889294326305 0.005776338279247284 -0.00503637595102191 0.02012963965535164 0.014348143711686134 0.0004558900836855173 -0.016106203198432922 0.0029777088202536106 0.007071348838508129 0.0026391493156552315 -0.003701303619891405 0.01376018114387989 0.022928403690457344 -0.002752555999904871 -0.017569437623023987 0.01666412502527237 -0.00936963688582182 -0.03554576635360718 -0.03060321882367134 0.005383102223277092 -0.011988994665443897 0.0030420958064496517 0.002975733019411564 -0.01660587266087532 -0.012425192631781101 -0.012757170014083385 0.01930387131869793 0.007994030602276325 0.006500964518636465 -0.004828153643757105 0.0021855172235518694 0.009752454236149788 0.003130499040707946 0.0018383902497589588 -0.009090034291148186 -0.004135312512516975 0.0019231201149523258 -0.004604134242981672 -0.02858278714120388 0.006141112186014652 0.013153103180229664 0.0099185761064291 0.006532602943480015 0.000999817973934114 0.0056882440112531185 -0.01058975700289011 -0.0025082435458898544 0.006943562999367714 0.019435875117778778 0.009700669907033443 -0.015369142405688763 0.005594954360276461 -0.011840753257274628 0.009490755386650562 -0.010710100643336773 0.008797232061624527 -0.0027105731423944235 -0.01789182424545288 -0.01409901399165392 -0.007532451301813126 0.0031072390265762806 -0.022034544497728348 -0.021681305021047592 -0.0018611211562529206 0.005186922382563353 -0.004536129534244537 -0.026522226631641388 0.018630333244800568 0.0015188984107226133 -0.027286497876048088 0.010520389303565025 -0.02095290832221508 -0.014208171516656876 -0.019086729735136032 1.3700964700547047e-05 0.0024763138499110937 -0.014923765324056149 0.004250015132129192 -0.012872076593339443 -0.021500825881958008 0.005778267048299313 -0.04220855236053467 -0.00482122041285038 -0.0008216169080697 0.03342052176594734 -0.025251479819417 0.01154041476547718 0.009883242659270763 0.008128791116178036 0.0036584842018783092 0.004240044392645359 -0.005170438904315233 -0.0003716489009093493 0.008513378910720348 -0.01782134920358658 -0.005110506433993578 0.01755492202937603 -0.0017173326341435313 0.011334541253745556 0.00524509884417057 0.004329578019678593 -0.011768976226449013 0.0399177186191082 0.004359052050858736 -0.00793750211596489 0.004428809974342585 0.00622018426656723 0.005599788390100002 -0.011687290854752064 0.01173030212521553 -0.0005462139379233122 0.00615012226626277 -0.00020001656957902014 -0.003198133083060384 -0.011214949190616608 -0.026855772361159325 0.007639366667717695 0.0012008040212094784 -0.01086638867855072 0.013257165439426899 0.01681908592581749 -0.0021415140945464373 0.01051431056112051 -0.027529165148735046 -0.006498212926089764 -0.017699705436825752 0.013344218954443932 -0.004772884771227837 0.0033529659267514944 -0.0009529333910904825 0.01894223690032959 0.030249740928411484 -0.0040813046507537365 0.005729658994823694 0.012908224947750568 -0.013130038976669312 -0.009510606527328491 -0.014929916709661484 2.6810861527337693e-05 0.014488807879388332 -0.019989576190710068 0.00015481894661206752 0.01303783431649208 -0.016672465950250626 -0.007253252901136875 0.0003198816266376525 0.011767670512199402 5.720820263377391e-05 0.02240884304046631 -0.005991806276142597 -0.017314113676548004 -0.013504214584827423 -0.0036857943050563335 -0.012031911872327328 0.020724479109048843 -0.01033810805529356 -0.008456305600702763 -0.0025654525961726904 0.01467031892389059 -0.004404095467180014 0.03571486473083496 0.014113049954175949 0.015991471707820892 -0.018239527940750122 -0.02959299646317959 0.0004087448469363153 -0.004743519704788923 0.01557223778218031 -0.0036410330794751644 -0.025929665192961693 -0.016708698123693466 0.012454167008399963 0.007079617120325565 -0.010218067094683647 -0.002347232075408101 0.017998723313212395 -0.008307446725666523 0.017775915563106537 0.00416417233645916 0.00776622025296092 0.01920837163925171 0.012081609107553959 -0.0011788842966780066 0.019634608179330826 -0.016014011576771736 -0.010393339209258556 0.0010620553512126207 0.006368488073348999 -0.029815174639225006 -0.006058478262275457 0.021397538483142853 0.015360722318291664 0.00189714296720922 0.012579717673361301 -0.01917770504951477 -0.015082520432770252 -5.557651093113236e-05 0.00928732194006443 -0.008433273993432522 0.030065463855862617 -0.030627045780420303 -0.006738452240824699 -0.01926450990140438 0.008638491854071617 0.002840750152245164 -0.013099659234285355 0.029122469946742058 0.006234929896891117 0.007403338793665171 -0.014760102145373821 0.010370301082730293 -0.0159910898655653 0.009375947527587414 0.023873932659626007 -0.018967723473906517 -0.003412808058783412 0.0019243927672505379 0.029572680592536926 0.008845996111631393 -0.012466665357351303 0.011594767682254314 -0.01059773564338684 0.002543008653447032 0.010561247356235981 0.008941857144236565 -0.009786474518477917 -0.007645112928003073 0.012451433576643467 0.00011206569615751505 0.020994381979107857 -0.013012804090976715 -0.011774441227316856 -0.006976827047765255 -0.026080423966050148 0.027756262570619583 -0.005870039574801922 0.0074447994120419025 0.007119416259229183 0.011713006533682346 -0.017159385606646538 0.01410743873566389 -0.012678799219429493 0.007529635448008776 -0.006606811657547951 0.0028048530220985413 -0.014003312215209007 -0.00022412586258724332 -0.0039534117095172405 0.001302477321587503 0.00197250465862453 -0.009601316414773464 -0.013672955334186554 -0.019141001626849174 0.010867029428482056 0.01249486580491066 -0.016402285546064377 0.0156253669410944 -0.0024203318171203136 0.027281155809760094 -0.006162535864859819 -0.02055220678448677 -0.01712031289935112 0.006543753668665886 -0.017455434426665306 0.008392756804823875 0.004612262826412916 -0.0011315003503113985 0.004336475860327482 0.0168936625123024 0.004048597067594528 -0.013400254771113396 0.0012204950908198953 0.012077607214450836 0.018071945756673813 0.002154325833544135 0.0064344643615186214 0.013919327408075333 0.014398647472262383 0.0003992674173787236 0.007233790587633848 -0.002043540123850107 -0.014972595497965813 -0.02205176092684269 -0.010542700067162514 -0.008846847340464592 -0.031666796654462814 -0.012138986960053444 0.01575327478349209 0.02838760055601597 -0.0151323601603508 0.015279416926205158 -0.012103117071092129 -0.0012285768752917647 -0.002574595622718334 -0.016925178468227386 -0.0013102423399686813 0.022411463782191277 0.0032882525119930506 0.001271419576369226 -0.01022582408040762 0.0017480426467955112 0.00832941010594368 -0.01802370697259903 0.004161919001489878 0.007930563762784004 -0.0015244397800415754 -0.0008116159006021917 -0.009355315938591957 -0.015363465994596481 0.01203297358006239 0.01886807754635811 0.007273868657648563 0.014546229504048824 -0.01696363463997841 -0.011350734159350395 -0.028323573991656303 0.001831802073866129 -0.0018040178110823035 0.01584363728761673 -0.02418622374534607 -0.025194115936756134 -0.004110860638320446 -0.014243335463106632 0.004424746613949537 0.011996211484074593 0.01922103948891163 -0.008049109019339085 0.003764188149943948 -0.0044570667669177055 0.003951235208660364 -0.012833706103265285 -0.010768379084765911 0.026093337684869766 -0.0026734552811831236 0.02135041542351246 -0.004305968061089516 0.0049965158104896545 -0.005165026988834143 -0.00907060969620943 0.01025955006480217 -0.0011200282024219632 -0.015441516414284706 -0.0011863366235047579 -0.02095211111009121 0.00027974005206488073 -0.0013370811939239502 0.0060187154449522495 0.016839420422911644 -0.03244413807988167 -0.026220669969916344 -0.00048513157526031137 0.0018854853697121143 -0.011405888013541698 -0.003911309409886599 0.00021305287373252213 0.006978449411690235 0.0006151539273560047 0.005059683229774237 -0.010308909229934216 -0.023002298548817635 0.012756366282701492 0.004364795051515102 0.0025874560233205557 -0.01084534265100956 0.0009174834121949971 -0.01145472563803196 -0.009932897984981537 0.02123575285077095 0.027664413675665855 -0.007498858030885458 -0.035949841141700745 0.020893707871437073 0.008505881763994694 -0.009665221907198429 -0.00854816846549511 -9.540750033920631e-05 -0.0024601384066045284 -0.011761346831917763 0.026797324419021606 0.02176135778427124 0.01818470098078251 0.012491953559219837 0.0062018814496695995 0.006389216054230928 -0.025251179933547974 -0.019764961674809456 0.004462963901460171 -0.006123383529484272 0.0037882905453443527 -0.020709672942757607 -0.002825985662639141 0.03262706473469734 0.017341192811727524 -0.007331567350775003 0.014361769892275333 -0.0041124350391328335 0.004694011528044939 -0.002704146085307002 -0.003347056219354272 -0.00045160233275964856 0.007849671877920628 -0.019494231790304184 -0.00727813271805644 0.0019138159696012735 -0.03321082890033722 0.01255806814879179 0.0015883854357525706 -0.02327493578195572 -0.007847821339964867 -0.006203798111528158 -0.006101579871028662 0.008939465507864952 -0.005019184201955795 0.008254481479525566 0.0012300963280722499 0.002463419921696186 0.005311169661581516 0.0063368938863277435 -0.01064909528940916 0.0020688825752586126 0.009805701673030853 -0.01447642594575882 0.0005713352002203465 0.02482830546796322 0.008587152697145939 -0.029228627681732178 -0.012575853615999222 0.011427324265241623 0.00298497686162591 -0.021452028304338455 -0.0013110131258144975 0.00130832486320287 -0.0003409130440559238 0.00400390662252903 -0.022131534293293953 -0.014216023497283459 0.002167018363252282 -0.010682353749871254 -0.0005018122028559446 0.013999203220009804 -0.004228866193443537 0.014094258658587933 -0.022482672706246376 0.0014001819072291255 0.0030260810162872076 -0.003204164793714881 -0.04364481195807457 0.007975040934979916 -0.013027029111981392 0.019237635657191277 -0.020838474854826927 -0.003096192143857479 0.0033905976451933384 0.002499327762052417 0.013124656863510609 -0.012579899281263351 -0.01891435496509075 0.018441684544086456 -0.008632580749690533 0.0053271823562681675 0.008422494865953922 -0.012845096178352833 0.01680195890367031 -0.0004557189531624317 0.02172224596142769 -0.018362650647759438 -0.013237735256552696 0.011838641948997974 0.004062656778842211 0.011142895556986332 0.02190673165023327 0.014481630176305771 -0.01164554338902235 0.018431706354022026 -0.006562839262187481 -0.03081207163631916 0.0009055787813849747 -0.00944675412029028 -0.018591079860925674 -0.005813029129058123 0.008205993101000786 -0.013264556415379047 -0.011549921706318855 0.015471522696316242 0.009657281450927258 0.014365059323608875 -0.011540722101926804 -0.01702069863677025 -0.005133675877004862 -0.0014689249219372869 -0.0009895346593111753 0.0067746881395578384 0.012081008404493332 0.015867192298173904 -0.00041989528108388186 0.004265012219548225 0.015328455716371536 -0.0091208191588521 0.0028054139111191034 0.013456307351589203 -0.0009109258535318077 0.014085167087614536 0.012098307721316814 -0.008283481001853943 0.015666013583540916 -0.019764775410294533 0.014225187711417675 -0.012354603968560696 0.011495723389089108 -0.025098619982600212 -0.008723532781004906 0.01607278361916542 0.01097506657242775 0.017517901957035065 -0.003675364423543215 0.01312377117574215 -0.009792961180210114 0.008219442330300808 0.019641494378447533 -0.0045689367689192295 -0.006037813611328602 -0.01505221426486969 0.007825198583304882 -0.00705430842936039 -0.0300886407494545 0.005016769748181105 0.024207983165979385 -0.01938897930085659 -0.003934322390705347 0.006315913517028093 -0.010722498409450054 -0.006053860764950514 -0.0037588393315672874 0.02380746230483055 0.023707231506705284 0.011451366357505322 -0.013636280782520771 0.00538086099550128 0.00458971131592989 -0.0006620617350563407 0.007611273787915707 -0.006494580302387476 0.002208444057032466 -0.00780717795714736 -0.0015968144871294498 -0.00872811209410429 0.004583708010613918 0.016466885805130005 -0.0070114959962666035 0.010034972801804543 0.0038144404534250498 0.004495526198297739 0.009652889333665371 0.006083321291953325 -0.01357449684292078 0.01843797229230404 3.0884923035046086e-05 0.002190793864428997 -0.02344139665365219 -0.012514227069914341 0.009832690469920635 0.0018956713611260056 -0.023578133434057236 -0.023054610937833786 0.0022495780140161514 0.017874781042337418 -0.024827899411320686 0.002384498482570052 0.013993705622851849 0.005118370521813631 0.014702564105391502 -0.024944381788372993 0.018852027133107185 -0.011547522619366646 -0.00926290638744831 0.018877023831009865 -0.023197051137685776 0.0046503725461661816 0.02965148352086544 0.0028633789625018835 -0.007016434334218502 -0.02023010142147541 -0.02230670303106308 -0.011283950880169868 -0.004210303071886301 -0.019710110500454903 0.0057106418535113335 -0.02743682824075222 0.00493371719494462 0.002722664037719369 -0.004620795603841543 -0.021581001579761505 -0.008792313747107983 -0.012936824932694435 0.004204200115054846 0.010016468353569508 0.014391794800758362 -0.002662063343450427 0.014970696531236172 -0.006747731473296881 0.010020741261541843 -0.005631887819617987 0.03503148630261421 -0.003362452145665884 -0.0031128088012337685 0.031826622784137726 0.007250365801155567 -0.017552951350808144 0.0017483350820839405 -0.009951688349246979 0.009564721956849098 0.013464557938277721 -0.0028059419710189104 -0.0024550624657422304 -0.007710397709161043 0.015370608307421207 0.0026496942155063152 0.023625358939170837 -0.011927349492907524 -0.007298395503312349 0.002841673092916608 0.00212465925142169 -0.016895178705453873 0.012115277349948883 0.009452380239963531 -0.009400730021297932 0.017550501972436905 -0.003299912204965949 0.015877094119787216 -0.0006804129807278514 0.004476830363273621 -0.010229295119643211 -0.002476457506418228 -0.007015119772404432 -0.008945510722696781 -0.0012906197225674987 -0.022085851058363914 -0.026971394196152687 0.007794538978487253 -0.006634596269577742 0.02232212759554386 -0.007680934388190508 -0.008540138602256775 0.004226808901876211 0.007201432716101408 -0.0026158818509429693 0.010615158826112747 -0.005762884858995676 0.008678281679749489 -0.010237899608910084 -0.0041466401889920235 0.004599831532686949 0.031180690973997116 -0.004349066875874996 -0.009558018296957016 -0.01851784996688366 0.005161299370229244 -0.028874875977635384 -0.00596550153568387 -0.01581830345094204 0.01932893507182598 -0.0062887403182685375 0.009359924122691154 0.015520854853093624 -0.01059657335281372 -0.01883355714380741 0.017878474667668343 0.0072593302465975285 0.012878399342298508 0.006825026124715805 -0.020967571064829826 -0.002900051651522517 0.007571852300316095 0.008397489786148071 0.002804908435791731 -0.04066336899995804 0.009323150850832462 0.01975320465862751 -0.01275498978793621 0.02380686067044735 0.01682475581765175 -0.00805921945720911 0.0006327413721010089 0.011778045445680618 0.01882508583366871 -0.004030849318951368 0.0009607473621144891 0.008551724255084991 -0.00562085397541523 0.023635031655430794 0.00631496449932456 0.007310117594897747 -0.0033994202967733145 0.015168462879955769 0.0008104696753434837 -0.0029247161000967026 -0.017387842759490013 0.00377542688511312 -0.002079381374642253 0.019244935363531113 -0.00915229506790638 -0.014710172079503536 -0.017286961898207664 0.01665084809064865 0.005734752863645554 -0.01759606972336769 -0.017302269116044044 -0.009442882612347603 -0.0009475169354118407 0.008323322981595993 0.0024753822945058346 -0.02223607525229454 0.028662538155913353 -0.02198166213929653 0.0018485547043383121 0.0044713132083415985 -0.015230344608426094 -0.0040275417268276215 -0.0036011107731610537 -0.014469671994447708 -0.0021443557925522327 -0.0036348956637084484 0.028565067797899246 -0.006608196534216404 -0.0031016904395073652 -0.00299518508836627 -0.009303872473537922 0.01284229289740324 -0.010419242084026337 0.0062887826934456825 0.005453877616673708 0.015115542337298393 0.010511888191103935 0.009672548621892929 -0.0017783086514100432 -0.016914963722229004 -0.023996006697416306 -0.027416955679655075 -0.006990157067775726 -0.022675614804029465 0.011344721540808678 -0.003099887864664197 0.007963860407471657 -0.002957751741632819 -0.008124909363687038 0.011469010263681412 -0.005100323352962732 -0.0075376457534730434 -0.008485144004225731 0.018833372741937637 -0.022969527170062065 -0.009611235931515694 -0.005335282534360886 0.008916481398046017 -0.002065577544271946 -0.013135968707501888 0.007767202332615852 0.010532506741583347 0.008372622542083263 0.011246226727962494 0.023889992386102676 0.006140444427728653 0.014731812290847301 -0.012678299099206924 -0.010972904972732067 0.008713324554264545 -0.013097976334393024 0.009023853577673435 0.007676596753299236 -0.01598568819463253 0.018673619255423546 -0.01624912954866886 0.0008589315693825483 -0.0035471441224217415 0.0319291427731514 0.01610971800982952 0.006888020318001509 0.00799445528537035 0.010786201804876328 -0.009169508703052998 0.011876546777784824 0.006528536323457956 0.00118050049059093 -0.0010721052531152964 -0.018044713884592056 0.00860973633825779 -0.007351904176175594 0.02100047841668129 -0.016883857548236847 0.003517327131703496 0.002795774955302477 -0.0009278630022890866 0.003093201434239745 -0.00416790833696723 0.018498355522751808 0.025856994092464447 0.011425208300352097 -0.0032086758874356747 0.01501299999654293 0.0025259533431380987 0.006823887582868338 -0.008425644598901272 -0.010173659771680832 0.0045528532937169075 0.00637098541483283 -0.012532303109765053 -0.005971617065370083 -0.012708116322755814 0.010204424150288105 -0.023602407425642014 0.019518215209245682 -0.009962225332856178 0.0220910906791687 0.006433344911783934 -0.011067213490605354 -0.0037573508452624083 0.01459988858550787 -0.010587598197162151 -0.00875331275165081 0.0008141595171764493 0.003636132227256894 0.004617920145392418 0.0024293148890137672 -0.023039115592837334 -0.008048306219279766 -0.021016962826251984 0.00702845212072134 0.00981829036027193 -0.004699163604527712 0.013853329233825207 0.012601200491189957 0.007077520713210106 -0.021487273275852203 0.0063399095088243484 0.002200061921030283 -0.007315611932426691 -4.659097976400517e-05 0.008008906617760658 -0.013810006901621819 -0.01800958439707756 0.011089187115430832 0.011958638206124306 0.025364523753523827 -0.0012473183451220393 0.011433259584009647 0.0007117306813597679 0.011551321484148502 0.014380894601345062 -0.0016440099570900202 0.03593141958117485 0.025908758863806725 0.016514942049980164 -0.020518163219094276 0.00024286900588776916 -0.014121802523732185 0.03153464198112488 -0.004333408549427986 -0.013440411537885666 -0.0060826572589576244 -0.0017343494109809399 0.008272566832602024 -0.0038567560259252787 0.02227131836116314 0.0010114479809999466 -0.01073468942195177 -0.004065103363245726 0.027862384915351868 -0.02009146846830845 -0.016705062240362167 0.01630903035402298 -0.005649161525070667 0.026765357702970505 -0.008163992315530777 0.0013675090158358216 -0.00037323939613997936 0.0016835489077493548 -0.015548981726169586 0.017093297094106674 -0.006467936560511589 0.0158662311732769 -0.005764943081885576 -0.016504012048244476 0.007615313865244389 0.0014859276125207543 -0.012593955732882023 0.016416482627391815 0.03244303539395332 -0.010115648619830608 0.012185854837298393 -0.02344180829823017 -0.020368650555610657 -0.015495330095291138 0.0227641798555851 0.005011979956179857 0.00154024176299572 -0.010023191571235657 0.004795168060809374 -0.019615966826677322 0.003160335822030902 -0.017830628901720047 -0.012043974362313747 0.004033317323774099 0.010486826300621033 0.003639759961515665 0.010341247543692589 0.01737120933830738 0.032160695642232895 -0.011397304013371468 0.004899606108665466 0.013134957291185856 0.0006031301454640925 0.010366182774305344 -0.012446402572095394 0.0162484273314476 -0.001741466112434864 0.015254207886755466 0.001147261238656938 0.015048307366669178 0.003762641688808799 0.0006663381354883313 0.004238515626639128 0.007795121055096388 -0.0005816552438773215 0.012539640069007874 -0.019910119473934174 0.019167983904480934 -0.016124801710247993 -0.02966931462287903 0.0227308701723814 0.018664471805095673 -0.004619967192411423 -0.018992288038134575 0.008949801325798035 -0.003979263827204704 0.0062445239163935184 0.007624231278896332 0.0030619273893535137 -0.043211448937654495 -0.015591551549732685 0.002478758106008172 0.005558531731367111 0.007415242027491331 -0.02101554349064827 -0.021564824506640434 -0.01206156425178051 0.010422669351100922 -0.0013867769157513976 -0.00021170260151848197 -0.011004742234945297 -0.04419037327170372 0.013598816469311714 0.001813940703868866 -0.008733466267585754 0.01975039578974247 -0.00332469935528934 0.011073061265051365 0.005509637761861086 0.01711403578519821 0.018660353496670723 -0.001057737390510738 0.00878946390002966 -0.028478149324655533 -0.015232357196509838 -0.013845598325133324 0.016198668628931046 -0.03689644858241081 0.014049246907234192 -0.00581852113828063 0.007992266677320004 -0.007863051258027554 -0.001836162991821766 -0.015565107576549053 0.009817888028919697 0.012289642356336117 0.007257360965013504 -0.009385211393237114 0.019995907321572304 -0.015779199078679085 -0.012736187316477299 -0.005298247095197439 -0.00627831881865859 -0.025262437760829926 0.012343117967247963 -0.025346148759126663 -0.027244534343481064 -0.03094230405986309 -0.0017668392974883318 0.01444685086607933 0.0008646692149341106 -0.00021536502754315734 -0.013668745756149292 0.010621526278555393 -0.016332633793354034 -0.006504717282950878 0.020519236102700233 0.006455297581851482 0.00045270027476362884 0.010923120193183422 -0.0006563087808899581 -0.010496200993657112 -0.0074937548488378525 0.005473596043884754 0.015825023874640465 -0.008621634915471077 -0.004730381537228823 -0.008082174696028233 -0.002522529335692525 -0.0115609560161829 -0.018914202228188515 0.017348142340779305 -0.002584816887974739 0.004023824818432331 0.012257926166057587 -0.004056640900671482 0.009327152743935585 0.022302789613604546 -0.01281215250492096 0.010591113939881325 0.0033869093749672174 0.03331109136343002 -0.0010310960933566093 -0.017308538779616356 0.001899672206491232 -0.010533812455832958 0.003993009217083454 0.0076632872223854065 -0.034862130880355835 0.017991190776228905 -0.028277309611439705 -0.012732540257275105 -0.0067661902867257595 -0.012713290750980377 -0.003024846315383911 -0.02394481562077999 -0.010620871558785439 0.007059273775666952 -0.008911957032978535 -0.008037311024963856 -0.010477835312485695 -0.0012389502953737974 0.006771494634449482 0.014071880839765072 -0.024214768782258034 -0.0017342843348160386 0.007166950032114983 -0.0026686443015933037 0.010078595019876957 -0.008316932246088982 -0.01709938421845436 -0.03334682434797287 0.002965735737234354 0.0076630013063549995 -0.0023894135374575853 -0.01549397874623537 0.01990538276731968 -0.0159622635692358 -0.0035210466012358665 -0.007782361935824156 0.0343729630112648 -0.00743321655318141 0.008521358482539654 0.0016530074644833803 0.00017100929107982665 -0.011636254377663136 -0.013193795457482338 -0.02701905369758606 -0.008040132001042366 -0.01731366664171219 -0.015497677959501743 -0.007137317676097155 -0.01231417991220951 0.007131393067538738 -0.01940830983221531 0.012092838995158672 -0.022972047328948975 0.01831512339413166 0.013255782425403595 -0.006565898656845093 -0.013114670291543007 0.02727554365992546 0.006076626013964415 0.01060697715729475 -0.01463013980537653 -0.003054490312933922 -0.001251766923815012 0.02550002746284008 -0.03465741127729416 0.009953326545655727 0.019922593608498573 -0.012338822707533836 0.008649617433547974 0.0223369337618351 -0.005395851563662291 0.007002060767263174 0.01298577431589365 0.01114882156252861 0.012859915383160114 0.01602787896990776 -0.022161971777677536 0.0076547106727957726 0.027009671553969383 -0.013963802717626095 0.014462385326623917 0.009071245789527893 0.0025990719441324472 0.003433413803577423 -0.004317799583077431 -0.007896987721323967 -0.029622163623571396 -0.0007483178051188588 0.023891903460025787 -0.018545331433415413 -0.009861554950475693 0.0035103836562484503 0.005301451776176691 -0.0226663239300251 -0.02075888030230999 -0.007807407062500715 -0.02134082280099392 -0.0014672999968752265 -0.004010156262665987 0.014696569181978703 -0.010577607899904251 0.02583281323313713 -0.0019310329807922244 -0.015718664973974228 -0.009848506189882755 0.015718793496489525 -0.018837301060557365 -0.01103141624480486 0.009744185023009777 -0.012041212059557438 0.007154357153922319 -0.009119424968957901 0.016498537734150887 0.0024832526687532663 0.022662771865725517 -0.012307957746088505 -0.01656162366271019 0.004789772443473339 0.005569088738411665 0.0010355230187997222 -0.008558952249586582 0.011744927614927292 -0.010864928364753723 -0.006805564276874065 0.0037696666549891233 -0.010120565071702003 -0.018313104286789894 -0.0015794564969837666 -0.014137291349470615 0.00432196818292141 0.011954260990023613 0.017289044335484505 -0.02376149594783783 0.0157008096575737 0.017436424270272255 -0.005685953423380852 0.023089585825800896 0.0001085619514924474 -0.005852505099028349 -0.0019397892756387591 0.013427827507257462 -0.010010841302573681 -0.0016812740359455347 -0.007132974918931723 -0.01844385638833046 0.00750443059951067 0.018305210396647453 0.02574612759053707 0.0038597718812525272 0.006145590450614691 0.01141388714313507 0.0010318191489204764 -0.010374356061220169 -0.00868557021021843 -0.0033898840192705393 0.0006799998227506876 0.019904857501387596 0.017245758324861526 -0.02252134121954441 -0.01698073372244835 0.001300167292356491 0.00314404908567667 0.0012298753717914224 -0.0005052066408097744 -0.019509850069880486 -0.010389216244220734 0.010622607544064522 -0.04427912458777428 -0.016727222129702568 0.0016380464658141136 0.01552202831953764 0.015123728662729263 0.003944823984056711 0.03885098919272423 0.008802874013781548 -0.0011040844256058335 -0.0035417478065937757 -4.928111957269721e-05 -0.004455684684216976 -0.009789811447262764 0.004059814382344484 -0.016374779865145683 -0.01194316428154707 0.005738518200814724 -0.00905568990856409 0.008773775771260262 0.003494156990200281 0.0114390654489398 0.01447383500635624 -0.006884317379444838 5.05173702549655e-05 0.0019023849163204432 0.008716186508536339 -0.003004144411534071 -0.019785849377512932 -0.013323651626706123 0.009395613335072994 -0.017538875341415405 -0.005780577659606934 0.021636195480823517 0.004831342957913876 0.006143631879240274 -0.018441712483763695 0.02460320107638836 -0.015502715483307838 0.023431943729519844 0.009240539744496346 -0.01148565486073494 -0.017654864117503166 -0.00960342027246952 0.01541790459305048 0.01824817806482315 -0.010269470512866974 -0.00901782512664795 0.008397812023758888 0.0006443466409109533 0.011163626797497272 -0.007432153914123774 -0.01952252723276615 -0.007516422774642706 0.0004212622297927737 -0.014915155246853828 -0.01087815873324871 