0.00669944379478693 0.0049224551767110825 0.006825671065598726 -0.005657825153321028 0.004543098155409098 -0.006440509110689163 0.0012211579596623778 0.0025336933322250843 -0.008422191254794598 -0.013288095593452454 -0.005006232298910618 -0.00450447341427207 0.002690098248422146 0.004184011835604906 -0.006337461061775684 0.006562991067767143 -0.02233131229877472 -0.02183707244694233 -0.0015709858853369951 0.004534478299319744 0.00968456082046032 0.00016109368880279362 0.0049929749220609665 -0.002599483821541071 0.005284094251692295 -0.008733970113098621 -0.0010818947339430451 0.004588850773870945 -0.0002263305796077475 0.0027634454891085625 -0.01009596511721611 0.0031070669647306204 0.003947018645703793 0.0020173611119389534 0.003886098274961114 -0.003310785861685872 -0.014113553799688816 0.005197713617235422 0.009077855385839939 0.002821136498823762 0.0014848581049591303 0.0019358075223863125 -0.0022718426771461964 0.002667349996045232 0.0023025935515761375 0.0033489600755274296 0.00518721854314208 0.004356612451374531 -0.00023510822211392224 -0.015594654716551304 0.0009048253996297717 -0.0025525339879095554 0.006117197219282389 0.008935187011957169 0.0055830650962889194 -0.00015857172547839582 -0.0007623786223120987 0.003794347168877721 -0.0020807795226573944 0.0007197852246463299 -0.007933607324957848 0.005204515065997839 0.010688100010156631 0.012901225127279758 0.01774062030017376 0.0030867985915392637 -0.00860749650746584 0.003841308644041419 0.011767873540520668 -0.008467554114758968 -0.006096378434449434 0.0049748532474040985 -0.006890261545777321 -0.005878936033695936 0.003331131301820278 -0.012580513954162598 0.0012880126014351845 0.020701443776488304 -0.0026289031375199556 -0.00542804878205061 0.0035577919334173203 -0.00382601679302752 -0.010429933667182922 0.008277314715087414 -0.004298053681850433 -0.000818864384200424 0.00077264872379601 0.0003351533960085362 0.00475201103836298 -0.0035084309056401253 0.007207541260868311 0.009292633272707462 0.0033044905867427588 -0.006342368200421333 0.0031760046258568764 -0.010700024664402008 -0.003150372067466378 -0.0008866825955919921 -0.0028235954232513905 -0.0035380900371819735 0.003450807649642229 0.00019574578618630767 -0.003486630041152239 0.008366463705897331 -0.0002577891864348203 0.012195044197142124 -0.023639937862753868 0.00018630652630236 -0.003913420718163252 0.008616938255727291 -0.01024102047085762 -0.003950245212763548 -0.012213853187859058 0.0021070593502372503 -0.0025240310933440924 -0.0007336961571127176 -0.0038865446113049984 0.0024041940923780203 -0.0052559031173586845 0.009523743763566017 0.0018957492429763079 -0.001907351310364902 -0.007508681155741215 -0.005637305323034525 -0.00010340032895328477 0.004787327256053686 0.005228765774518251 0.006145641673356295 0.015014361590147018 0.0022555971518158913 -0.0021599463652819395 0.007452270016074181 -0.011161841452121735 0.0014083245769143105 0.01012937631458044 0.005139736458659172 -0.007996121421456337 -0.006683324929326773 0.013082357123494148 0.012460775673389435 -0.0017061734106391668 0.004019578453153372 -0.00779304513707757 0.017551004886627197 0.0016622759867459536 -0.010782843455672264 0.0019029261311516166 -0.010325123555958271 -0.0012730269227176905 -0.0081153754144907 -0.0031903223134577274 -0.001458559068851173 -0.0005062592681497335 0.0013032992137596011 -0.00019927135144826025 -0.0026426739059388638 -0.0019535718020051718 0.003507948713377118 0.0035935735795646906 0.006864944472908974 0.006466410122811794 -0.004346462432295084 -0.01447945274412632 0.003927212208509445 0.0019808420911431313 0.02034795470535755 -0.012620843946933746 -0.004750516265630722 -0.004558275919407606 0.0057283323258161545 -0.000573662284296006 0.005354637745767832 0.009185312315821648 0.0066677662543952465 -0.005210441537201405 0.005913401488214731 -0.010705719701945782 -0.007375615183264017 -0.013452106155455112 0.0011227549985051155 -0.000509419129230082 -0.0012978138402104378 -0.007159233558923006 -0.012424720451235771 -0.018787475302815437 -0.001267760875634849 0.009458203800022602 -0.003231344511732459 -0.00473793176934123 -0.003580740187317133 -0.003970376681536436 -0.0030325306579470634 -0.005576040595769882 0.005279428791254759 -0.007010208908468485 0.003265813458710909 0.000806876050774008 -0.01736832782626152 -0.005748824682086706 -0.009815472178161144 0.008506618440151215 0.003307345323264599 0.007328750565648079 -0.009067748673260212 -0.005157934967428446 0.022582119330763817 -0.010759806260466576 0.0028490666300058365 0.003395514562726021 -0.0089450404047966 -0.006076986901462078 0.0006800565170124173 -0.002294202335178852 0.01616630144417286 -0.013432677835226059 -0.009779623709619045 0.004240885842591524 -0.01045211497694254 0.0009639949421398342 0.0029752440750598907 -0.0001987398718483746 -0.0027005320880562067 -0.0002691259724088013 0.016998760402202606 -0.00693776598200202 -0.008805844001471996 0.01030023954808712 0.009277056902647018 -0.0046216268092393875 -0.017772581428289413 0.00413823127746582 0.008995283395051956 -0.002230640035122633 0.005931354593485594 0.005510502029210329 -0.006097801961004734 -0.004329083953052759 -0.010553236119449139 -0.011486247181892395 0.022015007212758064 0.002051381394267082 -0.02180512621998787 -0.0013395542046055198 0.0010595200583338737 0.005609255284070969 0.010343125090003014 -0.0039955200627446175 -0.0006583898211829364 0.01763215661048889 0.00039240624755620956 0.0051202112808823586 0.0009701646049506962 -0.004115252755582333 -0.006734119262546301 -0.005050859414041042 0.004370860289782286 0.0032542357221245766 -0.007796572055667639 0.00629139831289649 0.013271365314722061 -0.0002679554163478315 -0.011228479444980621 0.006490465719252825 -0.005799632519483566 -0.0017170406645163894 0.0007221123087219894 0.004722509067505598 0.0017375547904521227 -0.009481523185968399 0.004956712480634451 -0.003606775077059865 -0.0007907889666967094 -0.008319229818880558 -0.010119494050741196 0.003942763898521662 -0.012066133320331573 0.0026406801771372557 -0.00031743646832183003 -0.0009160056943073869 0.01958983577787876 -0.02259458601474762 0.007107608951628208 0.012042461894452572 -0.004097646102309227 0.01630338281393051 0.010739656165242195 -0.003123893402516842 0.014171545393764973 -0.00636338209733367 0.005285762250423431 -0.0041844663210213184 -0.01116110198199749 0.0016891807317733765 0.008813699707388878 0.01279428694397211 0.005616864189505577 0.015330265276134014 0.006141637917608023 -0.0033645094372332096 -0.015128600411117077 0.0034982142969965935 0.00583505118265748 -0.0041527827270329 0.0020030837040394545 -0.007035896647721529 -0.0063234479166567326 0.013550959527492523 0.011027990840375423 0.006613083183765411 0.008906622417271137 -0.004956980235874653 0.000483932119095698 0.00038083529216237366 -0.0026613615918904543 0.002151824301108718 0.004793730564415455 -0.0013009062968194485 -0.003922338131815195 0.0009647241095080972 -0.0007373847183771431 0.00023416400654241443 0.0006679050857201219 0.011018935590982437 -0.0070806327275931835 -4.5676162699237466e-05 -0.006845652125775814 -0.005471502896398306 0.006222513969987631 -0.0032857574988156557 0.00438899639993906 0.004374127369374037 0.0007660042610950768 -0.004054801072925329 -0.013454877771437168 -0.0052003636956214905 0.003464238252490759 -0.008166744373738766 -0.013711427338421345 -0.004978627897799015 0.004744402132928371 -0.00841559749096632 -0.0005060664843767881 -0.00394747219979763 0.0030128429643809795 0.00011753367289202288 0.008592262864112854 0.004563446156680584 -0.0059067378751933575 -0.003294215304777026 -0.0032844804227352142 -0.002872998593375087 -0.008215593174099922 0.004245198797434568 0.0069052670150995255 -0.019907670095562935 0.008947847411036491 -0.005526607856154442 0.006543794646859169 0.005563541315495968 -0.0011499215615913272 -0.005923009477555752 -0.01957891136407852 -0.015445811673998833 -0.010770715773105621 0.0002165288315154612 -0.007417810149490833 -0.0049943639896810055 0.005510289222002029 -0.008666107431054115 -0.007050902117043734 -0.0024202323984354734 -0.0005112076760269701 -1.5905277905403636e-05 -0.006070591975003481 -0.019753118976950645 0.0008216679561883211 -0.013319605961441994 -0.006352607626467943 0.01112492848187685 -0.007574619725346565 -0.0011404273100197315 0.013061166740953922 -0.019997475668787956 0.0036443350836634636 -0.0049927425570786 -0.005194682162255049 -0.00040888439980335534 -0.010390369221568108 -0.01481937151402235 0.0025623112451285124 -7.164604085119208e-06 -0.001009510364383459 -0.00016900731134228408 -0.015734098851680756 0.008548573590815067 0.0028658888768404722 -0.008091896772384644 -0.004178962204605341 -0.008437119424343109 0.017406098544597626 -0.0017266473732888699 -0.005719744134694338 0.010437291115522385 -0.00896457675844431 -0.017165185883641243 0.01722508855164051 0.0028029701206833124 -0.00851686391979456 0.0010925401002168655 0.0030791698954999447 0.0010159581433981657 0.00843550730496645 0.001884744269773364 0.002137349685654044 0.0025874655693769455 0.00900293979793787 -0.018103206530213356 0.012813456356525421 -0.004140055738389492 0.0036441339179873466 0.0018931672675535083 -0.017393147572875023 -0.011815524660050869 0.001382039044983685 0.006898427382111549 -0.0014313837746158242 -0.0020920142997056246 0.005325965117663145 -0.005215921904891729 -0.002958225551992655 -0.0011602698359638453 0.012963463552296162 -0.010242254473268986 -0.012829982675611973 0.00110750668682158 -0.008985601365566254 -0.004322189837694168 0.004550365265458822 -0.0007692809449508786 -0.008796870708465576 -0.008909775875508785 -0.007901414297521114 0.0003867939522024244 0.011795713566243649 -0.004740903154015541 0.016702499240636826 0.010325843468308449 -0.01067061722278595 0.004778563044965267 0.007189501542598009 0.008205634541809559 -0.0004885678645223379 0.01361625175923109 0.009440980851650238 0.0025901237968355417 -0.006091340910643339 0.0032859088387340307 0.0014944480499252677 -0.013711289502680302 -0.0022990780416876078 -0.0032172708306461573 -0.0032465618569403887 0.004374113865196705 0.0008145337924361229 -0.005146082956343889 -0.008344312198460102 0.009883576072752476 0.003456476842984557 0.006911486852914095 -0.008049124851822853 -0.002910410752519965 0.015963099896907806 -0.01625356450676918 -0.009504705667495728 0.013702153228223324 0.00044730157242156565 -0.01059912983328104 0.012758607044816017 -0.004411857575178146 -0.0006402027211152017 -0.00206549814902246 -0.0029585962183773518 0.004889435600489378 -0.019439002498984337 0.0022834609262645245 0.0009760668035596609 -0.004666741471737623 -0.009875756688416004 0.011913817375898361 -0.008306157775223255 -0.008400021120905876 0.00341227138414979 0.005467676557600498 -0.00575514929369092 0.010692059993743896 0.0015447653131559491 -0.01369045116007328 -0.03066409006714821 -0.019109798595309258 0.002639518119394779 -0.010226923041045666 -0.01339942030608654 -0.009331072680652142 -0.012477030977606773 0.007122009992599487 -0.010836582630872726 0.006866753567010164 0.009815338999032974 -0.005250526592135429 0.007754604332149029 0.005817475263029337 -0.003105949377641082 -0.004830639343708754 0.009244351647794247 -0.00447838194668293 0.0015352407936006784 -0.004769203253090382 -0.012294590473175049 0.009371154941618443 -0.004935170989483595 -0.0071338568814098835 -0.001334463362582028 0.008690517395734787 0.009082824923098087 -0.0008971394272521138 0.008207474835216999 -0.01494057197123766 0.02160532958805561 0.0028844703920185566 -0.01655203104019165 0.0027175492141395807 -0.0029908260330557823 0.009267100133001804 0.0021937061101198196 0.0037479207385331392 0.002686958061531186 0.005439412780106068 0.006168035324662924 -0.007003232836723328 0.01197882555425167 -0.008175665512681007 0.00018086240743286908 0.004642742685973644 -0.011031311005353928 -0.010893216356635094 0.0007504927343688905 -0.0013844199711456895 0.007915504276752472 -0.01194074098020792 -0.0017509089084342122 0.009854483418166637 -0.0005293401191011071 -0.010470240376889706 -0.00832635723054409 0.008347256109118462 0.00638609379529953 -0.0045438227243721485 -0.0024663761723786592 -0.010998418554663658 0.021786462515592575 -0.007423971779644489 -0.003979208413511515 0.007559644058346748 0.007923074997961521 -0.005242898594588041 0.011814235709607601 0.01436065323650837 0.0013909790432080626 -0.007353382650762796 0.002841303125023842 -0.007782929576933384 -0.0020821571815758944 0.002301510889083147 -0.007363639771938324 -0.00993172824382782 -0.00653008883818984 0.006959603633731604 -0.0031932091806083918 -0.007007142994552851 -0.0007640309631824493 -0.004055540077388287 -0.0022897752933204174 -0.0026386992540210485 0.0021779374219477177 -0.011516066268086433 0.00031423551263287663 -0.0002908617607317865 0.006637183018028736 -0.004456340800970793 -0.0016672697383910418 0.009906517341732979 0.002723357640206814 -0.005092539358884096 -0.004205870442092419 0.0001384025817969814 0.008054213598370552 -0.006121121812611818 0.001439711544662714 -0.008943768218159676 0.0028852277901023626 -0.007017858326435089 -0.0026694871485233307 -0.005708199460059404 -0.0019138362258672714 -0.00605977326631546 -0.0010890698758885264 -0.003474178723990917 -0.005300875753164291 0.011280791833996773 -0.0019595816265791655 -0.013329052366316319 0.01275757048279047 0.012768187560141087 -0.01858457177877426 -0.004125754348933697 -0.0048468634486198425 0.006087319925427437 -0.006474727764725685 0.009618671610951424 0.011922353878617287 0.0153226712718606 -0.007509137969464064 0.0025634504854679108 0.003414483740925789 -0.000341035338351503 -0.008790130726993084 0.004202882293611765 0.00687640905380249 0.002459213836118579 0.006167062092572451 -0.006079188082367182 -0.0002361144870519638 0.00038225934258662164 -0.0071445032954216 -0.023572780191898346 0.0022978433407843113 -0.005360019393265247 -0.0045760637149214745 -0.009438833221793175 0.0011408869177103043 0.0033817903604358435 -0.012358815409243107 -0.0067553287371993065 0.007866022177040577 -0.010452657006680965 0.010554044507443905 -0.016483141109347343 0.004044213332235813 -0.007400521542876959 0.0008314722799696028 0.00428494019433856 -0.0053139617666602135 0.0003880942822434008 0.008528810925781727 -0.0004615471407305449 0.008890984579920769 -0.009455578401684761 -0.019853835925459862 0.009638489224016666 0.0038669651839882135 -0.001966234063729644 -0.001397636835463345 0.0030117675196379423 -0.003231948707252741 0.0018313034670427442 0.0012494842521846294 4.7145898861344904e-05 0.006409225519746542 -0.013600981794297695 0.005787412635982037 -0.00539033068343997 -0.0013452667044475675 -0.004769802093505859 -0.003878195770084858 0.018349163234233856 0.012309120036661625 -0.002535191597416997 -0.012151477858424187 0.005886814557015896 -0.011394220404326916 -0.0077286651358008385 0.005255661439150572 -0.005205017980188131 0.0039372313767671585 0.002968801185488701 0.0013574014883488417 0.0059341201558709145 0.0013964734971523285 -0.008449501357972622 -0.009644961915910244 0.007248912937939167 -0.0038208209443837404 -0.000463352189399302 -0.0014004823751747608 -0.008121445775032043 0.01108528207987547 -0.0010922817746177316 0.005949715618044138 -0.02039024420082569 -0.0032410956919193268 -0.0024903740268200636 0.00777022447437048 0.010028794407844543 0.013789351098239422 0.007749224081635475 -0.01200918760150671 -0.00642867386341095 0.009310872294008732 -0.002310355892404914 -0.00780839379876852 0.002934232819825411 -0.0067022074945271015 -0.0009582838392816484 -0.007094630505889654 0.007628348655998707 -0.007122067268937826 0.0009347356390208006 -0.0001670910423854366 0.00493253068998456 -0.011268075555562973 -0.010491674765944481 -0.009794783778488636 -0.006961483508348465 0.00308918091468513 0.014763892628252506 -0.010464118793606758 0.00043115991866216063 0.006207433063536882 -0.001848772051744163 -0.0014451370807364583 -0.0015939489239826798 -0.01074905600398779 0.005081656388938427 -0.003567266510799527 -0.01098420936614275 -0.003970102872699499 0.0063110534101724625 -0.006417036987841129 -0.013269118033349514 0.0008326699608005583 0.004705083090811968 -0.009198448620736599 0.010097269900143147 0.009403371252119541 -0.0056467484682798386 -0.0018469559727236629 0.009423146955668926 -0.007460787892341614 -0.0037982184439897537 0.009784492664039135 -0.002464544028043747 -0.0011025634594261646 -0.00497681088745594 -0.004894031211733818 -0.0008397491183131933 -0.01886111870408058 -0.0017799959750846028 0.008810387924313545 -0.0024182491470128298 0.012895255349576473 -0.005086729768663645 -0.0004450711130630225 -0.005397331900894642 0.0008387879352085292 -0.007675661239773035 -0.002681223675608635 0.0018694151658564806 -0.00039953290252014995 0.010629306547343731 0.011229976080358028 0.010569298639893532 0.0013748971978202462 -0.009949198924005032 0.009810023009777069 0.013750243000686169 -0.003957021981477737 -0.005093272775411606 -0.009331556968390942 -0.0011735658627003431 -0.00853140652179718 -0.007252855692058802 0.005950174294412136 0.012118590995669365 -0.0036710030399262905 -0.0004232189676258713 -0.009284526109695435 -0.00891885720193386 -0.007976378314197063 -0.012627390213310719 -0.005785762332379818 -0.009446167387068272 -0.0024170372635126114 -0.010108068585395813 0.00844301376491785 -0.0010686140740290284 0.0005226923967711627 0.006356123369187117 0.005443802569061518 -0.00041882821824401617 -0.0034137582406401634 0.007342219352722168 0.004307479131966829 0.013992787338793278 0.01189148798584938 0.0087050199508667 0.007290068082511425 -0.0025252429768443108 0.005363107658922672 0.008271767757833004 -0.011383909732103348 0.0017744378419592977 -0.0037702666595578194 0.00017932287300936878 0.008261400274932384 0.006371961906552315 0.0015795516083016992 0.0030785773415118456 0.0011782193323597312 0.007386535406112671 0.0006386096938513219 -0.00258502084761858 -0.007805175613611937 -0.01363617368042469 -0.0028408928774297237 -0.010287479497492313 0.007220463361591101 0.003139260457828641 -0.005101585295051336 0.0046376995742321014 -0.003667487297207117 0.008952982723712921 -0.0010064411908388138 -0.006725643761456013 -0.006569497752934694 0.004504137672483921 -0.014486052095890045 -0.007302901707589626 -0.011456490494310856 0.0014666825300082564 -0.005022481083869934 -0.0017280683387070894 0.004975822754204273 -0.0014049885794520378 0.009232700802385807 -0.008971926756203175 0.0012769330060109496 -0.003515631193295121 0.007666106801480055 -0.0006151727284304798 -0.01703205704689026 -0.0004497107001952827 2.0809302441193722e-05 -0.005339368712157011 -0.008203594014048576 -0.00015249234274961054 0.0007385564967989922 -0.007182125002145767 -0.005051484331488609 -0.0033212772104889154 -0.0056032962165772915 -0.009821418672800064 0.001032457803376019 0.009553059004247189 0.011349549517035484 -0.013808473013341427 -0.00635865330696106 0.003667328739538789 -0.007535893935710192 -0.006054738070815802 0.002198663540184498 -0.0005548230255953968 -0.006618488114327192 -0.007910563610494137 -0.01486341655254364 0.0081781642511487 -0.007908913306891918 0.011670039035379887 -0.010688608512282372 0.013940216973423958 0.006464121397584677 -0.0002534284139983356 0.00453686760738492 -0.0019129890715703368 -0.003008083440363407 -0.014133758842945099 -0.00031084782676771283 -0.0001818257151171565 0.013498521409928799 -0.0021827849559485912 -0.009064747951924801 0.006817653309553862 0.012582561932504177 -0.007336345035582781 0.006821330636739731 -0.007155795581638813 0.0022807870991528034 -0.0026379788760095835 0.005638044327497482 -0.00492155971005559 0.003385911462828517 -0.007920593023300171 0.005762116983532906 -0.01844610460102558 -0.0005752641009166837 -1.5086097846506163e-05 0.00021635786106344312 -0.004711733665317297 0.0039951554499566555 -0.00784460548311472 -0.009462092071771622 0.017555341124534607 -0.001122719724662602 -0.0022810869850218296 0.008058330044150352 -0.01724620908498764 -0.004617093596607447 0.0037594898603856564 0.001335475710220635 -3.0040981073398143e-05 0.0005788799026049674 -0.0037315867375582457 0.002998650074005127 -0.0022917992901057005 -0.002728149527683854 0.012772287242114544 -0.00877467729151249 -0.0031295001972466707 -0.0019870540127158165 -0.00027878646505996585 -0.009642121382057667 0.007747067604213953 -0.0014074810314923525 -0.001218619872815907 -0.004318738356232643 0.005863773636519909 -0.005672636907547712 0.008005158975720406 -0.01246615033596754 -0.010244829580187798 0.015442924574017525 0.008375715464353561 -0.0001935056789079681 0.004633310250937939 -0.0009768573800101876 0.002156847855076194 0.014951743185520172 0.0020657533314079046 0.0002684761129785329 -0.003943788819015026 -0.008112710900604725 0.005444072652608156 0.008667409420013428 -0.014155992306768894 -0.016301609575748444 0.0072143711149692535 -0.011295725591480732 -0.0007219576509669423 0.008489249274134636 0.007456834428012371 -0.002095891162753105 0.004140837118029594 -0.0047440193593502045 -0.0006568836979568005 0.006770357023924589 0.0011450756574049592 0.006623259745538235 0.005381264258176088 0.0018401696579530835 0.01255447044968605 -0.0011885884450748563 0.003441709792241454 0.0020558906253427267 -0.0031766295433044434 -0.013894402422010899 0.009626493789255619 -0.004843594506382942 0.017139287665486336 -0.0030682943761348724 0.0016493173316121101 -0.006344486027956009 -0.002390631241723895 -0.0013800094602629542 0.004949251655489206 0.0016630813479423523 -0.0031056120060384274 0.004511120263487101 0.0063650705851614475 0.013795601204037666 0.0027074404060840607 0.00023569499899167567 -0.013898991048336029 0.012623141519725323 -0.014013458974659443 0.001096365856938064 0.004324133042246103 -0.007765522692352533 -0.002798768924549222 -0.005946070421487093 0.007186376955360174 -0.007175922859460115 -0.013318290002644062 -0.008808810263872147 -0.007898597046732903 0.0018050533253699541 -0.007967125624418259 0.0010063431691378355 0.014842184260487556 -0.008030908182263374 0.016154149547219276 0.009578255005180836 0.0036299112252891064 0.011724342592060566 0.004672740586102009 0.0030219336040318012 0.003670829115435481 0.012194249778985977 0.01193819846957922 -0.005054243840277195 -0.008047932758927345 0.004749419167637825 0.0021116910502314568 0.0038042243104428053 -0.013197554275393486 0.0030189193785190582 0.0038161652628332376 0.007850075140595436 -0.00014416682824958116 0.006523964460939169 -0.007693212945014238 0.00963999517261982 -0.0140231903642416 -0.010889634490013123 0.010218541137874126 0.006871476303786039 -0.020163914188742638 -0.0025222438853234053 -0.00024387851590290666 -0.008160044439136982 0.006352552678436041 0.0053414711728692055 -0.003784054657444358 -0.01220887154340744 0.005855893716216087 -0.001452770084142685 -0.0006503623444586992 0.018027018755674362 -0.0004319861182011664 0.0013556480407714844 -0.00039712112629786134 -0.0021435683593153954 0.000946161977481097 0.0013090090360492468 0.006807764060795307 -0.015453703701496124 -0.0029934055637568235 0.020908024162054062 0.00035706456401385367 0.00390430586412549 -0.00030555264675058424 -0.015627622604370117 0.005004240199923515 -5.24159477208741e-05 -0.00019231796613894403 0.006178811192512512 -0.007023385260254145 0.010669572278857231 0.003785420674830675 0.00041695652180351317 9.166252857539803e-05 0.0022899203468114138 0.0019170184386894107 0.009143888019025326 -0.011577785946428776 0.0014120364794507623 -0.006175373215228319 -0.010751768946647644 0.004656828939914703 0.007617115508764982 0.009082090109586716 -0.007674345746636391 0.014070437289774418 0.009858095087110996 0.005579959601163864 0.006416353862732649 -0.006227175705134869 0.0012395994272083044 -0.011659813113510609 0.004783732816576958 -0.00957752950489521 -0.0039589377120137215 -0.02166118659079075 -0.001731084194034338 -0.00261326995678246 0.0013387631624937057 -0.004393898881971836 -0.008859376423060894 -0.010847500525414944 0.0023817357141524553 -0.008845115080475807 -0.010176473297178745 -0.0007018120377324522 -0.0005524838343262672 -0.0016173293115571141 0.009047841653227806 0.003595986170694232 -0.0096659567207098 1.9073708244832233e-05 0.011038620956242085 -0.0038971449248492718 0.013374773785471916 0.0030479859560728073 -0.024283980950713158 0.0030792097095400095 0.007395622320473194 0.007751214783638716 0.0068024564534425735 -0.009298990480601788 -0.002515781205147505 0.0008320691995322704 0.004799335263669491 0.005434504710137844 0.003567570587620139 -0.0065252939239144325 -0.001978538231924176 -0.00844030361622572 -0.0001935045002028346 0.004230402410030365 0.0033517510164529085 -0.008212174288928509 -0.00882407184690237 0.0023945423308759928 -0.006045269314199686 -0.008431319147348404 -0.0021961978636682034 -0.01721230335533619 0.00023014636826701462 -0.0012391672935336828 -0.012838921509683132 0.008038029074668884 0.027131009846925735 -0.006310084834694862 -0.009308096952736378 -0.005271561909466982 0.007376570720225573 0.0024892163928598166 0.003206497523933649 0.0010818054433912039 -0.0055940658785402775 -0.007057587616145611 -0.013127563521265984 -0.015429398976266384 -0.00364172225818038 0.00681735435500741 0.0010184939019382 -0.004552390426397324 0.004286067560315132 -0.005485837813466787 -0.007588454056531191 0.01015903428196907 -0.004363880027085543 0.013535313308238983 -0.011798614636063576 -0.0053312815725803375 -0.013122467324137688 -0.00462852418422699 0.002475281013175845 0.003438522107899189 -0.0015681770164519548 -0.002141315024346113 -0.0011686376528814435 0.004616323858499527 0.0017637904966250062 0.013754911720752716 0.0002004569978453219 -0.0030145442578941584 0.0009836256504058838 -0.0044001201167702675 -0.0058053843677043915 -0.002396887168288231 0.004961646627634764 0.0058042430318892 0.014443768188357353 0.002919156337156892 0.018392138183116913 0.00429536122828722 -0.005435287021100521 -0.007553068455308676 -0.0009077207068912685 0.006984217092394829 0.0029284090269356966 0.0013546771369874477 -0.008454859256744385 -0.0016566588310524821 -0.009732893668115139 -1.5110264030226972e-05 0.009319411590695381 -0.005419563502073288 -0.00740876654163003 0.003681274363771081 0.0005603526369668543 0.0016097227344289422 0.013917038217186928 -0.007282075937837362 0.005414102226495743 -0.00027351261815056205 0.0007639045943506062 -0.00629892572760582 -0.011064655147492886 0.0043221465311944485 -0.00622163712978363 -0.004620619583874941 0.0013146507553756237 -0.012486942112445831 -1.9595354388002306e-05 -0.008429487235844135 0.005072800442576408 -0.005877871066331863 0.0032464079558849335 0.0036809430457651615 0.013365180231630802 0.0005404087132774293 0.015214748680591583 -0.01265803724527359 0.000883731001522392 -0.009158779866993427 -0.007374738808721304 0.011405927129089832 -0.011171444319188595 -0.007047134917229414 -0.0063843210227787495 0.002146865474060178 -0.004465038888156414 -0.00010757987183751538 0.01061529852449894 0.003837353317067027 -0.009603260084986687 -0.0031291265040636063 0.007175527047365904 0.007616899907588959 0.003944767639040947 0.003203539876267314 -0.0009188945405185223 0.007867992855608463 0.005995050072669983 0.006226633209735155 0.011141096241772175 -0.0022709977347403765 0.0038143014535307884 -0.019377676770091057 -0.006276405416429043 -0.006031621713191271 -0.005260172765702009 0.0028161986265331507 -0.013313369825482368 0.014587047509849072 0.005712456535547972 -0.01655384711921215 -0.00784054584801197 -0.006699925754219294 0.0018965834751725197 0.01775628887116909 -0.013852236792445183 -0.011806348338723183 0.018217988312244415 0.004978225566446781 -0.004694015718996525 -0.0033591671381145716 0.0009864141466096044 -0.019924454391002655 -0.0031954157166182995 0.004229031968861818 0.01497588586062193 0.0019084910163655877 -0.004590383730828762 -0.006195052992552519 0.005127393640577793 -0.0014575921231880784 0.00019003928173333406 -0.006241844035685062 0.00041670360951684415 0.007314428687095642 0.001938452129252255 -0.005939895287156105 2.98582835966954e-05 -0.002082961844280362 -2.6870733563555405e-05 -0.0026444823015481234 0.0033469651825726032 -0.012522951699793339 -0.006332029588520527 0.00259228004142642 -0.0008147420594468713 0.014154102653265 -0.011621224693953991 0.00476307887583971 -0.006668146699666977 0.002897159196436405 0.0012418093392625451 -0.007719844579696655 -0.005125554744154215 0.0030307993292808533 -0.006565114017575979 0.011968910694122314 -0.00671143876388669 0.00045168783981353045 -0.006150766741484404 -0.013799699954688549 -0.0053821769542992115 0.0015393993817269802 0.004684031009674072 -0.01752081699669361 0.0019322785083204508 -0.007640040013939142 0.012732716277241707 0.0016707363538444042 0.004134749993681908 0.005893126595765352 0.004800503142178059 0.0058135767467319965 0.009467428550124168 0.005999227520078421 -0.00360260927118361 0.018271097913384438 0.0006023418391123414 0.006179155316203833 -0.006554022431373596 0.0006652632728219032 0.008900986053049564 -0.0023423670791089535 -0.00511805759742856 -0.010126971639692783 -0.010783801786601543 0.007381064351648092 0.0009781218832358718 0.0006386649911291897 0.009486222639679909 0.004492821637541056 0.0009383992291986942 0.003804057138040662 0.00946652702987194 -0.0012440272839739919 0.001443707151338458 -0.01901913993060589 -0.013428941369056702 -0.007790271192789078 -0.009772948920726776 0.013633809052407742 0.007879076525568962 0.0011016983771696687 0.010373493656516075 -0.011429225094616413 -0.00046473025577142835 -0.00615348294377327 0.007789326831698418 0.011713595129549503 0.007054726127535105 0.007550000678747892 -0.012117036618292332 0.004861393943428993 0.0012483487371355295 -0.002285948721691966 -0.00643602991476655 0.011876658536493778 -0.00825834833085537 -0.006242895498871803 -0.02980555221438408 0.012828855775296688 -0.0070265610702335835 -0.006881555076688528 0.007886959239840508 -0.0005123323644511402 -0.013310865499079227 -0.005688703618943691 -0.003179886844009161 -0.007447556592524052 -0.0034526619128882885 -0.0021687594708055258 -0.00701728044077754 0.009688741527497768 -0.0003442350134719163 0.0005421375972218812 -0.005597857758402824 0.024344241246581078 -0.007043216843158007 -0.01315583661198616 0.007984579540789127 -0.015350613743066788 0.009144778363406658 -0.006445686798542738 -0.0044154939241707325 -0.006301343906670809 0.013776833191514015 -0.006649348884820938 -0.01166176050901413 0.008844442665576935 -0.006976263597607613 -0.002761485520750284 -0.006547346245497465 -0.014349229633808136 -0.006764810532331467 0.0017047489527612925 -0.005306813400238752 0.002659793943166733 -0.010053525678813457 -0.012885551899671555 0.009936605580151081 -0.007245045155286789 -0.006266648881137371 -0.012262802571058273 -0.0015233864542096853 -0.005387012846767902 0.011889215558767319 -0.007066670805215836 -0.006291960831731558 -0.0030280142091214657 -0.012621632777154446 0.01882549375295639 -0.00033905752934515476 6.142011989140883e-05 0.004437329713255167 -0.013651259243488312 0.01253391895443201 0.003925790544599295 0.009708438068628311 -0.0025517065078020096 0.0030407460872083902 0.0028508584946393967 -0.005995387677103281 -0.0023252160754054785 -0.00849518645554781 0.0010566506534814835 -0.009493022225797176 0.013384422287344933 -0.00010206460865447298 0.015058913268148899 0.012197849340736866 -0.0023373013827949762 -0.006391918286681175 0.0013049535918980837 0.006299420725554228 0.011707122437655926 -0.0067816912196576595 -0.0008976396056823432 -0.0023425964172929525 -0.010592712089419365 -0.0035282487515360117 0.01756138913333416 0.006519203539937735 -0.0003471165255177766 0.006634651217609644 0.007555106189101934 -0.007444621063768864 0.008385520428419113 -0.007065126672387123 -0.002640209160745144 -0.0038511473685503006 -0.012756039388477802 0.007109410595148802 0.009656134992837906 0.00024138562730513513 0.0032332208938896656 0.005676652304828167 0.014427181333303452 -0.00625401409342885 0.0043923999182879925 -0.010004563257098198 0.008223772048950195 0.01864435337483883 0.008676917292177677 0.007638101000338793 0.003398110158741474 -0.006223667412996292 0.0013268481707200408 -0.00692075164988637 0.016458021476864815 -0.0009235066245310009 -0.002305605448782444 0.0030243443325161934 -0.005914973560720682 0.0012704081600531936 0.0020147881004959345 -0.003248507622629404 0.0010414975695312023 0.003138630883768201 0.016175486147403717 0.005860449280589819 -0.00793809536844492 0.006432286463677883 0.008690325543284416 0.00011550560884643346 0.0128098139539361 -0.0002181218151235953 -0.009995866566896439 -0.0027283597737550735 0.0007989550358615816 0.007020941935479641 -0.01224624551832676 0.0017003519460558891 -0.0021342651452869177 -0.00851227343082428 0.012016489170491695 -0.0009166290983557701 -0.0052994051948189735 -0.0010688763577491045 0.00802402850240469 3.8092352951935027e-06 -0.01659928634762764 -0.007180170621722937 -0.0020881574600934982 0.0022712184581905603 0.010644478723406792 0.009217637591063976 0.010100587271153927 -0.002029714873060584 0.0018818421522155404 -0.004355671815574169 0.004571781028062105 0.0006744127604179084 0.0036812799517065287 0.004974781069904566 -0.023234518244862556 -0.006600317545235157 -0.005195122677832842 0.0053294021636247635 -0.00817809347063303 -0.012061476707458496 -0.0026424319949001074 0.01415517833083868 0.007016239687800407 -0.0021701203659176826 0.0085453437641263 0.010235587134957314 -0.005137368571013212 -0.010872113518416882 -0.004308219067752361 -0.01522836647927761 -0.003246946493163705 0.005716091953217983 -0.004242719151079655 0.007101057097315788 -0.001074504922144115 -0.01638169214129448 -0.004102357663214207 0.0058828904293477535 0.0028544506058096886 -0.004760828800499439 -0.0032581444829702377 -0.005464406684041023 -0.013633706606924534 0.000541464367415756 -0.003765373956412077 0.01060987077653408 -0.012562177143990993 0.004850192926824093 -0.00029169980552978814 0.0020523546263575554 0.002693751361221075 0.004521355964243412 0.000981128541752696 -0.0061618611216545105 0.013585568405687809 -0.0023418450728058815 -0.004991978872567415 -0.0037625590339303017 -0.007165054325014353 0.009879514575004578 -0.0006385020678862929 -0.0011305666994303465 -0.013120039366185665 -0.0042275129817426205 -0.001967340474948287 0.008754041977226734 0.004680897109210491 0.006442977115511894 0.010233801789581776 -0.005719457753002644 0.0076981824822723866 0.010043339803814888 -0.003475442761555314 -0.0024139732122421265 -0.007447586394846439 -0.01719045080244541 0.007413660176098347 -0.006827636621892452 -0.007357664871960878 0.006290779914706945 -0.0023781461641192436 -0.008477996103465557 -0.007284375373274088 -0.0004463218792807311 -0.004820200614631176 -0.007230366580188274 0.008230776526033878 -0.007552471477538347 0.0016211402835324407 -0.015171749517321587 0.00961629394441843 -0.006612920667976141 -0.003989598713815212 0.007370125502347946 -0.006578870117664337 -0.0034641718957573175 -0.0005294021684676409 -0.006275914143770933 -0.006841636728495359 -0.008779228664934635 -0.006062486674636602 -0.0037438315339386463 -0.0010416649747639894 -0.000889902061317116 -0.005869863089174032 0.005433991551399231 0.0019742243457585573 6.811905041104183e-05 -0.005075522232800722 -0.00860054511576891 0.01072742510586977 -0.004204885568469763 0.010614333674311638 -0.0017070556059479713 -0.002273939084261656 -0.013591965660452843 -0.0031864563934504986 -0.0008459303644485772 0.0050318180583417416 0.018540872260928154 -0.0084520373493433 -0.009894059970974922 0.003630473278462887 0.008649400435388088 -0.01283964328467846 -0.004941826686263084 -0.011504169553518295 0.005811172537505627 -0.011525518260896206 0.010742484591901302 0.0035115128848701715 -0.005298024509102106 -0.0043007261119782925 0.011921516619622707 -0.00544219883158803 0.0038090122397989035 0.003682665526866913 0.0006004394963383675 0.006765585392713547 0.0006142426864244044 0.0016398081788793206 0.009244203567504883 -0.0037085972726345062 -0.009769383817911148 0.004621722269803286 -0.012213261798024178 -0.0018885214813053608 -0.003748374991118908 0.005669713485985994 0.012042391113936901 -0.009258712641894817 0.00019500419148243964 0.007469416595995426 0.0076107606291770935 0.008066914975643158 0.003616604721173644 -0.007089689839631319 -0.007285233587026596 -0.005074618384242058 0.008038674481213093 -0.00032383305369876325 -0.003483858425170183 0.0008647220092825592 0.007231266237795353 0.00884039793163538 0.00696672173216939 0.012735296040773392 -0.01380622386932373 -0.016455091536045074 0.0014387612463906407 -0.007642913609743118 0.011393271386623383 -0.008959959261119366 -0.012555866502225399 -0.008057710714638233 -0.014278959482908249 -0.004488489590585232 0.008299379609525204 0.024408360943198204 -0.006203705910593271 0.00600992189720273 0.006540440488606691 -0.0010269139893352985 -0.005962291266769171 0.007658323273062706 -0.005965918768197298 -0.0015744493575766683 -0.003978412598371506 0.008909409865736961 -0.008977743797004223 0.001550887362100184 0.005364093463867903 0.007749488577246666 0.0036852939520031214 0.01797572337090969 0.015534952282905579 -0.012452322989702225 -0.015497914515435696 -0.016778016462922096 0.0033997998107224703 -0.0010309569770470262 -0.02257138304412365 -0.01563313975930214 0.005636442918330431 -0.0014340453781187534 0.003913281485438347 -0.02003534510731697 -0.01696597784757614 0.0007152532925829291 -0.0077562532387673855 0.01231655478477478 0.0049222917295992374 -0.008463318459689617 0.012328164651989937 0.004238423425704241 0.010983379557728767 -0.005979097913950682 -0.013314373791217804 0.014747354201972485 0.00016173631593119353 -0.011944717727601528 0.01079482864588499 0.004532491788268089 0.0049678063951432705 -0.011220634914934635 0.006011536344885826 0.0159729216247797 0.006390782073140144 -0.009339648298919201 0.004570855759084225 -0.0020619663409888744 0.0028317649848759174 -0.0061049433425068855 0.009883824735879898 0.010471082292497158 -0.0016101676737889647 0.001158940140157938 -0.0004892281140200794 -0.0072992597706615925 -0.005819494370371103 0.01448391005396843 0.0067240530624985695 -0.012240566313266754 0.009096849709749222 -0.0034712899941951036 0.00012339338718447834 -0.004695442970842123 -0.0013494836166501045 0.007695056032389402 -0.0036945082247257233 0.006232104264199734 0.0038540521636605263 0.00019359296129550785 0.010869364254176617 0.0029355154838413 0.0041106692515313625 0.0028271605260670185 -0.004847771022468805 0.00867078173905611 0.0020976706873625517 0.012368421070277691 -0.0008075713994912803 -0.009436915628612041 -0.0013449541293084621 0.005731112323701382 -0.0060788714326918125 0.00577149074524641 0.005767238792032003 -0.00232848827727139 0.00562450522556901 -0.017053022980690002 -0.01745624467730522 0.0021873805671930313 0.003567934036254883 0.002061333740130067 -0.011498412117362022 0.00941115990281105 -0.007517021615058184 0.011926730163395405 0.001383992494083941 0.0010911583667621017 -0.016754545271396637 -0.006309373304247856 0.01132009457796812 0.002358978148549795 -0.004487334750592709 0.012765113264322281 0.004803346004337072 0.004833134822547436 -0.007221767213195562 -0.016681702807545662 -0.0018548588268458843 0.005731083918362856 0.006790215149521828 0.0150785306468606 -0.0005313677829690278 0.013564313761889935 -0.0038801836781203747 -0.005123835522681475 0.0019739512354135513 -0.004531106445938349 -0.015883570536971092 -0.010633548721671104 0.00129694736097008 -0.0083768917247653 -0.0071594868786633015 -0.004007489886134863 -0.001530140289105475 -0.008093117736279964 -0.012722698971629143 -0.007566253654658794 0.0064119985327124596 -0.015061589889228344 -0.007153382059186697 -0.00832488015294075 -0.0008735039737075567 0.0015017454279586673 0.014022419229149818 0.015799425542354584 -0.0008450236055068672 0.004541095811873674 -0.00036267496761865914 -0.008050804026424885 0.0016800209414213896 -0.0077807847410440445 -0.01134440302848816 0.01617368310689926 -0.015966180711984634 0.0023583590518683195 -0.002549822209402919 0.004774986766278744 -0.008074318058788776 0.011785728856921196 -0.0005659907474182546 0.00230279378592968 -0.0030402238480746746 0.0008772255969233811 -0.001437831437215209 -0.004458106122910976 -0.003579741111025214 -0.0015996431466192007 -0.009923778474330902 -0.004228734411299229 -0.002003246219828725 0.001969740493223071 0.00951707735657692 0.004647227004170418 0.008039907552301884 -0.0028562103398144245 0.0006648442940786481 0.01801951974630356 0.019974350929260254 -0.01159158255904913 0.013570530340075493 -0.003968607168644667 0.0047112456522881985 0.006971132010221481 0.01341285277158022 -0.006135024130344391 -0.005112034268677235 -0.002008098876103759 -0.005096714943647385 0.012784570455551147 -0.0009352160850539804 -0.008667982183396816 0.002959353383630514 -0.005263829603791237 0.0078745037317276 -0.009599237702786922 -0.009251111187040806 -0.004079979844391346 0.004787781275808811 0.007064464036375284 -0.003420671448111534 0.003205547109246254 0.0025458279997110367 -0.0133024537935853 -0.0043973070569336414 0.002862132154405117 0.0036800559610128403 0.002727536717429757 -0.0019158606883138418 0.015536220744252205 -0.00468975817784667 0.0017786558018997312 -0.00217245751991868 0.007711208425462246 -0.015199162997305393 -0.002348383190110326 -0.0006515361601486802 -0.005131690762937069 0.013304230757057667 0.005577136296778917 -0.002191083040088415 0.010446271859109402 0.007149319164454937 -0.011458599008619785 -0.0006876799161545932 -0.005048947874456644 0.002559300744906068 -0.008660624735057354 -0.0036673182621598244 -0.010190916247665882 -0.008007061667740345 0.006326351314783096 0.016024012118577957 -0.007323399651795626 -0.006377990357577801 -0.0013394220732152462 -0.0006139565957710147 0.0025651974137872458 0.0031289723701775074 0.005629284773021936 0.0012838401598855853 -0.00266789342276752 0.009265582077205181 -0.000776516564656049 -0.012063144706189632 -0.0005137578118592501 -0.0048350743018090725 -0.015202535316348076 -0.004121141508221626 0.005317252594977617 -0.001780243474058807 -0.004130035638809204 -0.009362515062093735 -0.0011355305323377252 -0.003697807900607586 0.0010997105855494738 -0.009397100657224655 -0.009123512543737888 -0.003095837775617838 0.006326456554234028 0.00037732033524662256 0.0013252801727503538 -0.0023278568405658007 0.007335225585848093 0.00817725621163845 -0.002583105582743883 -0.013253510929644108 0.00012456405966077 0.006741115357726812 0.005467544309794903 0.008457670919597149 0.009151902981102467 0.010575455613434315 0.005926382727921009 -0.0020040739327669144 0.0016295418608933687 0.012056339532136917 -0.00393644580617547 -0.0013823230983689427 -0.0012444230960682034 -0.003966085612773895 0.01049082726240158 -0.0019726166501641273 -0.003716588718816638 0.010844278149306774 -0.003902057884261012 0.010561647824943066 -0.003450498916208744 0.007474029436707497 -0.014827265404164791 -0.006061722058802843 -0.012681988999247551 -0.002486886689439416 -0.003336332505568862 -0.008673584088683128 -0.003940210677683353 0.0064662909135222435 -0.0018935048719868064 0.01616091839969158 -0.0022289601620286703 -0.000792566454038024 -0.008708990179002285 -0.0007440315093845129 -0.01538953185081482 -0.005530508700758219 -0.012631119228899479 0.0009568880195729434 -0.0008048047311604023 0.0028467692900449038 0.0002846987918019295 -0.005036891438066959 0.006918737664818764 -0.0012175260344520211 0.00559768732637167 -0.009093512780964375 0.0005854443879798055 -0.013199139386415482 0.01199741754680872 -0.007783632725477219 -0.0015910497168079019 -0.002004192676395178 0.009155871346592903 -0.003689482808113098 -0.003975023981183767 0.01590295322239399 2.6373589207651094e-05 0.001798830577172339 -0.01146023441106081 0.0013928477419540286 -0.00422399677336216 -0.014131855219602585 -0.003499433631077409 -0.005471865180879831 -0.003897674148902297 -0.005939043127000332 -0.005909619387239218 -0.0048141018487513065 -0.007195568643510342 -0.004977305419743061 0.008704344742000103 -0.013312222436070442 0.005150728393346071 -0.005363675765693188 -0.006931448355317116 -0.0018754212651401758 -0.007295768707990646 -0.00276123802177608 0.007226831279695034 -0.005701705347746611 -0.0093700485303998 0.01119373831897974 -0.0010627089068293571 0.0004930532304570079 0.0038740644231438637 0.012446756474673748 -0.007856874726712704 -0.002020406536757946 0.0062611340545117855 0.01114699523895979 -0.006470447406172752 -0.013996759429574013 -0.002223631367087364 -0.0045106615871191025 0.011787297204136848 0.006265104748308659 -0.0017813703743740916 -0.006821559276431799 -0.0011995809618383646 -0.008737476542592049 -0.00307312048971653 0.002678496763110161 -0.002193148946389556 0.0012799559626728296 -0.007336674258112907 -0.012822200544178486 0.0017843720270320773 -0.0029780312906950712 -0.00203706044703722 0.001844951999373734 -0.0026892644818872213 0.009387354366481304 -0.0027563823387026787 0.005129863973706961 -0.008732249960303307 -0.001516776974312961 0.00017893822223413736 0.0012132783886045218 -0.0023412341251969337 -0.0009682536474429071 0.0005267283413559198 -0.009596198797225952 0.011544653214514256 -0.013418534770607948 0.013891104608774185 -0.00279512582346797 0.005437909159809351 0.007930900901556015 0.006170624867081642 0.007235188037157059 0.004660845268517733 0.019543202593922615 0.0073086898773908615 0.006717366632074118 0.00921206921339035 -0.0036021368578076363 -0.00581925455480814 -0.015278222039341927 -0.004596155136823654 0.002669118344783783 -0.01857108809053898 -0.0030636575538665056 -0.008479472249746323 0.0012269968865439296 -0.0004799631133209914 0.008996611461043358 -0.0009494790574535728 -0.0018924811156466603 -0.0016584777040407062 -0.017919084057211876 -0.0022834036499261856 -0.0009381408453918993 0.006016625557094812 0.004297277424484491 0.0027127116918563843 -0.005668840371072292 -0.004272637888789177 -0.0029466189444065094 0.0038399503100663424 -0.014327984303236008 0.0005520661361515522 0.0007719275308772922 -0.014506596140563488 -0.003823090111836791 -0.0030727889388799667 0.007332431152462959 0.007227738853543997 -0.0025628141593188047 -0.00490108085796237 -0.0074542732909321785 -0.010620183311402798 0.013930248096585274 -0.004250014666467905 -0.0008847502758726478 -0.0007366919307969511 -0.004334419500082731 0.007304025813937187 0.007363881915807724 -0.013840383850038052 0.0065306248143315315 -0.005692772101610899 0.006652699317783117 0.00019694605725817382 0.013324934989213943 -0.006081216502934694 -0.008203898556530476 -0.007318591233342886 0.009275685995817184 0.004531318321824074 -0.000740043877158314 0.00442890590056777 0.003834613598883152 -0.0021467662882059813 0.004807138815522194 0.0036875815130770206 0.0008457149378955364 -0.001581903430633247 0.004030388314276934 -0.0018707484705373645 -0.00483843544498086 -0.0021486564073711634 -0.0028655596543103456 -0.006217068526893854 -0.005529394838958979 -0.006764278281480074 -0.013315397314727306 -0.009234686382114887 0.004191304091364145 -0.00826785434037447 0.00420495355501771 -0.003377967281267047 -0.005844035651534796 -0.003272945759817958 -0.010168501175940037 -0.003438576590269804 0.0015035211108624935 0.015124808996915817 0.004320351406931877 -0.011143945157527924 0.0045455642975866795 0.009515836834907532 -0.006169853266328573 0.004985566716641188 0.003446208778768778 -0.014536704868078232 -0.011715858243405819 -0.00044075617915950716 0.000593869190197438 -0.006562745198607445 0.0033525009639561176 0.011210351251065731 -0.004822745453566313 -0.015040411613881588 -0.005972680170089006 0.01733137108385563 0.004395779687911272 -0.0007751609664410353 -0.009492428041994572 -0.009454694576561451 -0.017096897587180138 0.007184439804404974 0.00844584871083498 -0.012056619860231876 0.00416337326169014 0.0067369937896728516 -0.008191299624741077 -0.001710341079160571 -0.0013336542760953307 0.009996399283409119 0.007413127459585667 0.006678698118776083 -0.01127192098647356 0.0014158138073980808 -0.008303563110530376 0.008098957128822803 0.004148347303271294 -0.012950933538377285 -0.0019383442122489214 0.006006655748933554 0.008168003521859646 0.0007285666069947183 0.017478881403803825 0.0004711925867013633 -0.0037445304915308952 0.0045997342094779015 0.0026494169142097235 0.012328917160630226 -0.006287583615630865 -0.005517592653632164 0.014556149952113628 0.008516522124409676 0.00038729989319108427 0.00686016958206892 0.005107872188091278 -0.0024445417802780867 0.0019638636149466038 0.002105206251144409 -0.008005885407328606 -0.010184524580836296 -0.01138101052492857 -0.0029576511587947607 0.006133303977549076 -0.013035953044891357 -0.0016081490321084857 0.00416205357760191 -0.012956670485436916 0.011091938242316246 -0.010043191723525524 -0.0034532181452959776 -0.009160059504210949 0.0029195586685091257 0.004806228447705507 -0.002107960404828191 0.008842936716973782 -0.0021233935840427876 -0.005334675312042236 0.0036065238527953625 -0.01167050376534462 -0.012201221659779549 -0.007958059199154377 -0.004290598910301924 0.0017948870081454515 0.004807275254279375 -0.006050977855920792 -0.009939564391970634 0.00847607757896185 -0.018903708085417747 0.0097119165584445 0.0036907270550727844 0.0025448661763221025 0.0016192664625123143 -0.007038475479930639 -0.004476937931030989 0.011059695854783058 0.007127390243113041 -0.0010012536076828837 0.00803904514759779 -0.003279461758211255 0.0028055990114808083 0.0010808540973812342 0.014537014998495579 -0.003378116525709629 -0.013772542588412762 0.0038478472270071507 -0.00408652750775218 -0.00604861369356513 0.006512290332466364 -0.004450686275959015 -0.004789635539054871 -0.005021112505346537 0.0037803808227181435 -0.008203232660889626 -0.0033974074758589268 -0.00043470546370372176 -0.003642160212621093 0.006520990282297134 0.008550918661057949 0.016766294836997986 -0.0023427801206707954 0.005162558984011412 -0.004236171487718821 -0.004970841575413942 0.008212466724216938 0.006209314800798893 -0.0008385450928471982 0.001637995825149119 0.0026108617894351482 -0.02093495987355709 0.008243612013757229 -0.0066338591277599335 0.005593848880380392 0.012567167170345783 -0.0023746632505208254 -0.00431354995816946 0.002287172479555011 0.0018244029488414526 -0.003402471076697111 0.005173576530069113 -0.006020187400281429 -0.0003689314180519432 -0.008645296096801758 0.008494511246681213 0.009735962375998497 0.008532487787306309 -0.003468291135504842 -0.02865554578602314 0.0009271141607314348 -0.008120075799524784 0.0005288880784064531 0.00017659133300185204 -0.015623841434717178 0.017425574362277985 0.0013560086954385042 0.005531670991331339 0.004463065881282091 -0.0024714956525713205 0.005837566684931517 -0.0016742893494665623 0.0023480996023863554 -0.001860408578068018 0.013161071576178074 -0.006438282784074545 0.009747880510985851 0.008816119283437729 -0.009675420820713043 -0.0043365019373595715 -0.0005357141490094364 0.0015245338436216116 0.002004785230383277 0.0016860987525433302 -0.011259254068136215 -0.009782654233276844 0.014213195070624352 0.004768336191773415 0.0030261152423918247 0.009529574774205685 0.0015620430931448936 0.004075672477483749 0.01809905469417572 0.011268915608525276 -0.006716056726872921 -0.009397502057254314 -0.0010239486582577229 0.005361304618418217 -0.006543278694152832 -0.012822930701076984 0.009105612523853779 0.005108421668410301 -0.01281602494418621 -0.010401982814073563 -0.006903352215886116 0.004275476094335318 0.0010354452533647418 0.003820160636678338 -0.0063529107719659805 -0.004430057015269995 0.012148475274443626 0.0046257213689386845 0.011220157146453857 0.003441424807533622 -0.010974409990012646 -0.0019917264580726624 0.010143106803297997 0.005873664282262325 -0.010252648964524269 -0.006183043587952852 -0.0013258719118312001 -0.0010090090800076723 -0.008666259236633778 -0.004012499935925007 -0.009055889211595058 -0.01086371298879385 -0.009424714371562004 0.00964092556387186 -0.01347893476486206 -0.0027150625828653574 -0.0013829116942360997 -0.01551141869276762 -0.00703597255051136 0.0007887179381214082 0.010061913169920444 0.0030104180332273245 0.0046088844537734985 0.003923729062080383 0.0031649672891944647 0.009144227020442486 -0.009873203001916409 0.002666080603376031 0.007416256703436375 -0.004214467015117407 0.01230128388851881 -0.014789669774472713 -0.002247653901576996 0.005802543368190527 0.004824410658329725 0.0033995516132563353 -0.016494015231728554 -0.003698072861880064 -0.014995072036981583 -0.007511523552238941 0.006402353290468454 -0.0032005987595766783 0.0023046296555548906 -0.004087644163519144 0.007662506308406591 0.0008394979522563517 0.007948152720928192 0.012839325703680515 -0.0031174616888165474 -0.009169808588922024 -0.005280917510390282 0.0001687913027126342 -0.0030009569600224495 -0.009225473739206791 -0.005887595936655998 0.005079186055809259 0.0002661500184331089 0.009626966901123524 0.018776576966047287 0.0020014201290905476 0.007611348759382963 0.012926685623824596 0.003414327744394541 0.0016390116652473807 0.01830390840768814 0.003922917880117893 -0.009255222976207733 0.010462634265422821 -0.00018635722517501563 -0.00047363308840431273 -0.004932560492306948 0.004164495971053839 0.012637288309633732 0.0044260043650865555 0.0011183730093762279 -0.0021025529131293297 -0.016559412702918053 0.016418244689702988 -0.012574348598718643 0.008792978711426258 0.003034925553947687 -0.0165852140635252 0.0037516350857913494 -0.00854430254548788 0.0006600365741178393 -0.0033567044883966446 -0.003127675037831068 -0.00353639735840261 0.008520581759512424 0.0015749763697385788 -0.0105780940502882 -0.0063179428689181805 0.016022013500332832 0.004431093577295542 0.0009362221462652087 0.007662836462259293 -0.008131257258355618 -0.0047325147315859795 0.003709713462740183 -0.019007600843906403 0.011193986050784588 -0.002755934838205576 -0.007520595565438271 -0.0039025600999593735 -0.01334434561431408 0.005017198156565428 -0.0028677862137556076 0.014832950197160244 0.006651243194937706 -0.005576834082603455 0.0016339522553607821 0.007650298066437244 -0.010896538384258747 -0.0008806003024801612 0.006616007536649704 0.002996088471263647 0.012267072685062885 -0.00529515091329813 0.001760314335115254 0.00220065051689744 0.01016910094767809 0.004277557134628296 -0.003906230442225933 0.0005052771884948015 0.011311594396829605 0.010149603709578514 -0.0018331438768655062 -0.001007415005005896 -0.025864677503705025 -0.006928148679435253 0.0030932531226426363 0.006573639810085297 -0.005842216312885284 0.00774864898994565 0.009779523126780987 0.00648801214993 -0.0025016216095536947 -0.008168751373887062 -0.007923846133053303 0.005643837619572878 0.0015000005951151252 -0.011537459678947926 -0.017028752714395523 0.005396581254899502 -0.00042630627285689116 -0.00966519396752119 0.0072029996663331985 -0.003069631988182664 0.002278360538184643 0.00829653162509203 0.0018630304839462042 0.007705849129706621 0.004650653339922428 -0.006349639501422644 -0.010679066181182861 -0.00388858444057405 0.00520029291510582 0.004113366827368736 0.010941640473902225 -0.0008303286740556359 -0.0030099789146333933 -0.006880064494907856 0.006584725342690945 0.006955415476113558 0.0026969152968376875 0.004611394368112087 0.00614647101610899 0.0021278909407556057 0.0028185078408569098 -0.0007861983613111079 0.018155381083488464 0.00705068651586771 -0.010952213779091835 0.007021722383797169 -0.0031805422622710466 -0.0036362933460623026 -0.015384809114038944 -0.0029916453640908003 0.004457945004105568 -0.0020218282006680965 0.006230396218597889 -0.00481156911700964 -0.004839952569454908 -0.014528975822031498 0.004303691443055868 -0.01710844412446022 -0.010422125458717346 -0.008684187196195126 -0.001671139500103891 -0.001420728862285614 0.0012692105956375599 0.0026450296863913536 0.005139680579304695 0.005934571847319603 -0.00889480672776699 -0.002504175528883934 0.0011737652821466327 -0.0022700894623994827 0.006081204861402512 -0.0055954898707568645 0.005669017788022757 -0.019137253984808922 0.009013189934194088 0.007830047979950905 0.007228397764265537 -0.010820337571203709 0.002688633743673563 -0.007583969738334417 -0.013795878738164902 -0.025211159139871597 0.0008808834245428443 0.010006542317569256 0.017541468143463135 0.011477555148303509 -0.0007182619301602244 -0.007853309623897076 0.0036791134625673294 0.008534579537808895 -0.00139104132540524 -0.0079558240249753 0.007874133996665478 -0.0021647438406944275 0.0013198902597650886 0.0038060559891164303 -0.013199027627706528 -0.006879104301333427 -0.0012910320656374097 0.011640818789601326 0.0012252118904143572 0.015892408788204193 0.006286706775426865 0.00801702681928873 -0.009710314683616161 -0.01567375846207142 0.013124510645866394 0.003436159109696746 0.006056066602468491 0.008254489861428738 -0.001116952858865261 0.017484337091445923 -0.012432795949280262 0.011104953475296497 0.009062419645488262 0.00228475802578032 0.004446800332516432 -0.014105540700256824 -0.008695285767316818 -0.005609695799648762 -0.0023597695399075747 -0.006292658392339945 -0.001324027543887496 0.003621975425630808 -0.004409024026244879 -0.0059218937531113625 -2.87048242171295e-05 0.014818919822573662 -0.007934130728244781 0.005502371117472649 -0.006736816372722387 0.005387787241488695 0.0019084496889263391 -0.008457394316792488 0.0028596259653568268 0.005502691492438316 -0.012045576237142086 0.016212306916713715 0.008839456364512444 -0.009874623268842697 0.001285902806557715 -0.005874156020581722 0.008868079632520676 0.0018138883169740438 -0.0021288965363055468 -0.005485009402036667 -0.002067135414108634 0.012160968035459518 0.0013571722665801644 0.0011508377501741052 0.0035835239104926586 0.0018480480648577213 -0.011232348158955574 -0.011660787276923656 0.0017351735150441527 0.0019112920854240656 -0.00224174908362329 -0.003950214013457298 0.007382504642009735 -0.0034620838705450296 -0.007158005144447088 -0.010255950503051281 0.002105007879436016 0.0015516745625063777 -0.004721878562122583 -0.019016336649656296 0.015142420306801796 -0.002392055466771126 -0.0013046932872384787 0.005320368334650993 0.0016509474953636527 0.005935248453170061 -0.010801657103002071 0.002729105995967984 -0.0010520213982090354 0.007287872023880482 -0.007400136906653643 -0.0039545693434774876 0.008234243839979172 0.003958261106163263 0.01913488656282425 0.0016380423912778497 -0.008755071088671684 0.00892430916428566 -0.01569625921547413 -0.007744969800114632 -0.0019225325668230653 0.011456961743533611 -0.005223829764872789 -0.0076107182539999485 0.011427430436015129 -0.004201732110232115 0.0034096345771104097 -0.0009545719367451966 0.01637290045619011 -0.012384222820401192 -0.0011354860616847873 -0.010609068907797337 0.00018517719581723213 0.0017491456819698215 0.014655918814241886 -0.006464649457484484 -0.0027039465494453907 -0.011026271618902683 0.009387871250510216 0.005088817328214645 -0.0032374481670558453 0.00844467245042324 -0.006585874129086733 -0.012442132458090782 -3.9833041228121147e-05 -0.013485721312463284 -0.0012324880808591843 0.013456784188747406 -0.009807966649532318 -0.0126843536272645 0.0025222222320735455 -0.005086738150566816 -0.010590899735689163 -0.00018691978766582906 0.00034188557765446603 -0.004687729757279158 0.0010831875260919333 0.011760523542761803 -0.000853871344588697 -0.011989012360572815 0.009383627213537693 -0.007859515026211739 -0.012874730862677097 -0.008278515189886093 0.006112134549766779 -0.010107329115271568 0.002452574670314789 0.0011212172685191035 -0.0025495311710983515 -0.005992143414914608 0.0035562298726290464 0.002039470709860325 0.0004985692794434726 0.006940742023289204 -0.010576000437140465 0.002789977239444852 -9.211997530655935e-05 -0.006559799425303936 0.010859311558306217 0.011531110852956772 0.0016806479543447495 -0.002802681876346469 -0.006093872245401144 -0.005525192711502314 -0.004057775251567364 0.0036518240813165903 0.0031828826759010553 -0.0008108087349683046 0.0025065604131668806 0.0006965116481296718 0.004009135067462921 6.361823125189403e-06 -0.007025202736258507 0.00020176131511107087 -0.0026799137704074383 -0.002670454327017069 0.01489196252077818 0.018596509471535683 7.49833561712876e-05 -0.0011448246659711003 0.004407581873238087 0.004325132817029953 -0.0059013343416154385 -0.008957816287875175 -0.005707919597625732 -0.006441270932555199 -0.00044957533827982843 -0.0008745706873014569 0.0017766791861504316 0.014598643407225609 -0.0013422345509752631 -0.0013259112602099776 -0.005547704640775919 0.004007641691714525 -0.006284697912633419 0.013522384688258171 0.007731598801910877 0.007687682285904884 0.01005508378148079 -0.018694965168833733 -0.008285886608064175 0.00706761097535491 -0.004896736703813076 0.000682793790474534 0.002865423681214452 0.007936623878777027 -0.0038384301587939262 0.009294990450143814 -0.0078087602742016315 -0.013319714926183224 0.027858547866344452 0.003306685946881771 -0.001650238293223083 -0.008566759526729584 0.006949283182621002 -0.016453133895993233 0.00976127851754427 0.0035234808456152678 0.004910228308290243 -0.006363373249769211 -0.0017931839684024453 0.005435246974229813 0.004518141504377127 -0.0022415686398744583 -0.004318530205637217 -0.013110958971083164 0.0021387168671935797 -0.009721865877509117 0.00920047890394926 -0.006769654341042042 -0.012187842279672623 -0.000594434211961925 0.00818780716508627 -0.001343648531474173 0.009836617857217789 -4.262689981260337e-05 0.0010063496883958578 -0.00929733831435442 0.007640720345079899 0.026162773370742798 -0.0033875065855681896 0.0022851410321891308 0.0020553425420075655 -0.00034801801666617393 0.010218920186161995 -0.0018098489381372929 -0.008188555017113686 -0.004891606047749519 0.009800544008612633 0.007849077694118023 -0.01210941094905138 -0.004459788557142019 -0.007668068632483482 -5.329409032128751e-05 -0.0026593718212097883 0.003972681704908609 0.013640914112329483 0.009516308084130287 -0.009796485304832458 0.006291225552558899 0.0005211920943111181 -0.002046874724328518 -0.014337485656142235 -0.012153107672929764 0.00017066970758605748 -0.0035696574486792088 -0.003754932666197419 0.006470803637057543 6.236616900423542e-05 0.012281381525099277 0.006051050499081612 -0.0030196800362318754 -0.009246211498975754 0.005090146791189909 -0.006519412621855736 0.013717660680413246 -0.0007510831928811967 -0.006200822535902262 0.012584920041263103 0.001083939685486257 -0.0007266271859407425 0.007374142296612263 -0.00903354212641716 -0.005806000903248787 0.0007946820114739239 0.007313997950404882 -0.00527693098410964 0.008978799916803837 -0.006129777058959007 -0.010372666642069817 -0.009155434556305408 0.0024783099070191383 0.0052429866045713425 -0.0082544619217515 0.006861194968223572 -0.007510219234973192 -0.00866575539112091 -0.01174582727253437 -0.011312178336083889 -0.014522075653076172 0.009458917193114758 -0.007015369366854429 -0.000562683620955795 -0.010462934151291847 0.0022084552329033613 0.010274942964315414 -5.416004569269717e-05 -0.001466020941734314 -0.0032790920231491327 -0.011207557283341885 0.010099061764776707 0.004262617789208889 0.020907754078507423 -0.005514658521860838 -0.005003829021006823 -0.007960023358464241 0.007190585136413574 0.007986389100551605 -0.02067692019045353 -0.008748256601393223 -0.006468153093010187 0.010497643612325191 0.0024116032291203737 -0.0027825748547911644 0.005698888096958399 0.0025089706759899855 0.002743867924436927 0.017026100307703018 -0.007058983203023672 -0.003525829641148448 0.001481857500039041 0.0009765700669959188 0.013608718290925026 -0.0013316022232174873 -0.0026219298597425222 0.004244561772793531 0.0006001506117172539 0.009592613205313683 0.0030034619849175215 0.005181259009987116 -0.007084028795361519 -0.007178723346441984 0.003754335455596447 -0.0013300481950864196 0.009037798270583153 0.008593807928264141 -0.004863441456109285 0.0002945465676020831 0.001224844134412706 -0.001430317061021924 -0.01194035168737173 -0.011839448474347591 0.0004711130168288946 0.0024630308616906404 0.0029040949884802103 -0.005479271523654461 -0.002749898238107562 0.004335145000368357 0.00456291763111949 0.014456215314567089 0.0032567481976002455 -0.006916222162544727 -0.001997412880882621 -0.011860896833240986 -0.0017432085005566478 -0.006975363474339247 -0.01050244178622961 0.010519021190702915 -0.00842917338013649 0.015954434871673584 0.0012863818556070328 0.008680316619575024 -0.008565581403672695 -0.004365006927400827 0.0017952666385099292 0.0004028440162073821 0.004201814997941256 -0.0013357728021219373 0.0013680481351912022 0.003589172847568989 0.0009822112042456865 0.0049752588383853436 -0.005712306126952171 0.0012504297774285078 -0.007252044975757599 0.0006599713233299553 -0.0037455041892826557 -0.009015745483338833 0.002689712680876255 0.018018443137407303 -0.01196806039661169 -0.008141040802001953 0.011357909999787807 -0.00014768687833566219 -0.012095324695110321 -0.024321122094988823 -0.0037247997242957354 0.009887853637337685 0.005391082260757685 0.0012085667112842202 0.0015729662263765931 0.004484682343900204 -0.0019986762199550867 0.0003253454633522779 0.01338912732899189 0.00020929909078404307 0.007977567613124847 0.0007672248757444322 -0.0008327235700562596 0.017690835520625114 -0.005171057768166065 0.006909182760864496 0.004312492441385984 -0.0018664621748030186 -0.015225302428007126 -0.013060041703283787 -0.011197862215340137 -0.0017216207925230265 0.0007374370470643044 0.0014211965026333928 -0.006748801562935114 -0.004634433425962925 -0.0032999583054333925 0.011332500725984573 -0.007901058532297611 0.00024783381377346814 -0.00023388185945805162 -0.026055792346596718 0.00941690057516098 -0.01520849671214819 -0.013827789574861526 -0.003757230471819639 -0.001522139529697597 -1.7061494872905314e-05 0.007010687608271837 -0.016781924292445183 -0.008739940822124481 0.019995717331767082 -0.011242040432989597 -0.006579664535820484 0.0013714246451854706 -0.010506226681172848 -0.0011481356341391802 0.017760777845978737 -0.011038639582693577 0.0064530279487371445 -0.0063948193565011024 -0.011209520511329174 0.003977643325924873 -0.01116257905960083 -0.0009822569554671645 -0.012596131302416325 0.0026413302402943373 0.0007580245728604496 -0.013340974226593971 -0.0032137008383870125 0.0067571611143648624 -0.007898970507085323 4.5265303924679756e-05 -0.014057797379791737 -0.008022429421544075 0.018512843176722527 -0.011530064977705479 -0.0005133422673679888 -0.0109486635774374 -0.0010515751782804728 -0.002437121933326125 0.015857212245464325 0.01484906766563654 0.0032276478596031666 -0.004648719448596239 0.009706839919090271 0.005181488115340471 -0.002805000403895974 0.007148974109441042 0.00919223204255104 -0.004384432919323444 -0.003929375670850277 0.007027060724794865 0.00721545098349452 -0.002174082212150097 0.010313446633517742 0.00029396024183370173 0.01319170743227005 0.005998053587973118 -0.0014025039272382855 -0.002457049209624529 0.01061231829226017 -0.005047091282904148 0.0019892058335244656 0.004276571329683065 -0.00011194057879038155 0.00358750531449914 0.0004962213570252061 0.009396934881806374 -0.0012625830713659525 -0.010378720238804817 -0.005902664270251989 -0.01318247988820076 0.009057104587554932 -0.01214488036930561 -0.012458045966923237 -0.0016449203249067068 0.01632341369986534 -0.0016944247763603926 -0.002239047782495618 -0.00844770111143589 -0.0002716814633458853 7.968291902216151e-05 0.0041038477793335915 0.004610549192875624 0.006580968387424946 -0.006852862890809774 0.0032485646661370993 -0.010747145861387253 0.01378576923161745 0.003394903615117073 -0.0025733765214681625 0.006657120306044817 -0.007028666790574789 -0.007745576091110706 -0.001168122049421072 -0.005934448912739754 0.004603744484484196 0.0065144868567585945 0.01757308840751648 -0.005251327529549599 -0.0011695679277181625 -0.0011935431975871325 0.012766902334988117 0.006145336199551821 0.0027091882657259703 0.0036835765931755304 0.006597660016268492 -0.005674911662936211 0.002027957234531641 0.0030745447147637606 -0.009115545079112053 0.003203880973160267 -0.01062542200088501 0.000816085550468415 0.0033945825416594744 -0.0061456854455173016 -0.001550172921270132 0.006741045508533716 -0.00847847294062376 0.016751883551478386 0.012618849985301495 0.007753046695142984 0.013833435252308846 -0.003900407813489437 -0.0030272421427071095 -0.00958822388201952 0.017402946949005127 -0.005378213245421648 0.0039360420778393745 -0.005331470165401697 -0.0062783160246908665 -0.006700454279780388 -0.0035968117881566286 0.002050027484074235 -4.678441200667294e-06 0.007181443274021149 -0.0037907531950622797 -0.005496809259057045 -0.006783755961805582 -0.00572203379124403 0.0005222268518991768 -1.2974262062925845e-05 0.021730437874794006 0.0007900846539996564 -0.005118355620652437 -0.0014577527763321996 -0.013460993766784668 0.002721271710470319 0.008788224309682846 0.005081677809357643 -0.0026200374122709036 -0.0010746346088126302 0.0018187519162893295 0.004517443478107452 -0.005518164020031691 0.010388773865997791 0.007296381983906031 0.006270097102969885 -0.01151367649435997 0.003657379886135459 -0.005649667698889971 -0.01364835910499096 0.006435259710997343 0.004612553399056196 0.005567309446632862 -0.0077445609495043755 0.0011298080207780004 -0.01443178579211235 0.003776639001443982 -0.011053621768951416 -0.010879147797822952 0.003449504729360342 -0.011034814640879631 -0.010374235920608044 0.003530236892402172 -7.577234646305442e-05 -0.002526379656046629 0.005043947137892246 -0.014906630851328373 0.005376997869461775 0.00887697096914053 0.002528191776946187 0.00411246670410037 -0.00432152533903718 0.0005613436223939061 -0.0006993910646997392 0.004988844506442547 -0.002943875500932336 -0.0017439457587897778 0.00985427014529705 -0.0012799742398783565 0.004832502454519272 -0.007243456318974495 -0.0074588642455637455 0.010654795914888382 -0.006861617788672447 -0.005938075948506594 -0.01368319895118475 0.00350312446244061 -0.00246960436925292 0.005955616477876902 0.0055588423274457455 -0.004219287075102329 -0.001740398001857102 -0.013479460030794144 -0.0003873881069011986 0.0004293977399356663 0.004856003914028406 0.006269033998250961 0.00257134810090065 0.0016692033968865871 0.008119828999042511 -0.013008116744458675 -0.005946408025920391 0.0033518821001052856 0.010350272059440613 0.004301704466342926 -0.005603468976914883 -0.006763612385839224 0.0007331250817514956 -0.006618069019168615 -0.006555874831974506 -0.0025229535531252623 0.006508295889943838 -0.004917655140161514 0.002980341436341405 0.0012181663187220693 0.00039898595423437655 -0.003864474594593048 0.005301687866449356 0.003383091650903225 0.0010970903094857931 -0.005058813840150833 -0.005444759503006935 0.0052938577719032764 0.0013339186552911997 0.0013747374759986997 -0.005326544865965843 0.0013161262031644583 -0.003956313244998455 -0.0077508422546088696 -0.0024097957648336887 0.009231840260326862 -0.006802109070122242 -0.0038470495492219925 -0.01037340983748436 0.019797641783952713 -0.0008677038713358343 0.000395692593883723 0.00584748387336731 -0.013927477411925793 -0.002270085969939828 -0.007779618725180626 0.019194025546312332 -0.00738439429551363 0.0005948374746367335 -0.00389258679933846 -0.0030455163214355707 -0.003857775591313839 0.0054204934276640415 -0.002543961862102151 -0.0002499081601854414 0.010031656362116337 0.015259935520589352 0.004325801506638527 0.001624223543331027 0.0016386936185881495 0.005501349922269583 -0.0005430532619357109 -0.002540136920288205 -0.00018230389105156064 0.014208297245204449 -0.009109817445278168 0.00354122556746006 -0.007207054644823074 9.928271538228728e-06 -0.002729535335674882 -0.0036962146405130625 0.014136863872408867 -0.004805386997759342 0.007791469339281321 0.0055984253995120525 -0.006602645386010408 0.0008113426738418639 -0.0033877920359373093 -0.00031737572862766683 0.0016227081650868058 -0.0014750416157767177 -0.004638900514692068 0.001509050140157342 0.007380760740488768 -0.007496110629290342 0.006388416513800621 0.00459835072979331 0.017970459535717964 -0.007092458661645651 0.0027126758359372616 -0.002065853215754032 0.006556305103003979 0.00016593803593423218 0.0024969507940113544 -0.010688761249184608 -0.0072487350553274155 0.0031857655849307775 0.0073798890225589275 0.003979925531893969 -0.004102357663214207 0.008390401490032673 0.002145530190318823 0.004860473796725273 -0.024485651403665543 0.0079401396214962 -0.0010669033508747816 0.0038193485233932734 0.008805088698863983 -0.005512321833521128 0.003310220781713724 0.004600562620908022 -0.013705761171877384 -4.231083585182205e-05 -0.014130770228803158 -0.013311824761331081 0.001296881353482604 -0.010538140311837196 -0.0011134569067507982 -0.0059872097335755825 0.0010282427538186312 0.010425819084048271 0.0015231071738526225 0.006306968629360199 0.007737444248050451 0.0017842226661741734 -0.005623267963528633 -0.00014985399320721626 -0.003708370728418231 0.0025226587895303965 -0.00885889120399952 0.005419102031737566 0.004304211586713791 -0.005453137680888176 -0.005145416595041752 -0.006981752347201109 0.0036233856808394194 0.00030907976906746626 0.0031227830331772566 0.009137277491390705 0.0066360109485685825 -0.005393391475081444 0.000540766108315438 -0.0032778368331491947 0.020373191684484482 -0.002994967857375741 -0.002656873082742095 -0.017873652279376984 0.0101943863555789 -0.005630764644593 0.003696848638355732 -0.008332076482474804 -0.0075963763520121574 0.013458612374961376 0.009455000050365925 -0.011819085106253624 -0.008512194268405437 -0.00727393664419651 0.005197420250624418 -0.005866362247616053 -0.004427104257047176 0.005779980216175318 0.0002819123328663409 0.004260286223143339 0.001701565575785935 0.0008138697594404221 -0.01349535770714283 -0.010728968307375908 -0.004244154319167137 0.00740855885669589 0.00027282809605821967 -0.010899758897721767 -0.008726765401661396 -0.0032682667952030897 0.013352448120713234 0.001748454524204135 0.005614013876765966 0.010315428487956524 0.011377903632819653 -0.000891803065314889 -0.005255755968391895 0.005739780608564615 -0.001223465078510344 -0.0017027963185682893 -0.015279429964721203 0.0040626549161970615 0.00858298595994711 0.014062810689210892 0.010653565637767315 -0.0072419289499521255 -0.003850287990644574 0.0052523561753332615 -0.004911340307444334 0.0035393936559557915 0.0013962447410449386 0.0131986103951931 0.0014232945395633578 0.009255447424948215 -0.0027872473001480103 -0.011608132161200047 0.007663382217288017 0.007493557408452034 -0.003212906653061509 0.0046602957881987095 -0.014327683486044407 -0.00028131238650530577 -0.0035588007885962725 -0.012075336650013924 0.010625308379530907 -0.0073624285869300365 -0.014575373381376266 0.010591206140816212 -0.0064910175278782845 0.010894043371081352 -0.008551644161343575 -0.003934795036911964 0.006880055647343397 -0.0038563536945730448 -0.0031851211097091436 -0.0007203494315035641 0.00032892057788558304 0.00271888030692935 -0.008354205638170242 -0.01043592020869255 0.00464503513649106 -0.0028310264460742474 -0.0019088475964963436 -0.0033686573151499033 -0.010013977065682411 0.00644778972491622 -0.012165854685008526 -0.007478742394596338 0.004079804290086031 -0.009159804321825504 -0.0032570234034210443 0.010870368219912052 -0.008657029829919338 -0.006486360915005207 -0.007381751202046871 0.008149318397045135 -0.004673647228628397 0.006445079110562801 -0.014285275712609291 -0.006258894223719835 0.006947038695216179 -0.006752752233296633 0.004465674515813589 0.002025043359026313 -0.002928268164396286 0.004388002213090658 0.015308604575693607 0.004340475425124168 -0.010176739655435085 0.0075229257345199585 0.007408803794533014 0.01054623443633318 -0.003104056930169463 0.0093843387439847 -0.002204638672992587 -0.004721369128674269 0.008916875347495079 0.007127256132662296 -0.005747564136981964 0.006778179667890072 0.003023270983248949 -0.00402096239849925 0.0039063445292413235 -0.0008768775151111186 0.005488188937306404 0.0035543080884963274 -0.001761349500156939 0.01923569291830063 -0.005979319103062153 0.004225063603371382 0.00925356987863779 0.001523610670119524 -0.005317636299878359 0.006821479648351669 0.0006634610472247005 -0.01355701219290495 -0.0014934027567505836 0.00698627857491374 -0.007726513314992189 0.006755213253200054 -0.014806300401687622 -0.0049264077097177505 -0.004831761587411165 -0.015057280659675598 0.004532238468527794 0.004942646250128746 -0.0037715330254286528 -0.0036662404891103506 0.004107329063117504 -0.010507393628358841 -0.005405149422585964 -0.006956488359719515 -0.0008632757235318422 0.0015833621146157384 0.00048558064736425877 -0.0012777028605341911 0.016681522130966187 -0.0007744342437945306 0.002389209810644388 -0.006722854916006327 -0.005215038545429707 -0.0030480651184916496 0.00649024173617363 -0.003096730913966894 -0.009134641848504543 0.011411074548959732 -0.005222642328590155 0.007773255463689566 0.007073845714330673 0.004616170190274715 5.998159394948743e-05 -0.0009461166919209063 -0.0012360862456262112 -0.009485000744462013 -0.004335627891123295 -0.006213778629899025 0.01733624003827572 0.003058532951399684 -0.0073974658735096455 0.0031257299706339836 0.013161213137209415 0.011031463742256165 0.010303283110260963 -0.007220805622637272 0.0053743962198495865 -0.011229058727622032 0.005758669227361679 0.003910307306796312 0.009055488742887974 -0.005853006616234779 -0.003257565665990114 -0.002093832939863205 0.0005955154192633927 -0.0037607697304338217 -0.007600903511047363 -0.0030108082573860884 0.0020824188832193613 0.004772685468196869 -0.018997400999069214 3.017698873009067e-05 -0.026545025408267975 -0.0026491552125662565 0.008586807176470757 -0.002018465893343091 0.004084907006472349 0.004048709757626057 0.0018538001459091902 -0.0008830373408272862 0.0005002450780011714 0.010138001292943954 -0.003060907358303666 -0.004268739838153124 0.007060238625854254 -0.0019310752395540476 -0.005831844639033079 -0.0025864604394882917 0.014061395078897476 -0.006827854551374912 0.0030531298834830523 0.009551888331770897 -0.002461544703692198 0.007324832491576672 -0.0012271276209503412 0.0110368262976408 -0.010456048883497715 -0.010245073586702347 0.004187779035419226 0.006386096123605967 0.008329152129590511 -0.005734045058488846 -0.013418978080153465 -0.004572332836687565 0.003045581514015794 0.017127398401498795 0.001847034553065896 0.008238054811954498 -0.008275026455521584 -0.005385637748986483 0.001997112762182951 -0.005707460921257734 0.013579821214079857 0.011512720957398415 -0.0029139763209968805 -0.005544861312955618 -0.002284144749864936 0.005773637909442186 0.0072741941548883915 -0.004626919981092215 -0.0004829040262848139 -0.007797768339514732 0.0007814124110154808 -0.004331749863922596 -0.009790553711354733 -0.00023648247588425875 0.0014226450584828854 -0.004881996661424637 0.012103136628866196 -0.004605844151228666 -0.012244907207787037 0.00825841911137104 -0.005592170637100935 0.003167245537042618 0.018630696460604668 0.008569002151489258 0.0011712205596268177 0.006756338756531477 -0.003112300531938672 -0.009662752971053123 -0.0037403113674372435 -0.006081783678382635 0.0006641001673415303 -0.004859384149312973 0.008896133862435818 -0.012192153371870518 -0.003044918179512024 -0.0005595118855126202 -0.001645467127673328 0.003133480902761221 0.01950918883085251 -0.004385723266750574 5.8383200666867197e-05 -0.01366350892931223 0.0030139547307044268 -0.010153169743716717 0.007318438030779362 0.0035867840051651 0.0027739626821130514 0.009286090731620789 0.0037230721209198236 0.0006508106016553938 -0.009574303403496742 -0.003253150964155793 -0.001874703448265791 0.01114338543266058 0.002661049598827958 -0.00028997723711654544 -0.0028096153400838375 0.009436598978936672 0.013783021830022335 -0.005783936940133572 0.007502708118408918 0.011800726875662804 -0.0030325697734951973 0.0048964195884764194 -0.00921032577753067 0.013005135580897331 -0.017232106998562813 0.02001993916928768 -0.0018864424200728536 0.00701992679387331 0.00022848461230751127 0.010583410039544106 0.01381365954875946 -0.015738660469651222 -0.009327296167612076 -0.008830700069665909 -0.0009630846907384694 0.006737768650054932 0.0009557779994793236 0.0011944741709157825 0.01448619645088911 -0.000668891821987927 -0.004162449389696121 -0.00105346052441746 -0.0014403538079932332 -0.005800898652523756 0.002291172044351697 0.011128454469144344 0.0047435034066438675 -0.0018192640272900462 0.002646788489073515 -0.0006963596097193658 -0.004127832595258951 0.0032485693227499723 -0.010890849865972996 -0.00022214655473362654 -0.0014245379716157913 -0.013018894009292126 -0.000884498527739197 0.0008001012611202896 0.015981735661625862 0.007449345197528601 0.003562377067282796 0.010209494270384312 -0.00019473774591460824 -0.007094108033925295 -0.003652632934972644 -0.00739182997494936 0.0029643757734447718 -0.011345785111188889 -0.008355889469385147 0.007195258513092995 0.008914166130125523 0.005137649830430746 -0.0050397817976772785 0.00014232061221264303 0.01585923507809639 -0.000756516819819808 -0.0004120830853935331 -0.006993725895881653 0.004495986737310886 -0.009725918062031269 -0.0041245101019740105 0.002654680283740163 -0.011267335154116154 0.0010382176842540503 -0.0003027159837074578 0.002723314566537738 0.006246556993573904 -0.014948100782930851 -0.010871965438127518 0.0043987007811665535 0.0007361258030869067 -0.000509811972733587 0.0079648457467556 0.002955264411866665 0.0016096433391794562 0.01249838899821043 -0.0018754848279058933 0.009534942917525768 -0.002022533444687724 0.005236166063696146 0.007806582376360893 0.008705688640475273 0.004547502845525742 0.0009230254217982292 -0.0044594863429665565 0.004411511588841677 -0.01584373414516449 -0.0014043294358998537 0.004301329143345356 0.008964451029896736 -0.009874419309198856 -0.002426702994853258 -0.009525271132588387 -0.008284964598715305 -0.01276287529617548 -0.012841601856052876 0.002196263987571001 0.005559960845857859 0.0019001684850081801 -0.004417923744767904 0.006597852800041437 -0.0025648758746683598 -0.007582573685795069 -0.00290577276609838 -0.001387209864333272 -0.0012443625601008534 0.002071796217933297 0.0010119657963514328 -0.003566125174984336 -0.0069703408516943455 -0.01609143242239952 0.0014466511784121394 -0.010944224894046783 -0.012627718038856983 -0.002919411286711693 0.006478526629507542 0.011421801522374153 0.006500928662717342 -0.013138181529939175 0.004977460019290447 0.005369713995605707 -0.001819437020458281 0.004451432265341282 0.0006549902027472854 -0.001888895407319069 -0.0005396680789999664 -0.014173096045851707 0.004467632621526718 0.012951133772730827 -0.0001169785755337216 -0.004077885765582323 -0.00016894479631446302 -0.014460439793765545 0.004372418858110905 -0.021893538534641266 -0.0004426486848387867 0.002792067127302289 0.00067739631049335 0.0035030185244977474 0.0008384198299609125 0.0034941837657243013 0.0037718848325312138 0.011912778951227665 -0.0003607957623898983 0.008588120341300964 -0.01101175881922245 -0.008557581342756748 0.0004629851900972426 0.0062611219473183155 0.009258301928639412 -0.007126709446310997 0.004944417160004377 0.013452566228806973 0.011515055783092976 0.006010546814650297 0.008943923749029636 -0.0016108909621834755 -0.00696084788069129 0.0067355334758758545 0.011985369957983494 -0.005364445503801107 -0.0005389018333517015 0.0006032520323060453 0.005085787270218134 -0.006951918825507164 0.013881522230803967 0.005585059057921171 -0.010038972832262516 -0.0008777415496297181 -0.006976104341447353 0.0027444097213447094 -0.004077869467437267 0.0006535652210004628 -0.002076014643535018 -0.0017968311440199614 -0.009554456919431686 -0.00414169579744339 -0.009836786426603794 -0.020909447222948074 0.001119897235184908 0.007399431895464659 0.003341641277074814 -0.00034565426176413894 0.003085612552240491 0.004576121456921101 0.0031113203149288893 0.005197408143430948 0.006429451052099466 0.0061805518344044685 -0.003850696375593543 -0.00031115487217903137 0.007913933135569096 -0.0031973938457667828 0.009189304895699024 -0.007196103222668171 -0.007733718492090702 0.0045760516077280045 -0.0033058952540159225 -0.014250409789383411 -0.008722253143787384 0.004384604748338461 0.010278658010065556 -0.011920026503503323 -0.004969960078597069 0.005643950309604406 -0.002513077575713396 0.005678633227944374 0.008386575616896152 -0.007696177810430527 0.007551064249128103 0.00035158591344952583 0.007535235490649939 -0.005990454461425543 -0.0015231885481625795 -0.010805262252688408 0.00826954934746027 -0.012564877048134804 -0.005032241344451904 0.006082569248974323 -0.0060937548987567425 -0.0005855897907167673 0.0032299335580319166 0.0006755878566764295 0.009754705242812634 -0.010368023999035358 -0.00980437733232975 0.01074746809899807 -0.020673008635640144 -0.008507747203111649 -0.0020865800324827433 0.0019757773261517286 0.011537613347172737 -0.002442020922899246 0.00247871782630682 0.0008783318917267025 -0.011111661791801453 0.0040525165386497974 -0.004235364496707916 0.003741051070392132 -0.0003753917117137462 0.0036065930034965277 0.001964279916137457 -0.009379465132951736 0.005752697121351957 -0.0027487194165587425 -0.0028855265118181705 -0.005747426301240921 0.007159337867051363 -0.0008375977631658316 0.014111577533185482 0.00011124426237074658 0.003491790033876896 -0.002320152474567294 -0.0021259235218167305 -0.0025010081008076668 0.0006262464448809624 0.008952569216489792 0.003076972207054496 0.005249992478638887 -0.0035808663815259933 -0.013304023072123528 -0.014411622658371925 -0.0023932463955134153 -0.018031252548098564 0.003973991144448519 -0.008082635700702667 -0.0024339871015399694 -0.0054152971133589745 -0.015570402145385742 -0.0064148916862905025 0.004397450014948845 -0.0009378305403515697 -0.0009658674243837595 0.0036202608607709408 0.0038205410819500685 -0.0009567111846990883 -0.00918105524033308 -0.006753896828740835 0.004630392882972956 -0.005637256428599358 -0.00442984513938427 0.0013826346257701516 0.020573100075125694 -0.007559441030025482 0.0005511746858246624 0.004239183384925127 -0.0008128326153382659 0.006250549573451281 0.004706280305981636 0.012438423000276089 0.007825626991689205 -0.010004331357777119 -0.003227922134101391 0.0006649012211710215 -0.009303128346800804 -0.00756628205999732 -0.000606423825956881 -0.004240822978317738 -0.0026528032030910254 0.0017608031630516052 -0.020658833906054497 0.004338810220360756 0.0038807278033345938 0.008280481211841106 0.016661928966641426 -0.006487131118774414 -0.0015705721452832222 -0.011801246553659439 0.013991241343319416 0.0035234123934060335 0.004460632801055908 -0.006851933430880308 -0.0028696057852357626 -0.008896060287952423 0.004416812676936388 0.005464062560349703 -0.006028400268405676 -0.00652354396879673 -0.017777398228645325 0.006207870319485664 -0.0037588344421237707 0.015722932294011116 -0.01047517266124487 -0.0005769386771135032 -0.010341022163629532 -0.00016852625412866473 0.008532988838851452 -0.0005044552381150424 -0.014376843348145485 0.005388633348047733 0.0021425660233944654 0.006833186373114586 -0.002697097836062312 0.00013259124534670264 0.006043247412890196 -0.008986108936369419 -0.013370647095143795 -0.0027539783623069525 -0.006998165976256132 -0.001587750855833292 0.002914269920438528 -0.01771477609872818 -0.005606608930975199 -0.0021373010240495205 -0.0006570321274921298 0.003847855608910322 -0.0042098588310182095 0.0011751271085813642 0.007976530119776726 0.006173220928758383 0.0009792470373213291 -0.00033433601493015885 -0.005075542721897364 -0.002692998619750142 0.009177318774163723 0.007035005372017622 0.001750751631334424 -0.014539467170834541 0.006368301808834076 -0.0006013160455040634 -0.0017094500362873077 -0.009016694501042366 -0.008617223240435123 -0.0038653158117085695 0.00542190857231617 9.612947178538889e-05 0.0071442159824073315 -0.009172393940389156 0.00015368267486337572 -0.00629292381927371 -0.009054603986442089 -0.004865183960646391 -0.007479869294911623 0.004343114327639341 -0.0022718491964042187 0.0045127104967832565 -0.0005018944502808154 0.003598177805542946 0.01215855497866869 -0.004414440132677555 0.007471299730241299 0.0065574971958994865 -0.0038379114121198654 -0.000779504596721381 -0.008848120458424091 0.015919717028737068 -0.020741324871778488 0.003705383511260152 0.0007762816385366023 -0.011892569251358509 0.004252547398209572 0.005730742122977972 -0.0007217199890874326 0.004766867961734533 0.004756814334541559 0.012942365370690823 0.004451252054423094 -0.006099314894527197 -0.0020588890183717012 -0.005143736023455858 0.010675371624529362 -0.004516368731856346 0.004917282611131668 0.007810795679688454 -0.007135254330933094 0.003984945360571146 -0.0184616856276989 0.014395001344382763 0.004150921944528818 0.009101775474846363 0.007900492288172245 -0.012562435120344162 -0.010949615389108658 0.0022744827438145876 0.006712920963764191 0.005068006459623575 -0.0006642336957156658 0.003146369243040681 -0.005849853623658419 0.026102442294359207 -0.006699330639094114 0.0076764733530581 0.003394367638975382 -0.0037737477105110884 -0.006646196357905865 0.005359243135899305 -0.012166534550487995 -0.012749607674777508 0.005948474630713463 0.004573051352053881 0.007300485856831074 -0.004745333921164274 0.0033369860611855984 -0.0024785655550658703 0.0012325607240200043 -0.01536666601896286 -0.00010670896153897047 0.002534465864300728 -0.005261600483208895 0.002127944491803646 -0.0005514913937076926 0.0003290891763754189 -0.01005738414824009 -0.01213446818292141 -0.005412970669567585 -0.007211111951619387 -0.010202618315815926 -0.0016433635028079152 0.0069007049314677715 0.003551046596840024 0.004924795124679804 -0.0024460507556796074 -0.009138256311416626 0.002842942951247096 -0.002219167072325945 -0.0003372199716977775 -0.00768687529489398 0.003779033897444606 0.002362253610044718 -0.009749740362167358 0.0012001472059637308 0.0047804019413888454 0.008852720260620117 -0.015360129065811634 -0.0014824504032731056 -0.00940813310444355 0.0031423664186149836 -0.004806095734238625 0.019049888476729393 0.0007639333489350975 0.003636993933469057 -0.006847831420600414 -0.0010321962181478739 -0.010837072506546974 -0.004121631383895874 -0.014387080445885658 -0.010098018683493137 0.005756985861808062 0.00727142533287406 0.0032022681552916765 -0.0018163163913413882 -0.009319603443145752 0.013567944057285786 0.0012469504727050662 0.0017376248724758625 0.004466544836759567 0.0016374057158827782 0.0028410665690898895 0.005450285505503416 -0.007239208091050386 0.0017148943152278662 -0.001124096568673849 0.016403747722506523 0.004425230901688337 -0.00443065632134676 0.001713315723463893 0.0049428013153374195 -0.010135871358215809 -0.0003492575488053262 0.008831058628857136 -0.0046846684999763966 -0.004014487378299236 -0.005155216436833143 -0.008864110335707664 0.0007316357805393636 -0.00886476133018732 -0.0026016104966402054 -0.0005631134263239801 0.001084855175577104 0.006154800299555063 -0.010159355588257313 0.0006436234689317644 -0.004759659990668297 -0.010781181044876575 0.010360116139054298 -0.028727389872074127 -0.008477164432406425 -0.003276894334703684 0.016565216705203056 -0.016025763005018234 0.003559132106602192 -0.004846416413784027 -0.0019076091703027487 0.0009321759571321309 0.004571827128529549 -0.001960315741598606 0.005364511627703905 -0.004430143628269434 -0.0024740740191191435 0.006161934230476618 0.0014849728904664516 0.004305962473154068 -0.0013918334152549505 -0.010464256629347801 -0.0008259930182248354 0.00015843035362195224 0.003703354625031352 0.0007821067702025175 -0.0007615852518938482 0.0037190085276961327 0.009929713793098927 -0.011669319123029709 0.0039979200810194016 -0.0062479558400809765 -0.004170987755060196 0.0001064093885361217 0.0027412227354943752 0.0018293785396963358 0.0037875869311392307 -0.00045157817658036947 -0.007913989014923573 0.009785215370357037 -0.0018309385050088167 0.0009136305889114738 -0.0008068936294876039 -0.0030266353860497475 -0.0011562150903046131 -0.013151346705853939 0.009630696848034859 -0.0025249822065234184 0.003479398088529706 8.10982528491877e-05 0.0023174246307462454 0.002217983128502965 -0.013642948120832443 -0.001464695087634027 -0.0006475402624346316 -0.006396761629730463 -0.010605089366436005 0.004238393623381853 0.006591102574020624 0.002134149195626378 -0.0004840670444536954 0.0004400540783535689 -0.009110061451792717 0.003364886622875929 0.003650346305221319 -0.00942529272288084 0.01012974139302969 -0.002127736806869507 -0.01510185282677412 0.004390351008623838 -0.016900241374969482 -0.004845461808145046 -0.006486352067440748 0.015602793544530869 0.014556564390659332 0.0011318905744701624 0.012871372513473034 -0.0013860233593732119 0.0024337468203157187 -0.008867782540619373 0.011603293940424919 0.016110315918922424 0.020074231550097466 -0.007983765564858913 -0.0004294455284252763 -0.012752175331115723 -0.00555688701570034 0.011940819211304188 0.008110187947750092 0.0017927614971995354 0.005270639434456825 0.00037555862218141556 -0.008423897437751293 0.007663333788514137 -0.0047811055555939674 -0.0074587189592421055 0.007973289117217064 -0.006457224953919649 0.013633507303893566 0.004525935743004084 -0.003315936541184783 -0.0026036622002720833 -0.006501900032162666 -0.0030979225412011147 -0.007288032211363316 -0.008647558279335499 -0.00250078528188169 -0.003875561524182558 0.0014057686785236 0.011991622857749462 4.7060337237780914e-05 0.012303550727665424 -0.006567268632352352 -0.0033689546398818493 0.004178362432867289 -0.009528436698019505 -0.011758573353290558 0.012824584729969501 -0.015199347399175167 0.006125714164227247 0.002953081391751766 0.009198031388223171 0.012742229737341404 0.006918276194483042 -0.008158997632563114 -0.0031882785260677338 0.012485316954553127 -0.00048238938325084746 -0.0062148235738277435 -0.01510719396173954 -0.0007664720760658383 0.0027615283615887165 -0.009175105951726437 -0.003802201244980097 -0.0032679897267371416 -0.010824303142726421 -0.005647381767630577 0.005804942920804024 8.632877870695665e-05 -0.0018947829958051443 -0.013540098443627357 -0.004009009804576635 -0.010649587027728558 0.005946372635662556 0.00866438914090395 -0.005881217308342457 0.02007758617401123 -0.0004991133464500308 -0.01425122655928135 0.001302312477491796 -0.002450854517519474 -0.0014736538287252188 0.010775454342365265 0.00632657902315259 -0.0062247212044894695 0.0019010661635547876 0.0055566951632499695 0.0026013439055532217 0.002448688494041562 0.005264938343316317 0.0012830166378989816 -0.009805639274418354 0.019871797412633896 -0.008124064654111862 -0.006076057907193899 -0.005396985448896885 0.005795049015432596 -0.011441987007856369 0.009003540500998497 0.004560696426779032 0.008777082897722721 -0.003456707810983062 -0.0018515422707423568 -0.005654431413859129 -0.010541611351072788 0.007574859075248241 -0.002129953820258379 -0.00937605556100607 -0.0037452334072440863 0.003090951358899474 -0.009751621633768082 0.006882620044052601 0.004552850034087896 0.004461514297872782 -0.013595414347946644 -0.0043383254669606686 0.0035588706377893686 -0.0082477368414402 -0.0009256381308659911 -0.0005050350446254015 -0.0002549068594817072 -0.001968696480616927 0.0016753808595240116 0.004559123422950506 -0.0019487529061734676 0.0126957381144166 -0.006180224474519491 -0.0008811884326860309 -0.0020423789974302053 0.00038340885657817125 0.004194704815745354 -0.014550258405506611 -0.004086324945092201 0.00047403108328580856 -0.0035763406194746494 -0.0023613939993083477 0.007121655158698559 0.005064394325017929 0.014423307031393051 0.006163303274661303 0.0020553553476929665 -0.00032617669785395265 -0.004556015133857727 0.011035348288714886 0.008937230333685875 -0.005597466137260199 -0.0034533978905528784 0.00597400451079011 -0.003182164626196027 -0.00412561884149909 0.004986551124602556 0.008907729759812355 0.00716946367174387 0.00930824689567089 0.0018141953041777015 0.002000692766159773 -0.01061462052166462 0.020161008462309837 0.003169403877109289 0.013294592499732971 -0.010527011938393116 0.0003473250544629991 -0.004034547135233879 0.0055469730868935585 0.007781675085425377 0.00807938352227211 0.008714182302355766 0.009181033819913864 0.006597921717911959 -0.004030709620565176 0.0069132158532738686 -0.017689334228634834 -0.0062198578380048275 -0.003521161386743188 -0.00016279240662697703 0.008635315112769604 -0.012664060108363628 -0.0061551951803267 -0.0027403219137340784 -0.004232036415487528 0.008020796813070774 0.006811385042965412 -0.0068447887897491455 0.001513820025138557 -0.002675706520676613 0.012515673413872719 -0.0042321933433413506 -0.008725430816411972 0.005405027884989977 9.504715853836387e-05 -0.008692446164786816 0.00940283015370369 -0.005807746667414904 -0.02035994827747345 -0.0007523006643168628 0.00010195434879278764 -0.004356522113084793 -0.0026871119625866413 -0.004888894036412239 -0.00121890043374151 0.006267680320888758 0.007440675050020218 -0.004186299629509449 -0.012052357196807861 -0.014325621537864208 -0.009201280772686005 0.006537794601172209 0.0003573016729205847 0.0018069143407046795 0.008543985895812511 -0.001780601218342781 0.002514636842533946 0.008518796414136887 0.0027017095126211643 0.0030215855222195387 0.006056441459804773 -0.010295526124536991 -0.007192640099674463 -0.0030622363556176424 -0.006618333049118519 -0.0013017611345276237 -0.004274493549019098 -0.008401059545576572 0.006398166064172983 0.003580034477636218 -0.003982693422585726 0.0022518918849527836 -0.0051331170834600925 0.01307860016822815 -0.0017454554326832294 -0.001971496269106865 -0.008369365707039833 0.012114832177758217 0.013088341802358627 -0.007820605300366879 0.001695047365501523 -0.010059610940515995 -0.013649873435497284 -0.005538490135222673 -0.0121412742882967 -0.0050611901096999645 -0.006865286733955145 0.0019096002215519547 0.001697183703072369 0.02017844468355179 0.0036976789124310017 0.0036347750574350357 -0.0010717004770413041 0.001416226732544601 0.0003310376196168363 0.010442853905260563 -0.014297153800725937 0.0033415500074625015 -0.0018653025617823005 0.016356978565454483 -0.013947421684861183 -0.008434420451521873 0.015658458694815636 -0.0019527238328009844 0.0030192644335329533 -0.0033204504288733006 -0.001727628638036549 0.008595400489866734 -0.009486271999776363 -0.0038156842347234488 0.011660871095955372 0.010897655971348286 -0.02616572007536888 0.000715969130396843 -0.001957423286512494 -0.0026633793022483587 0.007941278629004955 -0.0015433969674631953 -0.012279498390853405 0.004745630547404289 0.004190689418464899 0.008426722139120102 -0.00737546244636178 -0.003182349493727088 0.006020054686814547 0.014853954315185547 0.003643658244982362 -0.010340900160372257 -0.0010403124615550041 -0.0024609090760350227 -0.0013699569972231984 -0.0016507678665220737 0.003760518506169319 0.007603678852319717 0.0050652832724153996 0.01111295260488987 0.0023163254372775555 0.003334126668050885 -0.004342082887887955 0.0037550064735114574 -0.009866844862699509 -0.00475173257291317 -0.005428890231996775 -0.007732205558568239 0.011574747040867805 -0.004625605884939432 0.009934836067259312 0.001734490622766316 0.009028306230902672 0.012069892138242722 0.006250864360481501 0.00535305542871356 0.00018911983352154493 0.0008037133375182748 0.0031738807447254658 -0.009620091877877712 0.007315295282751322 0.004508746322244406 0.003942117094993591 -0.0072897314094007015 -0.017752893269062042 0.013906745240092278 0.00205195602029562 -0.006909439340233803 -0.001447422313503921 0.0003601966018322855 -0.008661552332341671 0.0019891816191375256 0.00650433637201786 -7.240306149469689e-05 0.011186260730028152 -0.0029581484850496054 -0.0009167063399218023 0.0031005844939500093 -0.006918393541127443 0.005917011294513941 -0.007078284397721291 0.00020336390298325568 -0.015113473869860172 0.007180537097156048 0.0033718300983309746 -0.005221184808760881 0.010029619559645653 0.003734925063326955 0.00407463638111949 -0.0005525695742107928 -0.011305033229291439 0.0035215059760957956 0.005276490468531847 0.0009623161167837679 0.0023418155033141375 -0.018674157559871674 -0.02069002203643322 0.009090163744986057 0.0037625213153660297 0.005180900450795889 0.003936775028705597 -0.0043905749917030334 0.0008732030401006341 0.010559141635894775 -0.002721707336604595 -0.012165797874331474 -0.014346367679536343 